4.392605274915695190e-02,-5.064222216606140137e-02,1.357155591249465942e-01,-1.697619259357452393e-01,-1.693950034677982330e-02,-1.163718327879905701e-01,1.270691901445388794e-01,-6.050969008356332779e-03,8.642709814012050629e-03,4.614404961466789246e-02,-1.767339855432510376e-01,-1.130472347140312195e-01,-1.035603508353233337e-01,-1.804763227701187134e-01,-9.069677442312240601e-02,-4.850316047668457031e-02,-1.755332760512828827e-02,5.235880613327026367e-02,-1.950183063745498657e-01,7.607721537351608276e-02,8.937770128250122070e-02,-6.163389235734939575e-02,5.552863702178001404e-02,8.336930721998214722e-02,-1.879303902387619019e-02,1.103176623582839966e-01,-1.211624741554260254e-01,-1.763822436332702637e-01,-6.213147938251495361e-02,6.908402428962290287e-04,-6.387965381145477295e-02,1.497887074947357178e-01,-9.656261652708053589e-02,1.411368995904922485e-01,1.141264662146568298e-01,-2.435855753719806671e-02,-7.337633520364761353e-03,-1.837618649005889893e-01,1.616904437541961670e-01,8.423482626676559448e-02,9.633778780698776245e-02,6.415098905563354492e-02,-1.249241232872009277e-01,8.806082420051097870e-03,1.169559136033058167e-01,1.333726644515991211e-01,2.237765491008758545e-02,1.093267574906349182e-01,6.580654531717300415e-02,-1.890218444168567657e-02,1.640137843787670135e-02,-1.659401059150695801e-01,-1.242809817194938660e-01,1.328849047422409058e-01,-1.352463196963071823e-02,3.833670914173126221e-02,5.690759792923927307e-02,9.394094347953796387e-02,1.060793250799179077e-01,9.401412308216094971e-02,-2.752865850925445557e-02,-9.264316409826278687e-02,1.446265261620283127e-02,2.992702415212988853e-03,-1.482391059398651123e-01,6.440404057502746582e-02,-1.833462268114089966e-01,7.227221876382827759e-02,2.051567845046520233e-02,-1.233580186963081360e-01,2.395416237413883209e-02,1.246701776981353760e-01,-6.639001518487930298e-02,-4.243453498929738998e-03,7.805061340332031250e-02,1.038872525095939636e-01,9.809369593858718872e-02,7.781896740198135376e-02,-3.265175595879554749e-02,-6.926602125167846680e-02,-7.125290483236312866e-02,-5.703050643205642700e-02,-6.499065458774566650e-02,3.711476549506187439e-02,-1.379444301128387451e-01,6.540209054946899414e-03,4.056296125054359436e-02,5.315747112035751343e-02,7.321834564208984375e-03,-1.545918136835098267e-01,-1.491775084286928177e-02,-7.534056156873703003e-02,6.860817223787307739e-02,1.004221215844154358e-01,-6.373046338558197021e-02,-1.764574088156223297e-02,3.670470044016838074e-02,3.644868358969688416e-02,-1.203142385929822922e-02,-1.007482036948204041e-01,-8.711444586515426636e-02,-2.549628354609012604e-02,-4.531817138195037842e-02,1.399157345294952393e-01,-3.679308295249938965e-02,5.058130994439125061e-02,-9.458418935537338257e-02,-1.296055018901824951e-01,-5.163678154349327087e-02,5.456205084919929504e-02,-5.514115840196609497e-02,-4.178264364600181580e-02,1.808367222547531128e-01,-1.110322773456573486e-02,-1.172044798731803894e-01,-2.938673365861177444e-03,1.919329399242997169e-03,5.988242849707603455e-02,-1.469139307737350464e-01,-6.893278658390045166e-02,8.678318560123443604e-02,1.368356347084045410e-01,-1.602377742528915405e-02,-7.149377465248107910e-02,-4.993283376097679138e-02,3.968429192900657654e-02,4.919084254652261734e-03,6.251581758260726929e-02
-3.641882538795471191e-02,4.766129329800605774e-02,1.039826124906539917e-01,1.243602633476257324e-01,-9.376063942909240723e-02,1.619671285152435303e-01,-1.512722223997116089e-01,-5.070616677403450012e-02,1.103006154298782349e-01,2.596081607043743134e-02,-1.825109571218490601e-01,2.843438461422920227e-02,-7.654338330030441284e-02,8.597942441701889038e-02,-6.649212539196014404e-02,6.165238097310066223e-02,-5.138655751943588257e-02,-1.032536625862121582e-01,-6.932523101568222046e-02,1.531309783458709717e-01,-7.366569247096776962e-03,-1.008658036589622498e-01,1.879508346319198608e-01,-1.814289242029190063e-01,2.029616236686706543e-01,1.540642790496349335e-02,-2.736506611108779907e-02,-1.548521500080823898e-02,-1.412238478660583496e-01,1.540032122284173965e-02,-2.251087315380573273e-02,-5.889074876904487610e-02,1.424064934253692627e-01,-5.213338881731033325e-02,9.943017736077308655e-03,-8.301798254251480103e-02,-1.113140508532524109e-01,-6.374428421258926392e-02,-1.246023699641227722e-01,-2.822213061153888702e-02,1.635449975728988647e-01,1.343800593167543411e-02,-1.292596012353897095e-01,-1.015426814556121826e-01,9.648764878511428833e-02,1.120879896916449070e-03,4.712318629026412964e-02,6.781304627656936646e-02,-1.061102151870727539e-01,4.815088585019111633e-02,-1.115539446473121643e-01,7.550784200429916382e-02,1.455610617995262146e-02,-1.200380176305770874e-01,2.643477916717529297e-02,2.282211557030677795e-02,-9.975812397897243500e-03,1.352246552705764771e-01,3.307879343628883362e-02,-1.613465994596481323e-01,3.644557727966457605e-04,3.280242905020713806e-02,-5.857159197330474854e-02,-1.641781628131866455e-01,1.158215776085853577e-01,2.464459463953971863e-02,4.322658106684684753e-02,5.395251512527465820e-02,-1.380830537527799606e-02,1.117655113339424133e-01,-6.374181248247623444e-05,-2.437703311443328857e-02,-8.362001180648803711e-02,2.913777343928813934e-02,-3.625499457120895386e-02,1.430388689041137695e-01,-7.895153760910034180e-02,1.588948071002960205e-01,1.507233944721519947e-03,1.495505422353744507e-01,7.457773387432098389e-02,1.297226995229721069e-01,6.957885622978210449e-02,-6.701914221048355103e-02,2.233330719172954559e-02,9.266255050897598267e-02,-7.732554525136947632e-02,9.642384201288223267e-02,2.547914721071720123e-02,-7.050527632236480713e-02,-5.436170473694801331e-02,-1.304043382406234741e-01,-8.301039785146713257e-02,-1.239505559206008911e-01,1.776998490095138550e-01,-5.728180706501007080e-02,9.652472287416458130e-02,7.809783518314361572e-02,6.644997000694274902e-02,3.787256032228469849e-02,5.674769729375839233e-02,-8.463344722986221313e-02,-1.079181283712387085e-01,1.539566665887832642e-01,-1.079663261771202087e-01,5.629864335060119629e-02,-1.149900555610656738e-01,-1.026356890797615051e-01,9.285193681716918945e-02,-8.557138592004776001e-02,1.845987439155578613e-01,-6.301910430192947388e-02,-3.093152120709419250e-02,9.823224693536758423e-02,-2.706243656575679779e-02,4.369888827204704285e-02,-2.754369191825389862e-02,1.107317060232162476e-01,-1.237323600798845291e-02,-5.812846124172210693e-02,1.080512329936027527e-01,1.936833956278860569e-03,-1.288799047470092773e-01,1.754941940307617188e-01,-4.141329228878021240e-02,4.954231902956962585e-02,2.898901700973510742e-02,7.863362878561019897e-02
-6.753318011760711670e-03,-1.266299039125442505e-01,-3.477677330374717712e-02,-6.874594092369079590e-02,-2.575908787548542023e-02,1.831656694412231445e-01,1.287103891372680664e-01,-1.301484555006027222e-02,1.011074427515268326e-02,-1.590576954185962677e-02,-5.143468454480171204e-02,8.929865807294845581e-02,4.578370228409767151e-02,1.914761662483215332e-01,1.465338468551635742e-02,6.380635499954223633e-02,7.787002623081207275e-02,1.319224387407302856e-02,-1.115496009588241577e-01,-5.211078375577926636e-02,1.190040726214647293e-02,-1.050304174423217773e-01,2.693433687090873718e-02,3.090773150324821472e-02,-1.585481874644756317e-02,9.278681874275207520e-02,-2.871899679303169250e-02,-1.137211546301841736e-02,-4.817647114396095276e-02,-4.315641522407531738e-02,-2.774563618004322052e-02,-3.775598481297492981e-02,1.275447309017181396e-01,1.517890840768814087e-01,-6.245568767189979553e-02,-1.201060861349105835e-01,1.222034394741058350e-01,-1.721100136637687683e-02,1.359347552061080933e-01,6.828948110342025757e-02,-1.023780331015586853e-01,-7.813181728124618530e-03,4.289476945996284485e-02,-1.469389200210571289e-01,1.015174537897109985e-01,-1.316316127777099609e-01,-1.277083009481430054e-01,-1.092505007982254028e-01,6.887289881706237793e-02,1.797573417425155640e-01,5.081954598426818848e-02,1.030241549015045166e-01,5.770047008991241455e-02,-4.883052036166191101e-02,1.205945387482643127e-01,-8.680168539285659790e-02,-1.169694066047668457e-01,-1.244736164808273315e-01,-1.933320760726928711e-01,-4.607762768864631653e-02,1.825820468366146088e-02,8.152619935572147369e-03,8.606407791376113892e-02,1.531849522143602371e-02,-7.872141152620315552e-02,-1.049274131655693054e-01,2.128678187727928162e-02,6.585742346942424774e-03,-6.965172290802001953e-02,-9.476882964372634888e-02,1.004443615674972534e-01,1.415128558874130249e-01,-7.976184040307998657e-02,-1.975171566009521484e-01,-1.124811246991157532e-01,1.119724363088607788e-01,-7.819245755672454834e-02,-1.671783067286014557e-02,9.183359332382678986e-03,-6.223507225513458252e-02,-4.883828014135360718e-02,6.443379074335098267e-02,3.754813224077224731e-03,5.679177865386009216e-02,1.193616539239883423e-02,7.820448279380798340e-02,8.887294679880142212e-02,-4.227081313729286194e-03,7.104337960481643677e-02,-5.053533986210823059e-02,-1.477390676736831665e-01,-7.460818439722061157e-02,-1.127609238028526306e-01,-8.304029703140258789e-02,4.103314876556396484e-02,2.096222154796123505e-02,2.039116434752941132e-02,5.848537757992744446e-02,1.137767583131790161e-01,6.967851519584655762e-02,1.815564036369323730e-01,-7.519036531448364258e-02,-5.399635992944240570e-03,1.524290293455123901e-01,2.963878447189927101e-03,1.594476550817489624e-01,4.384196177124977112e-02,-6.693347543478012085e-02,-3.497695550322532654e-02,1.726185232400894165e-01,-1.753625273704528809e-01,8.276514708995819092e-04,1.174184754490852356e-01,-9.021928906440734863e-02,-1.045485399663448334e-02,7.202587276697158813e-02,1.190389990806579590e-01,1.619910299777984619e-01,-1.017675851471722126e-03,-3.275740519165992737e-02,3.156704083085060120e-02,1.214620247483253479e-01,5.638136062771081924e-03,1.958349943161010742e-01,1.004869714379310608e-01,-8.361466974020004272e-02,3.214941173791885376e-02,-7.505570352077484131e-02
1.273021996021270752e-01,-2.216773666441440582e-02,-1.378396749496459961e-01,1.454630941152572632e-01,-1.707513332366943359e-01,2.008563280105590820e-02,2.050501555204391479e-01,-1.030694767832756042e-01,5.839091166853904724e-02,4.782156273722648621e-02,-7.122358679771423340e-02,4.010544344782829285e-02,-5.350786820054054260e-02,9.258717298507690430e-02,7.157216966152191162e-02,-1.375077106058597565e-02,1.204655021429061890e-01,-5.348630622029304504e-02,7.462348043918609619e-02,4.718769714236259460e-02,9.084182232618331909e-02,2.479927614331245422e-02,-5.494795739650726318e-02,-2.021259441971778870e-02,1.591733098030090332e-01,-1.884743571281433105e-02,1.998953893780708313e-02,-6.092684343457221985e-02,8.727211505174636841e-02,7.616534084081649780e-02,-1.347451284527778625e-02,-8.365618437528610229e-02,-1.363824754953384399e-01,-9.216763824224472046e-02,3.108990751206874847e-02,-3.926255926489830017e-02,7.585605233907699585e-02,-7.837270945310592651e-02,-6.735865958034992218e-03,-7.069153338670730591e-02,-1.130627840757369995e-01,-1.223750859498977661e-01,9.487509727478027344e-02,-7.686884701251983643e-02,-4.493006039410829544e-03,-4.922557249665260315e-02,1.482371687889099121e-01,1.647231541574001312e-02,4.526997357606887817e-02,-3.747089207172393799e-02,4.077469930052757263e-02,3.677754849195480347e-02,-8.140782266855239868e-02,-2.084047794342041016e-01,-2.271560579538345337e-02,8.090032497420907021e-04,1.537907272577285767e-01,-8.579875528812408447e-02,3.668156266212463379e-02,-4.891676828265190125e-02,3.078068979084491730e-02,1.622554510831832886e-01,-6.205276027321815491e-02,3.353925049304962158e-02,1.012776792049407959e-01,-3.927752003073692322e-02,-7.891204208135604858e-02,-4.376619681715965271e-02,-6.374660134315490723e-02,-9.530092775821685791e-02,7.817347347736358643e-02,1.309567540884017944e-01,6.378839910030364990e-02,-1.906868368387222290e-01,1.176716610789299011e-01,2.281105145812034607e-02,1.274916976690292358e-01,-2.496134862303733826e-02,1.820778250694274902e-01,-6.853974610567092896e-02,-3.366635739803314209e-02,-1.046438235789537430e-02,-3.497514128684997559e-02,1.250236667692661285e-02,2.291394211351871490e-02,1.784443557262420654e-01,4.863726720213890076e-02,-5.522897839546203613e-02,7.073143124580383301e-02,1.156301274895668030e-01,-4.781657084822654724e-02,1.744548231363296509e-02,9.062282741069793701e-02,1.098084896802902222e-01,1.434861868619918823e-02,7.469476014375686646e-02,1.568356412462890148e-03,1.087577641010284424e-01,-4.842426627874374390e-02,5.357106029987335205e-02,5.460178852081298828e-02,-1.426840014755725861e-02,1.366590559482574463e-01,-1.168953552842140198e-01,-1.199814602732658386e-01,-1.550674438476562500e-01,-5.370506085455417633e-03,1.815131679177284241e-02,9.741565585136413574e-02,-6.455748528242111206e-02,1.624630205333232880e-02,5.054038017988204956e-02,-1.014936491847038269e-01,1.128413528203964233e-02,-1.095660403370857239e-01,7.062445580959320068e-02,6.509409844875335693e-02,-9.558802843093872070e-02,1.220586001873016357e-01,-1.736749708652496338e-02,1.595070958137512207e-02,1.227738633751869202e-01,3.029472753405570984e-02,-9.629391133785247803e-02,1.234443560242652893e-01,-6.899246480315923691e-03,7.635802030563354492e-02,7.129719108343124390e-02
-1.124311164021492004e-01,4.416828975081443787e-02,7.089720666408538818e-02,1.068601161241531372e-01,-7.617349037900567055e-04,-1.703901588916778564e-01,-8.689694106578826904e-02,2.832736074924468994e-02,2.937467955052852631e-02,1.118090376257896423e-02,-7.648020237684249878e-02,2.335397154092788696e-02,3.086975030601024628e-02,-1.225103139877319336e-01,3.827089816331863403e-02,-1.409279257059097290e-01,-6.476409733295440674e-02,5.494731944054365158e-03,9.392013400793075562e-02,-1.384247988462448120e-01,-2.947447821497917175e-02,9.925498813390731812e-02,1.254480052739381790e-02,-1.904268264770507812e-01,-3.338508680462837219e-02,-1.309470981359481812e-01,1.283050626516342163e-01,6.748812645673751831e-02,-1.442618072032928467e-01,-1.155744679272174835e-02,-1.145396605134010315e-01,-4.201859235763549805e-02,3.193992376327514648e-02,3.628480434417724609e-02,-4.883516207337379456e-02,-1.508320419816300273e-04,-5.705602816306054592e-04,-9.493175894021987915e-02,-3.985776752233505249e-02,1.187742277979850769e-01,7.131036370992660522e-02,2.666076645255088806e-02,-4.656936228275299072e-02,1.072171479463577271e-01,-9.088321030139923096e-02,-6.649523228406906128e-02,-1.178936287760734558e-01,-9.379931539297103882e-02,-8.919449150562286377e-02,-2.281188033521175385e-02,2.865344099700450897e-02,-4.558465257287025452e-02,1.828706711530685425e-01,-2.278679236769676208e-02,6.505435705184936523e-02,6.338143348693847656e-02,-2.577205654233694077e-03,-1.762046962976455688e-01,-1.021709442138671875e-01,1.249340996146202087e-01,-6.074941903352737427e-02,-1.236492320895195007e-01,7.166453450918197632e-02,-1.017497926950454712e-01,-1.294270008802413940e-01,1.537143439054489136e-01,9.146775119006633759e-03,2.335769496858119965e-02,-4.912184923887252808e-02,-6.204389408230781555e-02,-5.464780330657958984e-02,-2.633598446846008301e-02,2.997963689267635345e-02,6.777914613485336304e-02,3.062032721936702728e-02,-6.224896386265754700e-02,2.345206215977668762e-02,-8.577746897935867310e-02,1.311554908752441406e-01,1.081255897879600525e-01,1.140785589814186096e-01,-8.916175365447998047e-02,-1.191395968198776245e-01,4.295685142278671265e-02,-1.325666345655918121e-02,-1.156750321388244629e-01,-8.906958997249603271e-02,1.861772835254669189e-01,1.352915633469820023e-02,7.851296663284301758e-02,2.870440483093261719e-02,7.133867591619491577e-02,4.099045693874359131e-02,2.545581897720694542e-03,1.267591714859008789e-01,-7.276338338851928711e-02,-7.210072875022888184e-02,-1.832190901041030884e-02,-6.515646725893020630e-02,3.496902436017990112e-02,-4.873125627636909485e-02,8.892314881086349487e-02,-6.890633702278137207e-02,2.000418864190578461e-02,-8.771265298128128052e-02,9.795870631933212280e-02,-5.451000481843948364e-02,1.331958770751953125e-01,1.317652165889739990e-01,7.145614922046661377e-02,-1.514437645673751831e-01,-1.224499493837356567e-01,-7.282752543687820435e-02,-6.811197847127914429e-02,1.142085567116737366e-01,3.357480978593230247e-03,-1.509194821119308472e-02,9.863533824682235718e-02,4.240052029490470886e-02,1.110758818686008453e-02,-7.597584277391433716e-02,6.330988556146621704e-02,3.616404905915260315e-02,-5.151906609535217285e-02,-3.727279230952262878e-02,8.843237906694412231e-02,9.551220387220382690e-02,8.631201833486557007e-02
-5.942053161561489105e-03,1.236340478062629700e-01,7.665184140205383301e-02,5.594315379858016968e-02,-5.248714238405227661e-02,-1.476304233074188232e-01,-1.085636019706726074e-01,-8.587196469306945801e-02,1.137546822428703308e-01,-1.469758003950119019e-01,-1.032900251448154449e-02,1.696824282407760620e-02,-1.406469382345676422e-03,1.364264935255050659e-01,4.535922314971685410e-03,-9.732190519571304321e-02,-5.140032246708869934e-02,-1.129013001918792725e-01,7.481428980827331543e-02,-9.826503694057464600e-02,-1.254335343837738037e-01,-5.183203145861625671e-02,8.457214571535587311e-03,-1.073993556201457977e-02,-5.752662569284439087e-02,5.356378853321075439e-02,4.161002114415168762e-03,-2.053068205714225769e-02,8.915167301893234253e-02,-1.986002922058105469e-02,2.343277446925640106e-02,3.089384920895099640e-02,8.196230977773666382e-02,-1.148711070418357849e-01,6.525987386703491211e-02,-4.040456935763359070e-02,-1.865131407976150513e-02,6.986451148986816406e-02,1.034406647086143494e-01,-7.075519300997257233e-03,5.252029746770858765e-02,-1.473608911037445068e-01,-1.243585571646690369e-01,1.099836379289627075e-01,1.026908028870820999e-02,1.629489064216613770e-01,-7.378135621547698975e-02,2.302781492471694946e-02,6.034440919756889343e-02,3.715740516781806946e-02,-1.730773746967315674e-01,-3.616354241967201233e-02,-1.078026220202445984e-01,2.753286622464656830e-02,-1.119164153933525085e-01,-1.064848969690501690e-03,3.773712366819381714e-02,-1.096071898937225342e-01,-1.629330366849899292e-01,-4.893642663955688477e-02,-1.090992465615272522e-01,1.567490771412849426e-02,-3.338534384965896606e-02,9.454414993524551392e-02,-1.115691140294075012e-01,-3.541832417249679565e-02,-1.430547386407852173e-01,-8.354467153549194336e-02,1.617648825049400330e-02,7.480352185666561127e-03,-1.425437256693840027e-02,-4.092504736036062241e-03,1.337397545576095581e-01,-4.930448904633522034e-02,-1.438421756029129028e-01,-6.147618219256401062e-02,6.606270372867584229e-02,5.543531849980354309e-02,-8.565740287303924561e-02,-2.188331447541713715e-02,-7.431460916996002197e-02,-8.837789297103881836e-02,-5.069175735116004944e-02,-2.058945223689079285e-02,1.294988393783569336e-01,-1.613785177469253540e-01,1.860518567264080048e-02,-6.541481614112854004e-02,-8.400551229715347290e-02,-1.891065239906311035e-01,-1.726207882165908813e-01,1.282445192337036133e-01,-6.974910851567983627e-03,-1.118658408522605896e-01,9.901382774114608765e-02,-4.528251662850379944e-02,-1.093185972422361374e-02,-1.539151184260845184e-03,5.531503632664680481e-02,-1.313439905643463135e-01,-5.791282653808593750e-02,-8.595526218414306641e-02,-2.318839170038700104e-02,2.633114159107208252e-02,6.650429219007492065e-02,2.233710139989852905e-02,1.051166001707315445e-02,7.834826409816741943e-02,3.768155351281166077e-02,-1.435334384441375732e-01,1.392033137381076813e-02,-1.396652013063430786e-01,-1.905333623290061951e-02,1.061191409826278687e-02,1.706605590879917145e-02,-4.058897495269775391e-02,-6.030261516571044922e-02,-6.994330883026123047e-02,-2.206150069832801819e-02,-8.649235591292381287e-03,-5.056630447506904602e-02,1.110761761665344238e-01,8.479842543601989746e-02,1.210794001817703247e-01,-1.005715131759643555e-01,-9.493759833276271820e-03,-2.724106796085834503e-02,1.839208975434303284e-02
3.681171685457229614e-02,-7.121299952268600464e-02,1.953625120222568512e-02,-1.700461357831954956e-01,9.183584712445735931e-03,5.935024842619895935e-02,-1.505715698003768921e-01,3.108358755707740784e-02,-3.572937101125717163e-02,-2.549959532916545868e-02,7.090635597705841064e-02,1.090759411454200745e-01,-1.139337942004203796e-01,-6.019985303282737732e-02,6.215693429112434387e-02,-7.293398678302764893e-02,-1.275969892740249634e-01,-1.775411814451217651e-01,5.465815588831901550e-02,6.885615736246109009e-02,8.206787519156932831e-03,-5.338821560144424438e-02,1.668519079685211182e-01,-1.936249583959579468e-01,-8.133931085467338562e-03,-2.046515792608261108e-02,1.884948462247848511e-01,-7.234878093004226685e-02,-1.587044261395931244e-02,1.340185552835464478e-01,-4.855134175159037113e-04,-1.061143055558204651e-01,-4.718406498432159424e-02,-7.107807695865631104e-02,1.390418689697980881e-02,1.797302812337875366e-01,-2.233249321579933167e-02,4.574961587786674500e-02,1.165337786078453064e-01,5.702777579426765442e-02,-1.136297807097434998e-01,-1.513044238090515137e-01,-8.596969395875930786e-02,2.972888993099331856e-03,-4.000896215438842773e-02,-6.553498655557632446e-02,-6.095733121037483215e-02,-1.560100317001342773e-01,-2.143315970897674561e-02,-9.689068049192428589e-02,2.262962423264980316e-02,-3.249934641644358635e-03,-1.923338137567043304e-02,-1.129637882113456726e-01,2.095359750092029572e-02,-6.290403008460998535e-02,1.822090446949005127e-01,-1.887739002704620361e-01,7.379420846700668335e-02,-5.198293831199407578e-03,1.129164248704910278e-01,-2.374601177871227264e-02,-1.253801137208938599e-01,3.176269680261611938e-02,-4.970338195562362671e-02,-3.691178187727928162e-02,8.814191818237304688e-02,-4.284792393445968628e-02,-7.764898985624313354e-02,-9.886604547500610352e-02,4.437402822077274323e-04,6.041893362998962402e-02,1.023943647742271423e-01,1.932067051529884338e-02,1.371564250439405441e-02,6.370594352483749390e-02,1.114772930741310120e-01,3.004265204071998596e-02,-9.444409608840942383e-02,8.767826110124588013e-02,-1.536766290664672852e-01,9.250011295080184937e-03,-1.296169012784957886e-01,4.622122645378112793e-02,3.852327354252338409e-03,1.038926094770431519e-02,-5.216986685991287231e-02,9.960091859102249146e-02,-9.558741003274917603e-03,-7.781808264553546906e-03,1.974231749773025513e-02,5.024592205882072449e-02,-7.069367449730634689e-03,-1.621081680059432983e-01,3.496111556887626648e-02,3.914142772555351257e-02,-1.530381944030523300e-02,5.167059972882270813e-02,-3.502206876873970032e-02,-5.965245887637138367e-02,6.855770945549011230e-02,6.031983345746994019e-02,1.387500315904617310e-01,3.841799870133399963e-02,-7.306325435638427734e-02,4.608101770281791687e-02,6.499391794204711914e-02,-1.438585668802261353e-01,1.509490907192230225e-01,-2.570992568507790565e-03,-6.638546288013458252e-02,2.242921851575374603e-02,1.061614900827407837e-01,-6.013555079698562622e-02,3.926432505249977112e-02,-5.330090224742889404e-02,-7.939175516366958618e-02,1.232332736253738403e-01,-1.646887063980102539e-01,1.219347640872001648e-01,-1.221511792391538620e-02,5.180832371115684509e-02,-1.600138396024703979e-01,-7.117789983749389648e-02,-4.215563461184501648e-02,9.512878023087978363e-03,1.248286515474319458e-01,1.361609697341918945e-01
1.078677270561456680e-02,-4.919547587633132935e-03,1.116379871964454651e-01,-4.382714256644248962e-02,-3.682176396250724792e-02,1.442386209964752197e-01,7.321471720933914185e-02,-2.990186773240566254e-02,-1.986004225909709930e-02,2.194883301854133606e-02,2.430898882448673248e-02,3.120268695056438446e-02,2.945439331233501434e-02,-1.117182523012161255e-01,1.630563586950302124e-01,9.068280458450317383e-03,1.363380998373031616e-01,1.045141741633415222e-01,-2.507272921502590179e-02,1.696538031101226807e-01,-1.492062509059906006e-01,2.114607393741607666e-02,3.837045654654502869e-02,9.273649752140045166e-02,1.064556390047073364e-01,-3.920461237430572510e-02,-5.882939323782920837e-02,-1.684823781251907349e-01,-3.728225454688072205e-02,2.042382769286632538e-02,4.392969887703657150e-03,7.167632132768630981e-02,4.152312409132719040e-03,-7.590043544769287109e-02,1.863339543342590332e-02,2.678178017958998680e-03,1.717360764741897583e-01,8.939933963119983673e-03,-4.191323742270469666e-02,2.404074184596538544e-02,1.476853489875793457e-01,1.144617721438407898e-01,4.454248771071434021e-02,7.860443554818630219e-03,1.164082288742065430e-01,6.286385655403137207e-02,4.164602234959602356e-02,-1.212266087532043457e-01,-1.802560314536094666e-02,-5.200421810150146484e-02,1.598719805479049683e-01,2.376257628202438354e-02,-6.386025995016098022e-02,1.685657799243927002e-01,-5.952292680740356445e-02,5.282532051205635071e-02,-2.575542405247688293e-02,2.998346090316772461e-02,-5.439478904008865356e-02,5.769879743456840515e-02,1.537213027477264404e-01,3.874742612242698669e-02,-6.712222099304199219e-02,5.410188436508178711e-02,-1.575461477041244507e-01,-3.062969259917736053e-02,1.059728488326072693e-01,9.783335775136947632e-02,-8.753047138452529907e-02,-3.331679478287696838e-02,1.001766622066497803e-01,-1.803622581064701080e-02,-4.597535356879234314e-02,-1.468279808759689331e-01,-1.177781000733375549e-01,5.304382368922233582e-02,1.440539807081222534e-01,1.184641867876052856e-01,-4.591078963130712509e-03,9.035416878759860992e-03,2.180555462837219238e-02,-1.395602524280548096e-02,-5.283463373780250549e-02,-7.080577313899993896e-02,1.138273347169160843e-02,-7.609320431947708130e-02,1.317522823810577393e-01,1.592446714639663696e-01,1.807825826108455658e-02,-1.127831451594829559e-02,-1.078354101628065109e-02,-6.495116651058197021e-02,1.110219117254018784e-02,-3.070945106446743011e-02,-4.849843308329582214e-02,-2.001373469829559326e-02,-3.805520758032798767e-02,9.269516170024871826e-02,-5.844005569815635681e-02,-4.042271897196769714e-02,-6.404406577348709106e-02,5.276197195053100586e-02,3.515205578878521919e-03,1.302963793277740479e-01,2.689891122281551361e-02,6.275365501642227173e-02,-1.334227062761783600e-02,4.178575053811073303e-02,-1.665887050330638885e-02,-1.283220853656530380e-02,-8.804974704980850220e-02,4.226246103644371033e-02,-4.860707372426986694e-02,-5.143216252326965332e-02,5.301799997687339783e-02,-8.348074555397033691e-02,3.547604894265532494e-03,-2.255464671179652214e-03,1.167289391160011292e-01,-6.024207547307014465e-02,-2.950495854020118713e-02,-1.050076857209205627e-01,-1.693483442068099976e-01,-3.489793464541435242e-02,-1.404036730527877808e-01,-5.078287050127983093e-02,-5.938177183270454407e-02,2.042363584041595459e-02
6.800562608987092972e-03,9.557771682739257812e-02,5.254086479544639587e-02,-2.545510604977607727e-02,1.032246509566903114e-03,5.538999289274215698e-02,3.291093558073043823e-02,1.054776981472969055e-01,-3.942048177123069763e-02,-5.615891888737678528e-03,1.430594474077224731e-01,-3.674580901861190796e-02,-5.217043310403823853e-02,1.626104349270462990e-03,-8.340520411729812622e-02,3.756647463887929916e-03,8.947171270847320557e-02,2.787638641893863678e-02,1.040006652474403381e-01,-2.442767471075057983e-02,-1.641694456338882446e-01,4.652296379208564758e-02,-3.462440893054008484e-02,-7.480148971080780029e-02,1.162264123558998108e-01,-6.050924584269523621e-02,-1.165328770875930786e-01,7.043098658323287964e-02,-2.041591890156269073e-02,6.061368435621261597e-02,-1.249244902282953262e-02,-1.206167563796043396e-01,-1.536674350500106812e-01,9.438645094633102417e-02,-4.634303972125053406e-02,-3.747601807117462158e-02,1.641793102025985718e-01,9.726045280694961548e-02,-2.219532616436481476e-02,-1.192132979631423950e-01,8.537529408931732178e-02,-1.703477501869201660e-01,5.621720477938652039e-02,1.600105613470077515e-01,1.011061668395996094e-02,-6.032527238130569458e-02,2.492079325020313263e-02,1.191448941826820374e-01,2.847818285226821899e-02,7.513491064310073853e-02,-1.639630496501922607e-01,-1.858769953250885010e-01,1.866551041603088379e-01,9.020416997373104095e-03,-3.838249295949935913e-02,-8.409470319747924805e-03,-1.022783070802688599e-01,-1.474126428365707397e-01,-5.931452661752700806e-02,-1.706507056951522827e-02,-1.674679224379360676e-03,5.916227400302886963e-02,-1.574575453996658325e-01,-4.800064861774444580e-02,-5.321596935391426086e-02,-4.147443920373916626e-02,5.909413844347000122e-02,-7.144889235496520996e-02,2.662852406501770020e-02,-2.738354727625846863e-02,5.698382854461669922e-02,9.148517996072769165e-02,-4.101133719086647034e-02,1.523173600435256958e-02,-1.996705234050750732e-01,6.028370559215545654e-02,5.978062748908996582e-02,-1.778896898031234741e-02,5.024029687047004700e-02,-7.211046665906906128e-02,1.642435491085052490e-01,3.754480183124542236e-02,2.162501588463783264e-02,-8.843880891799926758e-02,-1.359119266271591187e-01,-1.438585389405488968e-02,-1.477421075105667114e-01,-2.626666054129600525e-02,-1.509673893451690674e-01,-9.141578525304794312e-02,-2.929992601275444031e-02,-9.047694620676338673e-04,-8.312247693538665771e-02,-4.614431038498878479e-02,1.242110729217529297e-01,8.600453287363052368e-02,-1.389859318733215332e-01,-1.943645253777503967e-02,-5.538348108530044556e-02,-1.229821611195802689e-02,-6.088875234127044678e-02,-4.973595496267080307e-03,-9.638569504022598267e-02,6.691949814558029175e-02,-2.965038456022739410e-02,5.897598713636398315e-02,3.617945685982704163e-02,-6.361063569784164429e-02,3.748078271746635437e-02,-1.795468926429748535e-01,1.807623803615570068e-01,-1.007598340511322021e-01,1.165809258818626404e-01,-1.162383183836936951e-01,3.971710056066513062e-02,1.931264810264110565e-02,2.133543193340301514e-01,-1.961510069668292999e-02,5.871431902050971985e-02,8.035045117139816284e-02,1.239784210920333862e-01,-1.456891745328903198e-01,-1.363773941993713379e-01,-1.558632589876651764e-02,9.189440868794918060e-03,1.080728098750114441e-01,-2.049665898084640503e-01,-7.803652435541152954e-02
-4.495234787464141846e-02,-4.229462519288063049e-02,8.187443763017654419e-02,8.202499896287918091e-02,1.070654094219207764e-01,4.511217400431632996e-02,-3.090737201273441315e-02,1.479222774505615234e-01,-3.087487071752548218e-02,1.341409683227539062e-01,-1.155817322432994843e-02,9.176895022392272949e-02,6.574305146932601929e-02,1.177942603826522827e-01,5.853335559368133545e-02,4.081314802169799805e-02,-1.771010085940361023e-02,2.293159998953342438e-02,1.893844902515411377e-01,-1.087514832615852356e-01,-1.316929757595062256e-01,-1.945057697594165802e-02,7.306317985057830811e-02,-4.602527245879173279e-02,-1.810241788625717163e-01,-1.177991777658462524e-01,-1.036141142249107361e-01,1.172648146748542786e-01,8.902780711650848389e-02,7.521168887615203857e-02,3.095876574516296387e-01,6.523823365569114685e-03,1.315664947032928467e-01,-6.066668778657913208e-02,1.121562048792839050e-01,-1.873460412025451660e-01,5.465222895145416260e-02,1.746010482311248779e-01,5.535187572240829468e-02,2.065088450908660889e-01,1.234944611787796021e-01,-5.663991719484329224e-02,5.159382522106170654e-02,-4.585125669836997986e-02,3.547196835279464722e-02,1.152205467224121094e-01,-1.307594478130340576e-01,6.509620696306228638e-02,7.177326828241348267e-02,1.019731983542442322e-01,-4.088198542594909668e-01,-7.788357883691787720e-02,-6.603637337684631348e-02,-9.418927133083343506e-02,1.261096796952188015e-03,-2.068248987197875977e-01,5.047388747334480286e-02,7.969376444816589355e-02,-4.962543398141860962e-02,-5.183975026011466980e-02,-1.330867409706115723e-01,-2.026728913187980652e-02,9.895966947078704834e-02,5.538867786526679993e-02,1.225672885775566101e-01,1.639359891414642334e-01,-1.040921881794929504e-01,1.734787225723266602e-02,2.222736030817031860e-01,-8.689413964748382568e-02,1.100518852472305298e-01,1.157821416854858398e-01,-9.346790611743927002e-02,1.834736913442611694e-01,9.544334560632705688e-02,1.441689133644104004e-01,4.174052923917770386e-02,1.256357282400131226e-01,9.758879989385604858e-02,-4.522078856825828552e-02,5.904499068856239319e-02,1.218748539686203003e-01,5.916749686002731323e-02,1.264423225075006485e-02,-3.658339753746986389e-02,-1.264856606721878052e-01,-6.469529867172241211e-02,2.214103564620018005e-02,7.820049673318862915e-02,1.609589532017707825e-02,6.562104821205139160e-02,1.005478650331497192e-01,-3.010893939062952995e-03,-1.281496230512857437e-02,8.945669978857040405e-02,-3.255195450037717819e-03,1.485912650823593140e-01,-1.465894933789968491e-02,-2.152670174837112427e-03,-3.331398218870162964e-02,1.759415268898010254e-01,5.053099244832992554e-02,1.347140967845916748e-01,-4.044096171855926514e-02,5.391112528741359711e-03,-1.550064235925674438e-01,6.719199568033218384e-02,-6.429082155227661133e-02,-1.576232165098190308e-02,-1.595267839729785919e-02,1.251094341278076172e-01,6.902373582124710083e-02,3.180323168635368347e-02,1.221927329897880554e-01,-1.384639889001846313e-01,4.545842856168746948e-02,2.784304693341255188e-02,-5.652524903416633606e-02,1.873335540294647217e-01,8.618114143610000610e-02,5.065604299306869507e-02,4.682885482907295227e-02,1.738178133964538574e-01,-4.029427468776702881e-02,2.771640196442604065e-02,4.052521288394927979e-02,1.442537456750869751e-01,-9.589023888111114502e-02
-5.956516414880752563e-02,-1.148526892066001892e-01,2.916070818901062012e-02,5.658069252967834473e-02,6.708846241235733032e-02,1.098027378320693970e-01,1.375184357166290283e-01,-1.260274499654769897e-01,1.716793514788150787e-02,-2.779476903378963470e-02,7.141735404729843140e-02,3.694893419742584229e-02,-9.469230659306049347e-03,1.493983250111341476e-02,-4.651980102062225342e-02,1.395292729139328003e-01,-9.980141371488571167e-02,1.293164044618606567e-01,-1.524171675555408001e-03,-1.627359241247177124e-01,-1.043066196143627167e-02,-4.025467112660408020e-02,-1.076194643974304199e-01,-1.889189928770065308e-01,5.687638744711875916e-02,-1.608600765466690063e-01,-3.117484226822853088e-02,-1.501355040818452835e-02,-2.835277095437049866e-02,-7.785625755786895752e-02,-1.387039292603731155e-02,8.004338294267654419e-02,-1.369351446628570557e-01,-3.704361990094184875e-02,6.215066462755203247e-02,-9.791444987058639526e-02,-2.636420167982578278e-02,2.715138159692287445e-02,5.761168152093887329e-02,1.337263267487287521e-03,1.345723122358322144e-01,8.255156129598617554e-02,1.047274097800254822e-01,9.308307617902755737e-02,6.808150559663772583e-02,4.838942550122737885e-04,3.086003242060542107e-03,-1.232344731688499451e-01,4.439231008291244507e-02,-5.419040098786354065e-03,-1.402710825204849243e-01,-9.546170383691787720e-02,-2.819375693798065186e-02,-1.648028008639812469e-02,-1.027610227465629578e-01,1.533502042293548584e-01,-1.664947122335433960e-01,-7.049711712170392275e-05,-2.689459919929504395e-02,-1.724805086851119995e-01,7.769098132848739624e-02,7.909045368432998657e-02,8.452759683132171631e-02,-7.415351271629333496e-02,7.529750000685453415e-03,-1.432166546583175659e-01,4.283431917428970337e-02,6.296817958354949951e-02,-9.031099826097488403e-02,-9.657058119773864746e-02,-9.979721158742904663e-02,5.887287203222513199e-03,4.702755715698003769e-03,2.057885937392711639e-02,-2.873098943382501602e-03,-1.187384724617004395e-01,1.221329346299171448e-01,9.628219157457351685e-02,5.909374356269836426e-02,-9.327933937311172485e-02,1.200015917420387268e-01,-1.922352761030197144e-01,7.533632963895797729e-02,-8.456450700759887695e-02,1.785191744565963745e-01,-6.033904105424880981e-02,1.202708408236503601e-01,-5.084562301635742188e-02,-4.141936078667640686e-02,8.494742959737777710e-02,-1.006905063986778259e-01,2.593263983726501465e-02,-1.710874587297439575e-01,6.094427779316902161e-02,-6.318847090005874634e-02,-2.581183426082134247e-02,1.225446015596389771e-01,-9.128684550523757935e-02,3.131017833948135376e-02,-9.598895907402038574e-02,-3.426318988204002380e-02,-1.136951595544815063e-01,-1.489454358816146851e-01,-9.500858932733535767e-02,1.856263130903244019e-01,1.098039299249649048e-01,-1.055770888924598694e-01,6.369923800230026245e-02,-3.320089075714349747e-03,-7.035689055919647217e-02,7.128770649433135986e-02,4.323090240359306335e-02,2.856106869876384735e-02,4.582510888576507568e-02,6.995616108179092407e-02,-5.526661500334739685e-02,-8.983823657035827637e-02,-7.562396931461989880e-04,-1.839190870523452759e-01,-1.161686405539512634e-01,-1.248733047395944595e-02,1.915915906429290771e-01,-8.330187946557998657e-02,-6.028021126985549927e-02,-2.322354726493358612e-02,1.007779240608215332e-01,1.861455440521240234e-01,-3.387600183486938477e-02
-4.090862348675727844e-03,-9.355071932077407837e-02,-8.491330593824386597e-02,1.058602705597877502e-02,9.879954904317855835e-02,2.494448237121105194e-02,-1.649323999881744385e-01,-6.466552615165710449e-02,-1.002951860427856445e-01,5.254903063178062439e-02,4.130923002958297729e-02,4.341560602188110352e-02,6.300655007362365723e-02,-2.988334745168685913e-02,-3.715797793120145798e-04,4.420805349946022034e-02,-9.341822564601898193e-02,6.638178974390029907e-02,3.317585960030555725e-02,9.935941547155380249e-02,-8.180276304483413696e-02,-1.917456276714801788e-02,2.971322089433670044e-02,-6.525852717459201813e-03,-8.958823047578334808e-03,-3.627499099820852280e-03,-3.054053150117397308e-02,-1.122461333870887756e-01,-4.942171741276979446e-03,2.815614268183708191e-02,-5.997111648321151733e-02,8.853726834058761597e-02,-7.080791145563125610e-02,-8.195960521697998047e-02,-5.133461579680442810e-02,4.255680367350578308e-02,-7.167804241180419922e-02,5.000103637576103210e-02,-1.611265093088150024e-01,5.794265121221542358e-02,-7.170476019382476807e-02,-7.621660828590393066e-02,-1.676419228315353394e-01,9.593475610017776489e-02,-1.030764430761337280e-01,-1.090111210942268372e-02,1.158457919955253601e-01,-1.680711633525788784e-03,-3.026386909186840057e-02,-1.146229952573776245e-01,4.208612814545631409e-02,2.626839559525251389e-03,-4.536177497357130051e-03,4.738229140639305115e-02,7.417416572570800781e-02,3.364614397287368774e-02,-1.237221434712409973e-01,-7.358399033546447754e-02,-6.764681078493595123e-03,1.287616696208715439e-02,4.924737662076950073e-02,-5.282327067106962204e-03,7.127215713262557983e-02,2.677709050476551056e-02,6.246215477585792542e-02,1.344191730022430420e-01,1.215805634856224060e-01,-9.984561800956726074e-02,-1.762691438198089600e-01,6.394197791814804077e-02,7.432255893945693970e-02,1.179341748356819153e-01,8.064299076795578003e-02,1.041329279541969299e-01,1.126578543335199356e-02,6.805878877639770508e-02,-4.573907703161239624e-02,6.697007268667221069e-02,-5.892305821180343628e-02,7.161126285791397095e-02,4.053800553083419800e-02,1.812400817871093750e-01,4.097319766879081726e-02,-1.558338105678558350e-02,-1.921936310827732086e-02,-1.870661973953247070e-01,-9.197224676609039307e-02,1.251529157161712646e-02,-1.934438645839691162e-01,8.100447058677673340e-02,-7.512651383876800537e-02,1.899063736200332642e-01,-1.080999523401260376e-02,8.289798162877559662e-03,-9.037978015840053558e-03,3.164638951420783997e-02,-2.017200142145156860e-01,1.833917051553726196e-01,-7.967026531696319580e-02,-3.999817185103893280e-03,3.312180563807487488e-02,3.396479785442352295e-02,-4.920700937509536743e-02,3.857620060443878174e-02,-6.581650674343109131e-02,-6.955766677856445312e-02,1.509710252285003662e-01,-2.978733181953430176e-02,-1.230811979621648788e-02,-2.538042701780796051e-02,8.721590787172317505e-02,1.051443815231323242e-01,-3.608092665672302246e-02,-9.846904873847961426e-02,-1.143359839916229248e-01,1.704255118966102600e-02,1.658528856933116913e-02,-2.792855165898799896e-02,9.720039553940296173e-03,-6.713108718395233154e-02,-6.788175553083419800e-02,7.039897143840789795e-02,-8.165623992681503296e-02,-1.312511116266250610e-01,5.051219463348388672e-02,2.374567557126283646e-03,-2.552209794521331787e-02,-1.786870211362838745e-01
2.460664603859186172e-03,-8.991973102092742920e-02,-1.031503006815910339e-01,-2.508697807788848877e-01,-1.240129917860031128e-01,-1.325131021440029144e-02,-2.877332642674446106e-02,-1.255157887935638428e-01,-1.638317853212356567e-02,-8.898296207189559937e-02,4.174356907606124878e-02,8.587030321359634399e-02,1.558516174554824829e-01,-7.418451458215713501e-02,-1.697588898241519928e-02,2.076719552278518677e-01,8.033209294080734253e-02,-1.084223911166191101e-01,2.880366146564483643e-01,1.391931176185607910e-01,-1.331453472375869751e-01,-1.578575521707534790e-01,2.237540185451507568e-01,3.032706119120121002e-02,2.560718655586242676e-01,-1.980173029005527496e-02,1.295753121376037598e-01,-3.736945986747741699e-02,-8.668439090251922607e-02,7.304567843675613403e-02,-2.783129811286926270e-01,-5.211403593420982361e-03,6.787361204624176025e-02,-9.264451265335083008e-02,-1.229168549180030823e-01,-1.148261502385139465e-01,-9.835483878850936890e-02,-2.486763000488281250e-01,-1.765932887792587280e-01,-4.809970036149024963e-02,1.823435723781585693e-02,-4.514189809560775757e-02,-1.173112615942955017e-01,-2.387110143899917603e-01,-3.860002756118774414e-01,3.141227364540100098e-01,-2.110200375318527222e-01,-1.150041073560714722e-01,-1.249109134078025818e-01,-8.425778150558471680e-02,1.302372366189956665e-01,7.258789241313934326e-02,-1.322162896394729614e-01,-1.013111844658851624e-01,1.215349808335304260e-01,-5.479966476559638977e-02,-2.703551761806011200e-02,8.449568599462509155e-02,-9.049263596534729004e-02,1.608669608831405640e-01,-2.457319796085357666e-01,-1.216069608926773071e-01,-2.216394096612930298e-01,-8.466962724924087524e-02,1.652268171310424805e-01,-1.036363765597343445e-01,-1.409799754619598389e-01,-1.099436581134796143e-01,-3.728590905666351318e-01,1.823190413415431976e-02,-1.996966451406478882e-01,3.374468535184860229e-02,-4.963643103837966919e-02,-3.694510087370872498e-02,8.055017888545989990e-02,5.997996777296066284e-02,-4.124956578016281128e-02,1.511748507618904114e-02,2.664469368755817413e-02,1.644341461360454559e-02,-4.587345942854881287e-02,-4.181801527738571167e-02,-1.582938805222511292e-02,7.878636568784713745e-02,6.198082119226455688e-02,-1.371044516563415527e-01,5.976097658276557922e-02,4.621297866106033325e-02,-1.127446908503770828e-02,-1.681033223867416382e-01,4.408298432826995850e-01,-1.408882588148117065e-01,-9.312686324119567871e-02,-2.070830203592777252e-02,-3.579109162092208862e-02,-1.365806758403778076e-01,3.336923122406005859e-01,1.891451627016067505e-01,3.275347352027893066e-01,6.456047296524047852e-02,-9.155321121215820312e-02,-2.042741924524307251e-01,-6.592437624931335449e-02,3.120713494718074799e-02,1.218955740332603455e-01,-2.701023221015930176e-01,-2.393289953470230103e-01,-3.014143109321594238e-01,-1.550747901201248169e-01,4.579231515526771545e-02,-3.787295147776603699e-02,-9.386928379535675049e-02,-6.769109517335891724e-02,-4.115688055753707886e-02,7.105349749326705933e-02,-8.301057666540145874e-02,1.151608526706695557e-01,-2.933087646961212158e-01,1.771598123013973236e-03,-6.778212636709213257e-02,-5.063427239656448364e-02,-1.344823241233825684e-01,7.400217652320861816e-02,3.817948698997497559e-02,-1.220531165599822998e-01,1.260520219802856445e-01,-1.166099682450294495e-01,-9.358423203229904175e-02
9.158418327569961548e-02,-6.828313320875167847e-02,6.613657623529434204e-02,5.049520730972290039e-02,9.999143332242965698e-02,6.571798771619796753e-02,7.381274551153182983e-02,3.839163854718208313e-02,-7.298068702220916748e-02,1.838056743144989014e-01,-7.456497848033905029e-02,-1.131711825728416443e-01,-1.355570554733276367e-01,8.083482831716537476e-02,-6.030380353331565857e-02,7.544828951358795166e-02,1.237808018922805786e-01,-1.307106912136077881e-01,7.808233052492141724e-02,-3.375377878546714783e-02,1.960835158824920654e-01,1.087558194994926453e-01,1.702454984188079834e-01,3.962535038590431213e-02,-7.106224447488784790e-02,-7.909967750310897827e-02,1.645410247147083282e-02,-9.727200865745544434e-02,-3.398712351918220520e-02,1.791438460350036621e-01,7.180039584636688232e-02,-8.521242998540401459e-03,4.831276834011077881e-03,-7.739498396404087543e-04,6.124380230903625488e-02,7.118160277605056763e-02,-1.765688806772232056e-01,1.337690353393554688e-01,-7.306229323148727417e-02,-1.384974718093872070e-01,4.623947292566299438e-02,-2.096461504697799683e-02,9.780919551849365234e-02,-1.532513797283172607e-01,1.040418818593025208e-01,4.535772372037172318e-03,-7.322189956903457642e-02,5.731403082609176636e-02,1.527618616819381714e-01,2.088989764451980591e-01,1.356701254844665527e-01,1.247084215283393860e-01,-7.056380063295364380e-02,-1.351993624120950699e-02,1.032637618482112885e-02,1.542202532291412354e-01,-1.632205843925476074e-01,-7.395832985639572144e-02,1.296072602272033691e-01,-2.226627245545387268e-02,1.631957888603210449e-01,1.608196794986724854e-01,1.506060659885406494e-01,9.994892403483390808e-03,-6.514007598161697388e-02,1.138566993176937103e-02,8.918531239032745361e-02,9.380527772009372711e-03,5.287317559123039246e-02,-1.873473525047302246e-01,-2.698666602373123169e-02,6.271206308156251907e-03,6.346274167299270630e-02,1.856292337179183960e-01,1.461940109729766846e-01,1.510694473981857300e-01,-5.125621333718299866e-02,-1.851265132427215576e-02,8.691859990358352661e-02,-6.573015451431274414e-02,-8.466672897338867188e-02,-1.491984575986862183e-01,1.401307731866836548e-01,-5.909830704331398010e-02,7.755392789840698242e-02,3.721662983298301697e-02,4.142822325229644775e-02,1.096085309982299805e-01,-1.539765447378158569e-01,-1.088247820734977722e-01,-1.280260086059570312e-01,6.048529595136642456e-02,7.065593451261520386e-02,-9.230826795101165771e-02,-1.337810754776000977e-01,-1.101526152342557907e-02,5.946532264351844788e-02,-4.967834055423736572e-02,-1.107763200998306274e-01,-5.935441330075263977e-02,-4.403608664870262146e-02,9.095219895243644714e-03,8.647911250591278076e-02,5.983032658696174622e-02,-5.815490335226058960e-02,-3.600476682186126709e-02,-9.103055298328399658e-02,-3.925052471458911896e-03,2.678211964666843414e-02,-9.205412119626998901e-02,-1.383148878812789917e-01,-1.893723458051681519e-01,5.448288097977638245e-02,-4.353309795260429382e-02,-6.153831630945205688e-02,1.234962940216064453e-01,-1.281780600547790527e-01,1.508337259292602539e-01,-8.359298855066299438e-02,1.166428476572036743e-01,-2.545991167426109314e-02,-3.889808803796768188e-02,1.048623695969581604e-01,1.361536830663681030e-01,1.716072857379913330e-02,-1.397320628166198730e-01,1.244963482022285461e-01,1.374547630548477173e-01
1.410908252000808716e-01,-1.023940816521644592e-01,1.490147709846496582e-01,-2.358103916049003601e-02,-8.846126496791839600e-03,9.665694832801818848e-02,-9.241311997175216675e-02,1.163870617747306824e-01,2.666233666241168976e-02,-4.629635438323020935e-02,2.169710397720336914e-02,-1.075664237141609192e-01,-1.248314306139945984e-01,-5.705517902970314026e-02,-2.162543125450611115e-02,1.880417577922344208e-02,-1.103188768029212952e-01,1.116792112588882446e-01,-1.821722388267517090e-01,1.043324731290340424e-02,-6.950654555112123489e-03,-1.817447133362293243e-02,-1.357002407312393188e-01,2.011102885007858276e-01,2.877231128513813019e-02,2.018920704722404480e-02,3.585295751690864563e-02,-1.477967761456966400e-02,-1.867670267820358276e-01,-5.952765420079231262e-02,-4.819313436746597290e-02,-6.266868114471435547e-02,3.500373661518096924e-02,-1.033559143543243408e-01,2.164884842932224274e-02,-2.060834877192974091e-02,-1.356332600116729736e-01,1.951610594987869263e-01,-3.611600771546363831e-02,-5.130758881568908691e-02,-3.280623583123087883e-03,-1.051563397049903870e-01,1.604792848229408264e-02,-3.375861048698425293e-02,7.885851711034774780e-02,-1.136683747172355652e-01,1.771240495145320892e-02,-3.105728328227996826e-02,9.790252894163131714e-02,7.033670693635940552e-02,9.032556787133216858e-03,1.065428033471107483e-01,7.850921154022216797e-02,-5.053085461258888245e-02,-7.740620523691177368e-02,1.092277690768241882e-01,-1.093952450901269913e-02,9.206656366586685181e-02,-1.291911900043487549e-01,6.196693703532218933e-02,5.227661877870559692e-02,-7.143929600715637207e-02,1.387408673763275146e-01,5.073880404233932495e-02,1.801726594567298889e-02,-1.840873062610626221e-01,8.897995203733444214e-02,-2.726938389241695404e-02,-1.064419448375701904e-01,1.059256121516227722e-01,5.685283243656158447e-02,-4.650695621967315674e-02,2.839556708931922913e-02,1.501653809100389481e-02,7.885336875915527344e-02,-5.565694719552993774e-02,4.482186958193778992e-02,-1.588990092277526855e-01,6.723992526531219482e-02,4.612714052200317383e-02,1.495604515075683594e-01,-1.056003421545028687e-01,-6.622565537691116333e-02,1.454539597034454346e-01,7.255893945693969727e-02,4.968991503119468689e-02,1.337674856185913086e-01,-1.755847334861755371e-01,4.890510439872741699e-02,-1.119640842080116272e-01,-2.139583788812160492e-02,3.333203122019767761e-02,-2.449479140341281891e-02,7.153285294771194458e-02,1.035161912441253662e-01,1.932935863733291626e-01,3.862310200929641724e-02,-4.676899313926696777e-02,1.309143453836441040e-01,-7.863669097423553467e-02,-1.643224619328975677e-02,1.120327413082122803e-01,-6.707898527383804321e-02,9.321641921997070312e-02,-7.995172590017318726e-02,7.603528350591659546e-02,-3.117735870182514191e-02,-2.507636323571205139e-02,1.684058904647827148e-01,-3.512200340628623962e-02,1.275680866092443466e-02,-1.519591212272644043e-01,1.232989281415939331e-01,4.424526169896125793e-02,4.128560051321983337e-02,1.406738907098770142e-01,-5.432684347033500671e-02,1.217978149652481079e-01,-9.083153679966926575e-03,-8.390866219997406006e-02,-5.231883004307746887e-02,-6.996066123247146606e-02,-1.165601387619972229e-01,1.194339767098426819e-01,-1.348601281642913818e-01,2.526153624057769775e-02,5.753596499562263489e-02,-1.155013665556907654e-01
-8.925221860408782959e-02,-1.872479170560836792e-01,8.543281257152557373e-02,-1.550336480140686035e-01,-2.237883955240249634e-01,-1.257036030292510986e-01,-4.139060527086257935e-02,-9.513320773839950562e-02,-2.051967382431030273e-01,-1.699165552854537964e-01,-1.707389019429683685e-02,-8.991421014070510864e-02,-3.316643834114074707e-01,-1.921540349721908569e-01,7.771812379360198975e-02,-3.307293951511383057e-01,-4.730077460408210754e-02,-1.833037137985229492e-01,-3.765715658664703369e-01,-2.831750214099884033e-01,-2.798760868608951569e-02,1.422875653952360153e-02,-1.960527300834655762e-01,-1.032152120023965836e-02,-2.517305910587310791e-01,-1.824809759855270386e-01,-2.239963039755821228e-02,-1.171264424920082092e-01,-1.385248452425003052e-02,5.902332440018653870e-02,-1.705513894557952881e-01,-2.123668938875198364e-01,1.140538454055786133e-01,-4.124345257878303528e-02,1.116899866610765457e-02,-1.459184139966964722e-01,2.785283699631690979e-02,-6.544839590787887573e-02,-5.500605702400207520e-02,1.168982684612274170e-01,-1.974144279956817627e-01,-9.525653719902038574e-02,-1.752814352512359619e-01,-5.370406061410903931e-02,-1.698343604803085327e-01,-2.420586645603179932e-01,-1.020465567708015442e-01,-4.124217480421066284e-02,9.174207225441932678e-03,-9.896910190582275391e-02,9.876871854066848755e-02,1.212051976472139359e-02,7.782654464244842529e-02,-4.376843199133872986e-02,-5.456018075346946716e-02,-1.477293223142623901e-01,4.012738913297653198e-02,-3.155087828636169434e-01,-1.612199693918228149e-01,-1.177550554275512695e-01,-1.333173513412475586e-01,3.189904964528977871e-04,1.014806563034653664e-03,-1.280543357133865356e-01,-4.833249002695083618e-02,-5.332313850522041321e-02,-1.420358866453170776e-01,-1.098455488681793213e-01,-2.044339179992675781e-01,-1.616709381341934204e-01,-1.699590235948562622e-01,1.037882268428802490e-01,6.003089994192123413e-02,1.069351360201835632e-01,-3.613218665122985840e-02,-1.726650148630142212e-01,-1.500892192125320435e-01,-2.298901081085205078e-01,-1.258519887924194336e-01,1.323967874050140381e-01,1.671101339161396027e-02,1.531070843338966370e-02,-1.746143698692321777e-01,-1.842433363199234009e-01,1.655011810362339020e-02,-7.429510354995727539e-03,-4.310364834964275360e-03,-6.734377145767211914e-02,-2.697041034698486328e-01,-1.507664322853088379e-01,1.769317314028739929e-02,6.762032955884933472e-02,-1.808404624462127686e-01,-3.922555595636367798e-02,2.934798598289489746e-02,-1.358989030122756958e-01,7.270929962396621704e-02,-2.503787875175476074e-01,-2.432744950056076050e-01,-1.246008127927780151e-01,-2.268626093864440918e-01,7.262594252824783325e-02,-2.034662067890167236e-01,-1.237422674894332886e-01,3.731009364128112793e-02,-1.994727998971939087e-01,6.898529082536697388e-02,-2.614189386367797852e-01,-2.478478252887725830e-01,7.756898552179336548e-02,-1.483000814914703369e-01,-1.865556240081787109e-01,2.528188936412334442e-02,-1.402384489774703979e-01,2.061243169009685516e-02,-1.241680458188056946e-01,-3.606923818588256836e-01,-9.024467319250106812e-02,1.856523901224136353e-01,-1.370522528886795044e-01,1.221064198762178421e-02,7.968261837959289551e-02,-8.513314276933670044e-02,-1.736802607774734497e-01,2.125943303108215332e-01,-9.032376855611801147e-02,-2.260008454322814941e-01,3.057728111743927002e-01
-8.985999226570129395e-02,-8.596020191907882690e-02,5.667567998170852661e-02,1.760758161544799805e-01,1.757839322090148926e-02,-1.117989197373390198e-01,3.482839465141296387e-02,-9.937693364918231964e-03,4.535578191280364990e-02,-8.801832795143127441e-03,-1.660666018724441528e-01,-1.659629680216312408e-02,-8.378951251506805420e-02,-9.419348835945129395e-02,1.535252630710601807e-01,1.047829091548919678e-01,-5.258542671799659729e-02,1.478955894708633423e-01,1.151269897818565369e-01,-1.642402410507202148e-01,9.903793781995773315e-02,-5.663690716028213501e-02,-3.454314777627587318e-03,-5.755515396595001221e-02,1.333164982497692108e-02,-3.095418401062488556e-02,1.389150172472000122e-01,-4.679069295525550842e-02,3.333349525928497314e-02,-4.149793460965156555e-02,-9.578122198581695557e-02,-7.002852857112884521e-02,-1.744528487324714661e-02,6.945041567087173462e-02,-4.378667101263999939e-02,-9.402424097061157227e-02,8.486062288284301758e-02,-6.034404970705509186e-03,-9.348526597023010254e-02,6.005539558827877045e-03,-7.228922098875045776e-02,-1.523133367300033569e-02,1.262324303388595581e-01,1.502453386783599854e-01,1.401617676019668579e-01,3.975341096520423889e-02,2.531792782247066498e-02,6.773948203772306442e-03,1.250160783529281616e-01,-9.295448660850524902e-03,1.324816644191741943e-01,-9.950111061334609985e-02,-5.761366337537765503e-04,8.617193251848220825e-02,-4.449143260717391968e-02,2.621418237686157227e-02,-7.523059099912643433e-02,-6.411592662334442139e-02,-1.008055638521909714e-02,-1.149770319461822510e-01,-3.609373793005943298e-02,-1.075427383184432983e-01,1.309282779693603516e-01,8.422857522964477539e-02,-1.274154931306838989e-01,-2.349640987813472748e-02,-2.390897087752819061e-02,-1.229524463415145874e-01,9.432042390108108521e-02,1.760931164026260376e-01,3.254851559177041054e-03,1.830244064331054688e-01,7.294521667063236237e-03,7.372994720935821533e-02,1.410957872867584229e-01,-5.513352528214454651e-02,5.505248159170150757e-02,5.381985753774642944e-02,-8.958639949560165405e-02,1.061372895492240787e-04,6.517945975065231323e-02,-6.579029560089111328e-02,6.797206401824951172e-02,4.690679907798767090e-02,1.934036165475845337e-01,-6.691256165504455566e-02,-1.373815089464187622e-01,-5.682200565934181213e-02,-1.826978772878646851e-01,-1.601074635982513428e-02,-9.844038635492324829e-02,-8.473598212003707886e-02,1.182269304990768433e-02,4.951671883463859558e-02,-5.376160889863967896e-02,1.787014305591583252e-02,4.889519140124320984e-02,8.337727934122085571e-02,1.515803188085556030e-01,4.344295710325241089e-02,-1.484816670417785645e-01,4.299038276076316833e-02,3.570123761892318726e-02,-9.742289036512374878e-02,2.676409855484962463e-02,1.657730787992477417e-01,8.327078819274902344e-02,1.005894467234611511e-01,-4.263247177004814148e-02,1.114032715559005737e-01,-1.521676927804946899e-01,5.665556713938713074e-02,2.425011806190013885e-02,-6.422474980354309082e-02,6.571485847234725952e-02,6.704940646886825562e-02,2.120418660342693329e-02,1.592050641775131226e-01,-8.575423061847686768e-02,-8.181166648864746094e-02,-1.637503877282142639e-02,-1.699800938367843628e-01,1.062266342341899872e-02,-3.740471228957176208e-02,-1.463569141924381256e-02,1.922814100980758667e-01,2.101970836520195007e-02,5.049801245331764221e-02
8.834246546030044556e-02,1.335858702659606934e-01,-2.100449427962303162e-02,1.734300106763839722e-01,-6.056106090545654297e-02,-2.176823094487190247e-02,4.487901926040649414e-02,3.049559891223907471e-01,9.151963889598846436e-02,2.832411602139472961e-02,-3.385331854224205017e-02,-4.808714240789413452e-02,-1.011617761105298996e-02,3.457754105329513550e-02,1.102458909153938293e-01,5.756724625825881958e-02,2.843574620783329010e-02,-4.680642741732299328e-04,1.010152176022529602e-01,1.122669950127601624e-01,1.090130805969238281e-01,-9.508878737688064575e-02,2.482193410396575928e-01,7.631971500813961029e-03,2.373977601528167725e-01,1.812872290611267090e-01,3.623408079147338867e-02,-7.268538326025009155e-02,-5.979796126484870911e-02,2.203428298234939575e-01,6.194429472088813782e-02,-1.333998739719390869e-01,-1.100058481097221375e-01,1.510925441980361938e-01,-1.341750174760818481e-01,-6.941458582878112793e-02,6.673377752304077148e-02,-2.035865187644958496e-01,-9.355267882347106934e-02,1.204575598239898682e-01,3.531051799654960632e-03,1.919395104050636292e-02,3.576325718313455582e-03,-5.752470809966325760e-03,2.937486954033374786e-02,9.926304966211318970e-02,5.608928203582763672e-02,2.961437776684761047e-02,7.486300915479660034e-02,2.634034864604473114e-02,-1.057811528444290161e-01,-1.014393568038940430e-01,1.874716877937316895e-01,2.570852264761924744e-02,1.860382221639156342e-02,1.936416327953338623e-02,-2.037446647882461548e-01,1.691556274890899658e-01,-7.981731556355953217e-03,1.493255645036697388e-01,-3.239252371713519096e-03,-2.675809524953365326e-02,1.458562538027763367e-02,5.238350480794906616e-02,3.261071164160966873e-03,1.228382885456085205e-01,-1.801226586103439331e-01,-2.725833058357238770e-01,-2.280315570533275604e-02,9.956827759742736816e-02,4.358372837305068970e-02,9.197721257805824280e-03,-2.055442631244659424e-01,-6.548427045345306396e-03,-2.943428466096520424e-03,-1.676814071834087372e-02,-8.547808043658733368e-03,1.023366153240203857e-01,-1.616131961345672607e-01,-1.997215896844863892e-01,4.330937936902046204e-02,-7.584211975336074829e-02,2.266643792390823364e-01,1.902657747268676758e-01,4.067644104361534119e-02,-7.496423274278640747e-02,-4.524815827608108521e-02,1.593072116374969482e-01,6.414846330881118774e-02,1.082365512847900391e-01,-6.812525540590286255e-02,3.496908396482467651e-02,-3.337022848427295685e-03,1.661827564239501953e-01,1.026571542024612427e-01,-1.594070047140121460e-01,3.671559691429138184e-01,-1.222795099020004272e-01,1.734058260917663574e-01,-1.439840793609619141e-01,1.657837927341461182e-01,-1.178976893424987793e-01,-8.203250914812088013e-02,-1.802037060260772705e-01,-1.807924360036849976e-02,5.338283628225326538e-02,1.487960200756788254e-02,-1.723435372114181519e-01,-9.795639663934707642e-02,-2.107356116175651550e-02,2.642777562141418457e-01,1.313517522066831589e-02,6.813270598649978638e-02,1.905819177627563477e-01,4.503434151411056519e-02,-4.309868440032005310e-02,2.598454989492893219e-02,-2.774938382208347321e-02,5.282466113567352295e-02,-3.224269673228263855e-02,-4.321630299091339111e-02,5.136829242110252380e-02,-8.787996321916580200e-02,4.605079442262649536e-02,1.137094646692276001e-01,1.392530053853988647e-01,3.978618234395980835e-02,-1.311979144811630249e-01
-1.774574071168899536e-01,3.917857259511947632e-02,5.095525830984115601e-02,-9.427336603403091431e-02,-1.651510745286941528e-01,-4.278159141540527344e-02,7.640030980110168457e-02,-8.992248773574829102e-02,9.041737765073776245e-03,1.236972734332084656e-01,1.002396866679191589e-01,-4.333226382732391357e-02,-2.779042907059192657e-02,4.735947400331497192e-02,-5.252281203866004944e-02,-2.249599806964397430e-02,8.957614749670028687e-02,-2.814606204628944397e-02,6.372933834791183472e-02,-3.190234303474426270e-02,-3.784643486142158508e-02,1.055739894509315491e-01,-9.407213330268859863e-02,-7.982851564884185791e-02,2.106232382357120514e-02,-2.900478243827819824e-02,6.821504235267639160e-02,-9.378244169056415558e-03,3.862069547176361084e-02,1.440430246293544769e-02,4.688823595643043518e-02,-2.185070700943470001e-02,1.747480034828186035e-01,-6.345252692699432373e-02,8.994597196578979492e-02,2.533730491995811462e-02,5.582968518137931824e-02,2.115447372198104858e-01,-3.033448243513703346e-03,6.630476564168930054e-02,1.006026491522789001e-01,1.633830666542053223e-01,-1.161957718431949615e-02,-3.776630014181137085e-02,3.891966119408607483e-02,6.071823835372924805e-02,1.862944364547729492e-01,-1.584930270910263062e-01,1.267385035753250122e-01,4.630817845463752747e-02,-1.748325885273516178e-03,-1.170309334993362427e-01,-3.104373626410961151e-02,6.470591574907302856e-02,-1.804883629083633423e-01,9.816722571849822998e-02,-2.838372066617012024e-02,-9.943066537380218506e-02,9.673090651631355286e-03,9.915887564420700073e-02,7.913190871477127075e-02,1.329426765441894531e-01,-1.398622542619705200e-01,4.939655587077140808e-02,1.954452693462371826e-02,3.547194227576255798e-02,1.256859898567199707e-01,7.076171692460775375e-03,-9.424534440040588379e-02,-8.343645371496677399e-03,-5.113849788904190063e-02,7.375898957252502441e-02,1.008260473608970642e-01,-3.189588710665702820e-02,-1.218872796744108200e-02,2.963156811892986298e-02,4.903914034366607666e-02,-5.634259805083274841e-02,9.303516894578933716e-02,1.405031830072402954e-01,1.295541226863861084e-01,-2.343838475644588470e-02,-1.058462932705879211e-01,3.110485523939132690e-02,2.485391311347484589e-02,-9.440279006958007812e-02,7.968725264072418213e-02,5.113781243562698364e-02,-9.851328097283840179e-03,-2.535352669656276703e-02,8.392418175935745239e-02,-1.417952179908752441e-01,-1.313512623310089111e-01,-3.509296476840972900e-02,2.487193234264850616e-02,3.752979915589094162e-03,1.606040075421333313e-02,-9.833887964487075806e-02,-1.225699856877326965e-01,-6.184210628271102905e-02,-5.465078633278608322e-03,1.058871895074844360e-01,1.201484799385070801e-01,1.002461704047163948e-05,1.220181235112249851e-03,5.769301578402519226e-02,-3.806913271546363831e-02,5.980958789587020874e-02,2.132529392838478088e-02,5.874795373529195786e-03,1.860810965299606323e-01,-1.471009105443954468e-01,-1.479900032281875610e-01,2.323510125279426575e-02,-1.349641382694244385e-01,1.177930608391761780e-01,-2.775627747178077698e-02,1.607137674000114202e-04,-1.039420254528522491e-02,-1.610274910926818848e-01,1.262884438037872314e-01,1.955584809184074402e-02,-4.016967024654150009e-03,-1.469336263835430145e-02,3.614877909421920776e-02,8.445857465267181396e-02,-6.806498020887374878e-02,-1.846928596496582031e-01
-1.815060712397098541e-02,-8.074603974819183350e-03,-1.951190829277038574e-01,-1.046361699700355530e-01,-8.345112204551696777e-02,-6.859222799539566040e-02,-3.564637899398803711e-02,-5.210038274526596069e-02,2.731678821146488190e-02,-8.464411646127700806e-02,-5.628171935677528381e-02,2.426907233893871307e-02,7.820998877286911011e-02,1.571475416421890259e-01,-4.550857096910476685e-02,-1.179631799459457397e-01,7.624777406454086304e-02,-7.038566470146179199e-02,2.607001736760139465e-02,-6.079674139618873596e-02,5.147222429513931274e-02,9.003613144159317017e-03,-4.321250133216381073e-03,8.222826570272445679e-02,-1.142102256417274475e-01,1.050687655806541443e-01,4.394382238388061523e-02,8.409405499696731567e-02,-1.098370552062988281e-01,1.016705557703971863e-01,-8.039655163884162903e-03,1.162950918078422546e-01,2.951823174953460693e-02,2.476663514971733093e-02,1.580213457345962524e-01,9.630526416003704071e-03,1.178003475069999695e-01,-1.066761240363121033e-01,6.360385566949844360e-02,1.114395633339881897e-02,-9.349409490823745728e-03,6.656806915998458862e-02,6.418900936841964722e-02,5.501236021518707275e-02,-5.031263921409845352e-03,-1.758033484220504761e-01,6.342063099145889282e-02,-6.593579798936843872e-02,1.711424142122268677e-01,-3.661132976412773132e-02,5.593160167336463928e-02,-9.141495078802108765e-02,5.418419092893600464e-02,9.967447817325592041e-02,-3.923116251826286316e-02,-7.370656728744506836e-02,6.745531409978866577e-02,1.186290532350540161e-01,5.666879191994667053e-02,-1.609364002943038940e-01,-1.265585124492645264e-01,-5.300296097993850708e-02,6.695244926959276199e-03,-1.764434389770030975e-02,7.525254040956497192e-02,-3.451814502477645874e-02,3.394858911633491516e-02,3.465009853243827820e-02,-2.828657627105712891e-02,1.652210950851440430e-01,3.170681372284889221e-02,3.943159058690071106e-02,1.133048981428146362e-01,-5.346531514078378677e-03,1.546380817890167236e-01,7.871929556131362915e-02,-1.707023829221725464e-01,-4.947720468044281006e-02,-1.274808198213577271e-01,1.062889397144317627e-01,7.213736325502395630e-02,3.190119937062263489e-02,-3.995314612984657288e-02,-1.429050117731094360e-01,9.159421920776367188e-02,2.486384846270084381e-02,-7.631133496761322021e-02,-7.600802183151245117e-02,4.764356836676597595e-02,6.434381008148193359e-02,-3.357144445180892944e-02,-3.040451742708683014e-02,7.389019429683685303e-02,4.201952740550041199e-02,-7.136741280555725098e-02,1.206866577267646790e-01,9.868418425321578979e-02,-5.723283439874649048e-02,-1.872635446488857269e-02,6.068860739469528198e-02,-7.700412720441818237e-02,-1.069510877132415771e-01,1.374889314174652100e-01,1.467804163694381714e-01,-4.346735030412673950e-02,1.255139857530593872e-01,-1.380565110594034195e-02,-9.370324201881885529e-03,-9.103934466838836670e-02,-9.273339062929153442e-02,-7.183448970317840576e-02,1.183666437864303589e-01,-1.894148625433444977e-02,1.295264959335327148e-01,-6.000975519418716431e-02,-1.188830286264419556e-01,1.426630765199661255e-01,1.016703918576240540e-01,-1.135265976190567017e-01,1.064845267683267593e-02,-8.332554996013641357e-02,7.562414556741714478e-02,1.214742511510848999e-01,-1.178086176514625549e-01,6.054626777768135071e-02,1.790332198143005371e-01,-5.636009946465492249e-02,-1.230925619602203369e-01
3.070604801177978516e-02,1.386525481939315796e-01,1.762482374906539917e-01,8.031483739614486694e-02,1.216361746191978455e-01,-1.103798449039459229e-01,7.883211225271224976e-02,6.454302370548248291e-02,-1.006452459841966629e-02,9.017218835651874542e-03,-3.903039917349815369e-02,-8.192714303731918335e-02,-4.155192896723747253e-02,-8.610557764768600464e-02,-1.712106913328170776e-02,9.585759788751602173e-02,7.796142995357513428e-02,-7.902701199054718018e-02,1.120463386178016663e-01,1.493447422981262207e-01,-2.430610731244087219e-02,1.785014756023883820e-02,-1.120554581284523010e-01,9.683880954980850220e-02,9.820737689733505249e-02,-1.603257958777248859e-03,1.610718071460723877e-01,-7.027662545442581177e-02,9.916500747203826904e-02,-1.130963303148746490e-02,-1.543301343917846680e-01,1.303600519895553589e-01,-1.388519909232854843e-02,6.237977743148803711e-02,6.435917317867279053e-02,-2.249277569353580475e-02,-8.308839052915573120e-02,-8.793396502733230591e-02,1.755510717630386353e-01,2.317268215119838715e-02,8.918423950672149658e-02,-1.115172430872917175e-01,-8.014017716050148010e-03,3.150582686066627502e-02,-5.224906280636787415e-02,7.970403879880905151e-02,1.117938905954360962e-01,1.168451234698295593e-01,5.520632490515708923e-02,4.039582982659339905e-02,-8.796251565217971802e-02,1.349515616893768311e-01,-2.103466354310512543e-02,1.109301950782537460e-02,-5.240750312805175781e-02,4.773098509758710861e-03,1.427282392978668213e-01,1.655483432114124298e-02,7.916959375143051147e-02,1.831728778779506683e-02,-5.848410725593566895e-02,-9.562995284795761108e-02,1.344910562038421631e-01,-2.742884121835231781e-02,9.500052034854888916e-02,-3.785274550318717957e-02,1.155572161078453064e-01,4.370476305484771729e-02,3.611695393919944763e-02,-7.406664639711380005e-02,-1.285390853881835938e-01,1.027645096182823181e-01,-1.478943526744842529e-01,6.712259259074926376e-03,-4.152224957942962646e-02,6.273772567510604858e-02,8.144015818834304810e-02,-2.501896210014820099e-02,1.034405007958412170e-01,-4.087216034531593323e-02,-1.095148250460624695e-01,1.256940979510545731e-02,8.796320296823978424e-03,-3.814088925719261169e-02,9.232363081537187099e-04,8.440987765789031982e-02,1.203745752573013306e-01,-5.626123771071434021e-02,-1.528961956501007080e-01,-3.594693168997764587e-02,-1.468964815139770508e-01,-3.125417232513427734e-02,3.203883394598960876e-02,9.939550608396530151e-02,-3.035699389874935150e-02,-1.728925257921218872e-01,1.003098264336585999e-01,4.036986455321311951e-02,-1.783312708139419556e-01,1.753171831369400024e-01,1.517042145133018494e-02,-2.291774377226829529e-03,2.012467198073863983e-02,-5.390300229191780090e-02,9.053773432970046997e-02,-3.075221367180347443e-02,9.513756632804870605e-02,-4.610751569271087646e-02,-1.002243757247924805e-01,2.252728305757045746e-02,-1.695185452699661255e-01,1.238179728388786316e-01,-2.418031916022300720e-02,3.685078769922256470e-02,-1.733266413211822510e-01,-1.618012189865112305e-01,-1.771114207804203033e-02,-9.781408123672008514e-03,5.545302759855985641e-03,-7.926630228757858276e-02,-9.125432372093200684e-02,-5.926441773772239685e-02,1.004714742302894592e-01,4.066700488328933716e-02,-1.535056717693805695e-02,5.571134760975837708e-02,-2.759023942053318024e-02,1.741513311862945557e-01
1.884263455867767334e-01,-2.406830899417400360e-02,-3.075605072081089020e-02,1.417933404445648193e-01,-2.150669693946838379e-02,-8.017435669898986816e-02,8.436555415391921997e-02,5.755605921149253845e-02,-2.443655394017696381e-02,1.179328653961420059e-02,8.039769530296325684e-02,4.013052582740783691e-02,-3.036398068070411682e-02,-1.717541250400245190e-03,1.803095638751983643e-01,6.730136275291442871e-02,1.415897607803344727e-01,9.945484250783920288e-02,8.899102360010147095e-02,-8.014178276062011719e-02,1.142144650220870972e-01,-5.127170681953430176e-02,-1.106548905372619629e-01,-1.114549338817596436e-01,2.608867594972252846e-03,-8.246116340160369873e-02,-1.655965298414230347e-01,9.176824241876602173e-02,4.553915187716484070e-02,-4.547746852040290833e-02,1.040032655000686646e-01,-9.657555073499679565e-02,1.986327022314071655e-02,1.259309351444244385e-01,2.310558967292308807e-02,-6.647100299596786499e-02,-5.835423618555068970e-02,1.204412877559661865e-01,7.333581894636154175e-02,9.415417164564132690e-02,7.270675897598266602e-02,3.177729249000549316e-02,6.199763622134923935e-03,-1.244507953524589539e-01,-1.569063030183315277e-02,-3.507437556982040405e-02,1.031013354659080505e-01,-7.122463732957839966e-02,-5.201853066682815552e-02,-8.069386333227157593e-02,-9.459455311298370361e-02,-8.509120345115661621e-02,-5.478910729289054871e-02,-1.108747441321611404e-02,7.514262944459915161e-02,7.182098180055618286e-02,8.202192932367324829e-02,3.481935709714889526e-02,-1.881998777389526367e-02,8.342195302248001099e-02,1.295913904905319214e-01,8.004203438758850098e-03,-4.505897685885429382e-02,-1.475910544395446777e-01,-5.078100785613059998e-02,1.466785520315170288e-01,-7.998570799827575684e-02,-3.085369709879159927e-03,-9.464353322982788086e-02,-4.697475582361221313e-02,3.791385889053344727e-02,8.936540782451629639e-02,-1.094875857234001160e-01,-6.701012700796127319e-02,1.694045029580593109e-02,1.334956139326095581e-01,-1.481712162494659424e-01,-1.213850080966949463e-01,-1.897298842668533325e-01,6.894695758819580078e-02,-1.150141060352325439e-01,-7.740962505340576172e-02,7.483274489641189575e-02,9.365683048963546753e-02,2.407387457787990570e-02,-7.610499858856201172e-02,-3.288250416517257690e-02,-1.661620289087295532e-01,-1.103500798344612122e-01,-1.250308156013488770e-01,-1.828919649124145508e-01,-4.772439599037170410e-02,1.672895997762680054e-01,1.094655171036720276e-01,-1.336483359336853027e-01,1.320892758667469025e-02,9.431727230548858643e-02,5.260940641164779663e-02,-5.272969231009483337e-02,-3.249027580022811890e-02,7.901951670646667480e-02,3.520271182060241699e-02,4.947809502482414246e-02,-5.965170636773109436e-02,-1.518540084362030029e-01,5.738221108913421631e-02,4.695242643356323242e-02,2.554743783548474312e-03,5.354662239551544189e-02,-4.498441517353057861e-02,-4.132032766938209534e-02,-4.146251454949378967e-02,1.670640707015991211e-01,-3.787920624017715454e-02,6.965358555316925049e-02,1.204427778720855713e-01,-1.089711263775825500e-01,-1.653009355068206787e-01,1.280603408813476562e-01,1.553290188312530518e-01,-1.991088315844535828e-02,4.933832585811614990e-02,-1.885353028774261475e-01,6.471919268369674683e-02,-8.684882521629333496e-02,8.525563776493072510e-02,1.725564897060394287e-02,3.019875288009643555e-02
8.650393784046173096e-02,1.265918463468551636e-01,1.033812239766120911e-01,2.555973641574382782e-02,6.387782096862792969e-02,-2.794323861598968506e-01,9.644091874361038208e-02,-2.401220239698886871e-02,-1.032608654350042343e-02,-5.276277288794517517e-02,-1.685161888599395752e-01,6.945447623729705811e-02,-1.450407803058624268e-01,1.811221614480018616e-02,2.113606482744216919e-01,-1.480899602174758911e-01,-1.463211774826049805e-01,-3.390640392899513245e-02,2.608783915638923645e-02,-1.685049384832382202e-01,-6.866101175546646118e-02,1.126951798796653748e-01,1.219342723488807678e-01,-4.680240154266357422e-02,1.638657227158546448e-02,1.872622072696685791e-01,1.842708140611648560e-02,6.269837915897369385e-02,2.796558141708374023e-01,1.494900733232498169e-01,9.029041044414043427e-03,-9.371333569288253784e-02,-5.881254095584154129e-03,1.338069438934326172e-01,-1.207602582871913910e-02,1.400407999753952026e-01,5.886643007397651672e-02,1.251286710612475872e-03,1.107958797365427017e-02,1.575734280049800873e-02,-1.078267768025398254e-01,7.323791831731796265e-02,-2.540521323680877686e-02,4.603497311472892761e-02,1.843043863773345947e-01,-6.592094898223876953e-02,2.447719871997833252e-01,1.085617169737815857e-01,9.688533842563629150e-02,2.992130443453788757e-02,-1.381716970354318619e-02,1.279357969760894775e-01,-1.729942299425601959e-02,1.176233664155006409e-01,1.758535653352737427e-01,-1.479906737804412842e-01,1.586187779903411865e-01,5.808182805776596069e-02,-1.088924631476402283e-01,1.660524457693099976e-01,1.244997233152389526e-01,9.764830023050308228e-02,8.236325532197952271e-02,1.652626991271972656e-01,-1.417736615985631943e-02,5.576123669743537903e-02,1.516786813735961914e-01,-1.848687417805194855e-02,6.438356637954711914e-02,1.760263890027999878e-01,1.857768893241882324e-01,2.866289578378200531e-03,-1.067053005099296570e-01,3.775542229413986206e-02,1.106689870357513428e-01,1.145474985241889954e-01,1.075430512428283691e-01,2.061658911406993866e-02,-1.417183876037597656e-01,-3.078858554363250732e-01,2.624899744987487793e-01,-1.063868403434753418e-01,7.709692418575286865e-02,5.833211168646812439e-02,-1.036095023155212402e-01,5.288091674447059631e-02,1.065354868769645691e-01,9.152381867170333862e-02,-9.292218834161758423e-02,6.592980027198791504e-02,-6.948973983526229858e-02,1.633444875478744507e-01,2.230274379253387451e-01,1.445548981428146362e-01,1.292513161897659302e-01,-8.423147350549697876e-02,9.144985675811767578e-02,-5.296524986624717712e-02,2.239762246608734131e-01,-6.693769246339797974e-02,2.448934316635131836e-01,1.124772429466247559e-01,6.362558901309967041e-02,9.427364915609359741e-02,1.472967863082885742e-01,-2.912927232682704926e-02,1.182083487510681152e-01,1.449664980173110962e-01,1.466201841831207275e-01,-1.551634818315505981e-01,9.353251010179519653e-02,4.226325824856758118e-02,8.931587636470794678e-02,1.410114169120788574e-01,1.472808420658111572e-01,8.951244503259658813e-02,1.121125146746635437e-01,1.879209131002426147e-01,-4.566096886992454529e-02,2.179528772830963135e-01,2.206529527902603149e-01,2.370209898799657822e-03,5.032457411289215088e-02,1.693550199270248413e-01,-8.513339608907699585e-02,1.657045632600784302e-02,-1.491547971963882446e-01,-2.192467637360095978e-02
1.573951393365859985e-01,-2.976061962544918060e-02,1.208681985735893250e-01,1.652543693780899048e-01,-1.138337552547454834e-01,7.406184077262878418e-02,-1.602542102336883545e-01,-7.251122500747442245e-03,-2.797366678714752197e-02,4.620169848203659058e-02,7.570738345384597778e-02,9.401769191026687622e-02,-1.983428187668323517e-02,9.531819261610507965e-03,-6.624483969062566757e-03,1.901212930679321289e-01,3.593138605356216431e-02,-1.805079281330108643e-01,5.924401432275772095e-02,1.057613119482994080e-01,1.137845739722251892e-01,-1.869588345289230347e-01,1.643397659063339233e-01,5.339312832802534103e-03,-1.194132491946220398e-01,-3.706722334027290344e-02,1.185573935508728027e-01,-1.375098675489425659e-01,-6.016079802066087723e-03,-5.701987817883491516e-02,8.280060440301895142e-02,4.408718645572662354e-02,-6.904226541519165039e-02,-2.890111692249774933e-02,-6.397475302219390869e-02,-7.356228679418563843e-02,-7.742176949977874756e-02,-1.517193615436553955e-01,-4.181158542633056641e-02,1.162159666419029236e-01,4.043111111968755722e-03,6.296519935131072998e-02,1.300626695156097412e-01,3.185746818780899048e-02,-4.808252677321434021e-02,3.079925291240215302e-02,1.739592552185058594e-01,5.639034137129783630e-02,-6.614731252193450928e-02,1.459499001502990723e-01,-9.393652528524398804e-02,-7.214756309986114502e-02,-4.375222604721784592e-03,1.683737188577651978e-01,-6.880498677492141724e-02,-1.418182849884033203e-01,6.327063590288162231e-02,1.383048295974731445e-01,-1.902069002389907837e-01,2.636833861470222473e-02,1.302160173654556274e-01,-3.089515864849090576e-02,-2.930778637528419495e-02,-4.244631156325340271e-02,1.081248074769973755e-01,-1.605324745178222656e-01,9.247286617755889893e-02,-4.460018873214721680e-02,-9.443168528378009796e-03,-7.137991022318601608e-03,1.949503086507320404e-02,5.835473164916038513e-02,4.154349863529205322e-02,3.448037430644035339e-02,-6.057624518871307373e-02,2.934153564274311066e-02,2.858284674584865570e-02,-4.616569355130195618e-02,1.344659179449081421e-02,1.139924228191375732e-01,2.819173038005828857e-02,-1.544153094291687012e-01,-1.226398497819900513e-01,-1.659508049488067627e-01,-4.786700941622257233e-03,-2.169233048334717751e-03,-1.296459734439849854e-01,1.738748848438262939e-01,-1.383069250732660294e-02,-2.524109743535518646e-02,1.992410719394683838e-01,5.472200736403465271e-02,-7.375028729438781738e-02,-6.831403076648712158e-02,-2.288456819951534271e-02,-4.479809105396270752e-02,-8.708541095256805420e-02,-4.247276112437248230e-02,9.208317846059799194e-02,1.199873834848403931e-01,2.337377518415451050e-02,1.439087986946105957e-01,1.019561886787414551e-01,8.117919415235519409e-02,-1.442693471908569336e-01,-4.465799778699874878e-02,-6.629204750061035156e-02,1.129384562373161316e-01,2.154410444200038910e-02,6.153118237853050232e-02,6.793419271707534790e-02,1.917697489261627197e-01,4.970690235495567322e-02,4.989067092537879944e-02,-3.670589998364448547e-02,-4.425946623086929321e-02,1.645353808999061584e-02,7.206579297780990601e-02,4.257955029606819153e-02,1.188673973083496094e-01,1.159308012574911118e-02,4.388893768191337585e-02,-1.359857805073261261e-02,-2.336546592414379120e-02,-8.005774766206741333e-02,-2.128476090729236603e-02,6.822574883699417114e-02,1.451249271631240845e-01
-7.430394738912582397e-02,3.698826581239700317e-02,-4.809767380356788635e-02,-1.114730536937713623e-02,1.984452642500400543e-02,2.955595962703227997e-02,-2.053402550518512726e-02,-6.103946641087532043e-02,-4.205849766731262207e-02,-1.347498036921024323e-02,-1.340359263122081757e-02,8.467207103967666626e-02,3.102364204823970795e-02,-1.047179102897644043e-01,1.381234228610992432e-01,3.484667837619781494e-02,-7.409789599478244781e-03,1.386062204837799072e-01,5.783277377486228943e-02,-4.304950311779975891e-02,1.220994144678115845e-01,9.161845594644546509e-02,1.004541292786598206e-01,-5.958926677703857422e-02,-9.945774823427200317e-02,5.940798670053482056e-03,-4.853531252592802048e-03,5.592649802565574646e-02,9.081035107374191284e-02,1.160900145769119263e-01,-1.620193012058734894e-02,3.197959437966346741e-02,4.660107195377349854e-02,1.606455743312835693e-01,-1.346686929464340210e-01,1.431389749050140381e-01,-5.883402377367019653e-02,1.587780006229877472e-02,9.275346994400024414e-02,1.360754519701004028e-01,1.404203623533248901e-01,-2.853582799434661865e-02,2.406726963818073273e-02,-1.042565032839775085e-01,-3.573056682944297791e-02,-4.781831800937652588e-02,4.624642059206962585e-02,1.114380918443202972e-02,1.915272772312164307e-01,-8.239476941525936127e-03,2.356659993529319763e-02,-7.591371238231658936e-02,5.598552152514457703e-02,-1.435980200767517090e-01,4.349474236369132996e-02,-4.028057307004928589e-02,1.295850612223148346e-02,-1.419378537684679031e-02,1.326160877943038940e-01,-3.055022470653057098e-02,9.267311543226242065e-02,3.734245663508772850e-03,-9.946087002754211426e-02,3.854556381702423096e-02,1.156828626990318298e-01,1.784711927175521851e-01,8.504888415336608887e-02,3.420076519250869751e-02,2.038555033504962921e-02,1.094163209199905396e-01,2.069497294723987579e-02,-1.308138519525527954e-01,4.595415294170379639e-02,-1.225084587931632996e-01,-1.784361898899078369e-01,-3.866891935467720032e-02,-1.241619214415550232e-01,-1.431870609521865845e-01,-3.432653471827507019e-02,2.632344700396060944e-02,6.904023885726928711e-02,-1.412088866345584393e-03,5.422035977244377136e-02,6.711846590042114258e-02,-9.737496078014373779e-02,-4.676549509167671204e-02,8.917070925235748291e-02,3.633475303649902344e-02,-8.962588012218475342e-02,2.292961999773979187e-02,-1.175048276782035828e-01,1.631043702363967896e-01,-7.412411272525787354e-02,3.112126328051090240e-02,2.561720460653305054e-02,2.890872582793235779e-02,1.695771329104900360e-02,-1.439395993947982788e-01,5.653332546353340149e-02,-8.203750103712081909e-02,-7.497103512287139893e-02,1.666809022426605225e-01,-1.912214308977127075e-01,-4.573650285601615906e-02,1.245538145303726196e-01,1.064132302999496460e-01,1.006721183657646179e-01,-1.179644614458084106e-01,1.166041642427444458e-01,1.405456960201263428e-01,3.827681764960289001e-02,-5.358424782752990723e-02,-1.607007831335067749e-01,3.608643636107444763e-02,-1.390853375196456909e-01,1.574108563363552094e-02,1.624966263771057129e-01,7.489881943911314011e-03,-1.748618669807910919e-02,9.749942272901535034e-02,-3.294081985950469971e-02,8.372102677822113037e-02,1.959813758730888367e-02,-1.663677953183650970e-02,4.507161304354667664e-02,9.707450121641159058e-02,3.741292282938957214e-02,-8.605907112360000610e-02
-9.342360496520996094e-02,2.141475975513458252e-01,1.147413849830627441e-01,-2.821514196693897247e-02,-1.318761259317398071e-01,7.930286228656768799e-02,1.252234727144241333e-02,-2.436018362641334534e-02,3.279395774006843567e-02,1.835724338889122009e-02,2.359432168304920197e-02,1.280088275671005249e-01,1.812787493690848351e-03,-1.215079426765441895e-01,5.637393333017826080e-03,5.323071777820587158e-02,-3.016469813883304596e-02,-2.191969379782676697e-02,-6.737702339887619019e-02,-5.304344743490219116e-02,1.862142607569694519e-02,-1.097887083888053894e-01,3.042888827621936798e-02,2.384875528514385223e-02,-2.396178059279918671e-02,-7.739866524934768677e-02,1.831258833408355713e-01,-2.315904572606086731e-02,-1.341850906610488892e-01,4.506758973002433777e-02,1.193499490618705750e-01,1.177106946706771851e-01,-1.147496998310089111e-01,-2.199430018663406372e-02,-8.559983223676681519e-02,2.313925512135028839e-02,3.885490819811820984e-02,-8.983246982097625732e-02,8.245591819286346436e-02,4.406592925079166889e-04,-8.658242225646972656e-02,7.214687764644622803e-02,-1.700192391872406006e-01,8.580449223518371582e-02,1.751089543104171753e-01,3.213607147336006165e-02,1.312144994735717773e-01,-1.197092458605766296e-01,9.461013972759246826e-02,-7.534268498420715332e-02,1.754390150308609009e-01,-6.741581857204437256e-02,4.071624949574470520e-02,4.964740201830863953e-02,-1.662782952189445496e-02,7.326483726501464844e-02,-1.125715598464012146e-01,-4.494010657072067261e-02,3.033692575991153717e-02,4.229209572076797485e-02,9.021734446287155151e-02,-1.801162064075469971e-01,-3.023616038262844086e-02,4.816064902115613222e-04,-7.998122274875640869e-02,1.113943755626678467e-02,2.392580034211277962e-03,-1.827687174081802368e-01,8.236900717020034790e-02,2.629892900586128235e-02,1.421327795833349228e-02,6.963768601417541504e-02,4.509491845965385437e-02,5.449443124234676361e-03,-1.049835458397865295e-01,-7.478136569261550903e-02,1.325463205575942993e-01,1.042358279228210449e-01,1.370237916707992554e-01,-8.597693406045436859e-03,-1.935189962387084961e-01,1.716633886098861694e-01,-4.775059595704078674e-02,-3.385322540998458862e-02,5.832466110587120056e-02,7.213863078504800797e-03,1.750098615884780884e-01,3.529170900583267212e-02,9.435379877686500549e-03,-9.946770034730434418e-03,-2.099426835775375366e-02,5.631669983267784119e-02,1.591711491346359253e-01,-1.100412830710411072e-01,9.293801337480545044e-02,1.095118671655654907e-01,2.997849322855472565e-02,-3.796505182981491089e-02,1.185709261335432529e-04,8.005592972040176392e-02,7.572993636131286621e-02,-1.089540645480155945e-01,-1.760406885296106339e-03,1.398396939039230347e-01,-1.513258665800094604e-01,-3.409278020262718201e-02,2.891409397125244141e-02,-2.433101460337638855e-02,-1.088176444172859192e-01,-1.772115379571914673e-01,-1.969301141798496246e-02,3.402501111850142479e-03,1.243998482823371887e-01,3.760401904582977295e-02,1.089845076203346252e-01,-6.262858211994171143e-02,-1.230902969837188721e-01,-7.554121781140565872e-03,-7.031089067459106445e-02,-9.148170799016952515e-02,-7.451737672090530396e-02,-8.284441381692886353e-02,-9.773562103509902954e-02,1.465515978634357452e-02,1.252014487981796265e-01,3.621033951640129089e-02,-7.724731694906949997e-03,3.055825084447860718e-02
1.310054492205381393e-02,1.015823706984519958e-01,-4.429192468523979187e-02,1.356221884489059448e-01,1.026846989989280701e-01,7.909905910491943359e-02,-1.136561669409275055e-02,-3.703716769814491272e-02,-2.415926009416580200e-02,-6.003302522003650665e-03,-2.304254285991191864e-02,3.956401348114013672e-02,-5.477179959416389465e-02,-1.097263954579830170e-02,2.596274949610233307e-02,1.917329728603363037e-01,-8.582887053489685059e-02,-1.134247183799743652e-01,-5.901309195905923843e-03,-1.481859106570482254e-02,1.563420146703720093e-01,-3.148234635591506958e-02,-1.502058375626802444e-02,-1.710602343082427979e-01,-3.834686055779457092e-02,-4.723341017961502075e-02,-1.111793816089630127e-01,-6.838213652372360229e-02,1.945703849196434021e-02,1.133645325899124146e-02,-5.325782671570777893e-02,6.927505880594253540e-02,5.566274747252464294e-02,-1.918823830783367157e-02,-4.012206941843032837e-02,9.835801273584365845e-02,-7.829057984054088593e-03,-3.982094675302505493e-02,2.600331604480743408e-02,-7.097499072551727295e-02,3.163177892565727234e-02,-7.492429763078689575e-02,2.441632561385631561e-03,6.076659075915813446e-03,9.693422168493270874e-02,-1.838656701147556305e-02,-5.517420172691345215e-02,1.338365674018859863e-02,-1.563524901866912842e-01,5.851871520280838013e-02,3.002184070646762848e-02,-4.407847882248461246e-05,6.486464291810989380e-02,-2.970550954341888428e-02,1.640342921018600464e-01,-1.756142973899841309e-01,-4.870499018579721451e-03,8.245092630386352539e-02,-9.553647786378860474e-02,-3.030713880434632301e-03,1.398968696594238281e-01,1.691688434220850468e-03,-7.928828150033950806e-02,-1.413746327161788940e-01,8.447813987731933594e-02,1.172719225287437439e-01,2.823811583220958710e-02,1.661866158246994019e-01,-4.122647270560264587e-02,4.067769274115562439e-02,1.800039112567901611e-01,-7.841478288173675537e-02,-1.415321379899978638e-01,8.389183133840560913e-02,3.569030389189720154e-02,9.425340592861175537e-02,1.687568239867687225e-02,1.290039122104644775e-01,1.546153873205184937e-01,-8.464197814464569092e-02,-1.122877821326255798e-01,1.078437566757202148e-01,1.362749040126800537e-01,4.123308882117271423e-02,-1.322802156209945679e-01,9.839827194809913635e-03,1.734722964465618134e-02,8.199654519557952881e-02,1.258736252784729004e-01,-8.483175933361053467e-02,1.072949692606925964e-01,-1.069746315479278564e-01,8.099868148565292358e-02,4.091057460755109787e-03,-9.183311834931373596e-03,-1.551811248064041138e-01,-1.442676037549972534e-01,-6.162387505173683167e-02,-6.637661159038543701e-02,1.780946403741836548e-01,-1.119617745280265808e-01,9.650845825672149658e-02,-1.752606779336929321e-02,1.013346090912818909e-01,-7.425540685653686523e-02,-5.587756633758544922e-03,-5.802797153592109680e-02,-1.584950238466262817e-01,5.586110800504684448e-02,-1.370111554861068726e-01,-6.777808070182800293e-02,-1.559797376394271851e-01,-5.287121236324310303e-02,1.347282063215970993e-02,5.910454690456390381e-02,-5.547804757952690125e-02,-7.058996707201004028e-02,7.798380404710769653e-02,-1.356816142797470093e-01,-1.015108227729797363e-01,1.210710853338241577e-01,-6.390889734029769897e-02,1.368960551917552948e-02,-2.602525055408477783e-03,-7.043772190809249878e-02,3.966094925999641418e-02,8.230228722095489502e-02,2.125567756593227386e-03
1.622306853532791138e-01,-1.363755613565444946e-01,-6.627756357192993164e-02,1.065524760633707047e-02,9.236122667789459229e-02,1.205750834196805954e-02,-1.323854923248291016e-01,-1.278946846723556519e-01,2.231970243155956268e-02,-1.029394641518592834e-01,-6.544561684131622314e-02,-3.746709786355495453e-03,1.620045006275177002e-01,7.142630219459533691e-02,6.539037823677062988e-02,1.313477009534835815e-01,-6.675399094820022583e-02,-1.532895416021347046e-01,-1.770531237125396729e-01,1.291814893484115601e-01,3.295319899916648865e-02,1.167149841785430908e-01,1.084760129451751709e-01,1.862990297377109528e-02,1.012881621718406677e-01,4.705049097537994385e-02,-1.455939412117004395e-01,7.069244515150785446e-03,1.387058645486831665e-01,-2.433470077812671661e-02,1.284956000745296478e-02,-5.811270326375961304e-02,1.773517727851867676e-01,5.176440626382827759e-02,4.006115347146987915e-02,-1.797889173030853271e-02,8.653579279780387878e-03,-1.775995641946792603e-02,-4.518038034439086914e-02,-4.024043306708335876e-02,-1.411058753728866577e-01,-2.415210381150245667e-02,-3.201528638601303101e-02,1.804687976837158203e-01,6.385314743965864182e-03,-7.532237470149993896e-02,-2.783419191837310791e-02,1.474435031414031982e-01,-7.990171015262603760e-02,2.718147449195384979e-02,9.918651729822158813e-02,1.314193755388259888e-01,-8.418977260589599609e-02,1.769174486398696899e-01,8.331347256898880005e-02,-2.837438881397247314e-02,1.420710086822509766e-01,8.915148675441741943e-02,-7.165084034204483032e-02,-6.410066504031419754e-03,6.649423390626907349e-02,8.783896267414093018e-02,1.628653407096862793e-01,1.231169700622558594e-01,-1.987622678279876709e-01,9.956255555152893066e-02,-2.151964791119098663e-02,-8.245307020843029022e-03,8.136139065027236938e-02,-1.610505282878875732e-01,-1.642350107431411743e-01,-1.940027177333831787e-01,-1.989381015300750732e-01,-2.693658927455544472e-03,-1.769339740276336670e-01,-8.024665713310241699e-02,-4.189500212669372559e-02,7.123418897390365601e-02,-4.191697761416435242e-02,-3.614047542214393616e-02,9.096735715866088867e-02,4.394623264670372009e-02,6.271668523550033569e-02,2.054589241743087769e-01,-1.193787381052970886e-01,-1.015861481428146362e-01,5.296544171869754791e-03,2.923481166362762451e-02,-1.155302627012133598e-03,-1.682138442993164062e-01,7.699105888605117798e-02,2.164753340184688568e-02,5.256751179695129395e-02,-3.667924180626869202e-02,5.206850543618202209e-02,6.570011377334594727e-02,5.738130956888198853e-02,-9.438639134168624878e-02,7.224193960428237915e-02,-2.791597275063395500e-03,-6.734807789325714111e-02,-4.012196138501167297e-02,1.172208264470100403e-01,-1.255212351679801941e-02,9.924378246068954468e-02,1.374842077493667603e-01,-2.168177068233489990e-02,-1.024246886372566223e-01,2.345776185393333435e-02,-1.053399294614791870e-01,-1.071062013506889343e-01,-8.878701180219650269e-02,3.269890695810317993e-02,-1.003542765974998474e-01,2.484383061528205872e-02,-4.972121119499206543e-02,-9.691463410854339600e-02,5.775906611233949661e-03,-1.127312332391738892e-01,-2.369751222431659698e-02,6.239550188183784485e-02,-2.272858098149299622e-02,1.113240327686071396e-02,-5.532747879624366760e-02,1.763164065778255463e-02,4.914684221148490906e-02,7.740498334169387817e-02,-2.752562798559665680e-02
8.031633682548999786e-03,-1.476400941610336304e-01,-2.367846667766571045e-03,-1.054606214165687561e-01,-1.744824089109897614e-02,-6.181681528687477112e-02,2.729753591120243073e-02,4.148543253540992737e-02,-5.039566755294799805e-02,-6.076213344931602478e-02,-4.556614533066749573e-02,1.713897436857223511e-01,-3.900404646992683411e-02,-3.734215721487998962e-02,-7.073578238487243652e-02,6.426465511322021484e-02,-7.530198991298675537e-02,3.936613723635673523e-02,6.473550200462341309e-02,1.468805074691772461e-01,9.853731840848922729e-02,1.822117865085601807e-01,5.103792250156402588e-02,-7.476659864187240601e-02,4.837815649807453156e-04,9.843692928552627563e-02,1.772792823612689972e-02,1.591572612524032593e-01,-9.175948798656463623e-02,-1.646631807088851929e-01,-3.858770802617073059e-02,-4.512079432606697083e-02,-7.308566570281982422e-02,-5.900335684418678284e-02,-9.479253739118576050e-02,-2.109332242980599403e-03,4.977149143815040588e-02,8.599378913640975952e-02,-6.166544929146766663e-02,4.196389764547348022e-02,7.167059183120727539e-02,9.029787033796310425e-02,-8.533526211977005005e-02,-2.432560361921787262e-02,1.584525257349014282e-01,-1.170798763632774353e-01,6.044034287333488464e-02,-5.740175954997539520e-03,2.939839102327823639e-02,-1.160501614212989807e-01,4.644503816962242126e-02,1.833850890398025513e-01,-1.657633185386657715e-01,1.696296185255050659e-01,-7.945615053176879883e-02,7.164422422647476196e-02,-6.910892203450202942e-03,-1.064200997352600098e-01,7.842531055212020874e-02,1.221681907773017883e-01,1.081616356968879700e-01,-2.305705659091472626e-02,1.297505758702754974e-02,4.776896908879280090e-02,-4.839487746357917786e-02,1.249543800950050354e-01,8.702151477336883545e-02,-1.315383762121200562e-01,7.813496887683868408e-02,1.896476256661117077e-03,-1.667896658182144165e-01,-5.667706206440925598e-02,4.749795794486999512e-02,5.598320439457893372e-02,-5.073454976081848145e-02,1.826487365178763866e-03,1.266238396055996418e-03,1.061949506402015686e-01,-6.093104183673858643e-02,-8.972267061471939087e-02,1.350401085801422596e-03,-1.179415285587310791e-01,-2.110388688743114471e-02,5.489990860223770142e-02,-8.537140488624572754e-02,6.828442215919494629e-02,-5.013936012983322144e-02,-1.796044856309890747e-01,-3.983983770012855530e-02,7.882874459028244019e-02,-1.708953827619552612e-01,-7.839481532573699951e-02,1.306333839893341064e-01,5.371974036097526550e-02,2.354918234050273895e-02,1.983123458921909332e-02,6.213004514575004578e-02,1.262728422880172729e-01,-1.515372842550277710e-01,1.636661440134048462e-01,-7.465541362762451172e-02,-1.483426690101623535e-01,1.236723363399505615e-01,-2.421631291508674622e-02,9.734334424138069153e-03,1.088517978787422180e-01,-4.466066882014274597e-02,-3.190222010016441345e-02,-8.849824219942092896e-02,-9.387151896953582764e-02,1.806510495953261852e-03,3.673551604151725769e-02,-1.475937217473983765e-01,-6.242393329739570618e-02,-8.920621871948242188e-02,3.004866652190685272e-02,9.974281489849090576e-02,-8.331880718469619751e-02,-1.861501485109329224e-01,1.082519963383674622e-01,4.797172173857688904e-02,5.729625374078750610e-02,-4.976699873805046082e-02,2.985223941504955292e-02,4.042781423777341843e-03,9.360790252685546875e-02,5.640896409749984741e-02,1.004753261804580688e-01
3.296439647674560547e-01,-6.358791887760162354e-02,-1.207154542207717896e-01,-1.766316592693328857e-01,-8.643769472837448120e-02,-7.057075202465057373e-02,2.978759258985519409e-02,-4.442875832319259644e-02,-2.093018740415573120e-01,2.802171744406223297e-02,5.590776447206735611e-03,-3.187343478202819824e-02,1.660171300172805786e-01,-4.822022467851638794e-02,-1.262830346822738647e-01,3.915869593620300293e-01,6.074065715074539185e-02,-2.253354154527187347e-02,4.689661860466003418e-01,4.658411443233489990e-01,-1.075639128684997559e-01,-1.203188225626945496e-01,4.330258965492248535e-01,1.058129011653363705e-03,3.058923780918121338e-01,-1.046332418918609619e-01,-2.793776802718639374e-02,-6.401388347148895264e-02,-1.362778097391128540e-01,-2.239907719194889069e-02,-2.174570262432098389e-01,-1.531652063131332397e-01,9.878204762935638428e-02,-7.281014323234558105e-02,-3.166292980313301086e-02,-4.856443032622337341e-02,-5.413715913891792297e-02,-1.861723065376281738e-01,-4.019127041101455688e-02,3.155132234096527100e-01,-1.667684875428676605e-02,-1.020228210836648941e-02,-5.944981798529624939e-02,-6.762068718671798706e-02,-9.512795507907867432e-02,5.172172188758850098e-01,-2.228601872920989990e-01,-1.607230007648468018e-01,-9.014490991830825806e-02,-9.838720411062240601e-02,3.069492429494857788e-02,-9.661971777677536011e-02,-1.301312595605850220e-01,-2.318367958068847656e-01,-7.124932110309600830e-02,5.889439582824707031e-02,-2.481670863926410675e-02,2.067437916994094849e-01,-6.161962077021598816e-02,-6.752903759479522705e-02,-9.268619120121002197e-02,-1.232409477233886719e-01,-1.024620532989501953e-01,-1.746964640915393829e-02,-2.470327727496623993e-02,-2.477302588522434235e-02,-3.597946465015411377e-02,-4.622291773557662964e-02,-1.367418169975280762e-01,-2.033273875713348389e-02,-1.258486062288284302e-01,-1.599446088075637817e-01,-3.878043964505195618e-02,-2.058282047510147095e-01,-1.234394013881683350e-01,-1.439865957945585251e-02,-1.643580496311187744e-01,-7.621984183788299561e-02,-8.294636011123657227e-02,-5.534213408827781677e-02,-2.537416527047753334e-03,-9.138457477092742920e-02,-1.670039631426334381e-02,-6.012950092554092407e-03,-5.293625965714454651e-02,-4.044699668884277344e-02,-1.015443801879882812e-01,4.096340760588645935e-02,-4.157371819019317627e-03,-1.178809627890586853e-01,2.709814906120300293e-01,-1.112296506762504578e-01,-1.248678863048553467e-01,-6.961157917976379395e-02,-2.871578186750411987e-02,-1.414120644330978394e-01,2.483956068754196167e-01,3.755797743797302246e-01,2.158902883529663086e-01,6.644356064498424530e-03,-4.384603351354598999e-02,-1.394765079021453857e-01,-1.693553328514099121e-01,-1.583216488361358643e-01,-1.264602243900299072e-01,3.673825040459632874e-02,-2.267737872898578644e-02,-2.661197483539581299e-01,-4.337118938565254211e-02,1.200754120945930481e-01,-1.294486671686172485e-01,-5.558180436491966248e-02,7.787787914276123047e-02,-1.371507160365581512e-02,-1.457436680793762207e-01,-1.243235990405082703e-01,3.291380107402801514e-01,-9.539715945720672607e-02,-6.544413417577743530e-02,-1.031332537531852722e-01,1.687568239867687225e-02,2.380208112299442291e-02,2.581758201122283936e-01,-8.243736810982227325e-03,-7.490642368793487549e-02,2.006621286273002625e-02,-1.086037456989288330e-01,-1.049472391605377197e-01
