4.839115589857101440e-02,5.268582701683044434e-02,1.131819561123847961e-01,4.743801429867744446e-02,-8.093444257974624634e-02,-9.335713833570480347e-02,1.880547218024730682e-02,-4.530391842126846313e-02,9.981991350650787354e-02,1.745436936616897583e-01,1.179324090480804443e-01,-7.185342162847518921e-02,9.336686134338378906e-02,-3.614620864391326904e-02,3.540788777172565460e-03,1.709961146116256714e-02,-1.242067664861679077e-01,6.388487666845321655e-02,5.682852119207382202e-03,-1.394512504339218140e-01,1.238565221428871155e-01,1.001512631773948669e-01,-5.752348154783248901e-02,-1.016441546380519867e-02,-4.875042289495468140e-02,-1.141625940799713135e-01,-7.853764109313488007e-03,6.517250090837478638e-02,6.631895154714584351e-02,-7.157566398382186890e-02,7.229736447334289551e-02,2.155323699116706848e-02,1.031376719474792480e-01,2.348396927118301392e-02,9.320507198572158813e-02,4.998163878917694092e-02,3.955247625708580017e-02,-3.692239895462989807e-02,1.391616184264421463e-02,-8.791097998619079590e-02,5.022002756595611572e-02,-3.528430312871932983e-02,-4.981691017746925354e-02,3.856306150555610657e-02,4.719107411801815033e-03,-2.207493409514427185e-03,4.812319204211235046e-02,1.103662233799695969e-02,3.218074887990951538e-02,-1.310675889253616333e-01,-9.668488055467605591e-02,2.474307641386985779e-02,5.591234192252159119e-03,-1.479222625494003296e-01,-6.935086101293563843e-02,8.511086553335189819e-02,1.313726007938385010e-01,-6.026707217097282410e-02,-3.914399445056915283e-02,1.077773869037628174e-01,-2.651092782616615295e-02,1.183888018131256104e-01,-1.353283375501632690e-01,7.999742031097412109e-02,-3.170759975910186768e-02,4.909335449337959290e-02,3.226144239306449890e-02,-1.601230502128601074e-01,1.345691978931427002e-01,2.168869674205780029e-01,4.215243458747863770e-02,-8.316563814878463745e-02,-1.272814869880676270e-01,-6.767056882381439209e-02,2.806905098259449005e-02,-7.658100128173828125e-02,9.568386524915695190e-02,1.390902251005172729e-01,1.960458792746067047e-02,-1.516700349748134613e-02,-6.000514328479766846e-02,3.825449198484420776e-02,7.053706049919128418e-02,-2.745518693700432777e-03,-5.517385900020599365e-02,3.974101692438125610e-02,-6.814822088927030563e-03,-5.664540827274322510e-02,4.622966051101684570e-03,-9.945969283580780029e-02,2.869788371026515961e-02,-1.285967379808425903e-01,3.561772033572196960e-02,-1.604036614298820496e-02,1.077534407377243042e-01,-8.781636133790016174e-03,-4.501568898558616638e-02,1.599076241254806519e-01,-4.266614094376564026e-02,-6.309720128774642944e-02,-1.252770773135125637e-03,2.244443818926811218e-02,1.665518805384635925e-02,-1.515974104404449463e-02,-8.284690976142883301e-02,9.208014234900474548e-03,1.376856714487075806e-01,-2.548140659928321838e-02,-1.139789354056119919e-02,-5.293279141187667847e-02,6.767798960208892822e-02,-3.038438782095909119e-02,-4.665930196642875671e-02,2.332945726811885834e-02,3.689473867416381836e-02,1.668739616870880127e-01,1.433687191456556320e-02,-3.069536946713924408e-02,2.311143465340137482e-02,6.027982383966445923e-02,9.999663382768630981e-02,-4.698866233229637146e-02,-4.816721379756927490e-02,8.198711276054382324e-02,5.141329392790794373e-02,-6.169393658638000488e-03,2.120621502399444580e-05,-6.889078766107559204e-02
-5.096672475337982178e-02,-6.828953325748443604e-02,7.262554764747619629e-02,2.064179033041000366e-01,2.141870558261871338e-01,6.962977349758148193e-02,-2.164212055504322052e-02,1.160550639033317566e-01,1.258568912744522095e-01,1.458158046007156372e-01,-4.383788257837295532e-02,3.451780974864959717e-02,1.967854239046573639e-02,4.112842679023742676e-02,2.820453792810440063e-02,-9.029965102672576904e-02,-1.003582626581192017e-01,1.077114567160606384e-01,-1.850232854485511780e-02,-7.091536372900009155e-02,-4.325305297970771790e-02,-1.433577239513397217e-01,1.146054491400718689e-01,6.537868175655603409e-03,1.401759833097457886e-01,1.247392594814300537e-01,-3.929493203759193420e-02,1.981270164251327515e-01,-3.292914479970932007e-02,2.611615955829620361e-01,5.674673244357109070e-02,6.129110231995582581e-02,-6.954152882099151611e-02,1.830434799194335938e-01,-5.998681858181953430e-02,7.143411040306091309e-02,-1.613639667630195618e-02,6.188375875353813171e-03,-1.666447967290878296e-01,4.260449111461639404e-02,-1.682733185589313507e-02,6.274196505546569824e-02,-3.460443019866943359e-02,1.435147076845169067e-01,2.111656069755554199e-01,1.243581250309944153e-01,-6.577230989933013916e-02,6.966573745012283325e-02,5.317511036992073059e-02,-1.916305907070636749e-02,1.087242215871810913e-01,3.929155692458152771e-02,8.643466234207153320e-02,-7.505866885185241699e-02,-3.945499658584594727e-03,2.138580083847045898e-01,-8.699119091033935547e-02,-6.715009221807122231e-04,2.170404940843582153e-01,-1.734916237182915211e-03,-4.081093892455101013e-02,4.688706248998641968e-03,1.624344438314437866e-01,2.209928780794143677e-01,1.197136491537094116e-01,1.066408082842826843e-01,-3.525720909237861633e-02,-7.439935207366943359e-02,-3.076593624427914619e-03,-2.269356101751327515e-01,-1.142074316740036011e-01,3.077401220798492432e-02,-4.139344766736030579e-02,-2.354279011487960815e-01,8.948850631713867188e-02,6.837048381567001343e-02,2.397950440645217896e-01,7.872857898473739624e-02,-4.766346141695976257e-02,1.956840604543685913e-01,-4.032813385128974915e-02,1.976783722639083862e-01,-5.928227677941322327e-02,-1.297275125980377197e-01,2.008558958768844604e-01,5.966933816671371460e-02,-4.990400373935699463e-02,-5.443486571311950684e-02,-3.197242040187120438e-03,7.296521216630935669e-02,1.747719943523406982e-01,4.718804266303777695e-04,-1.217997819185256958e-02,7.470869272947311401e-02,3.971101716160774231e-02,2.915852330625057220e-02,1.070723682641983032e-01,4.071795940399169922e-02,1.066478788852691650e-01,1.364923715591430664e-01,1.363531053066253662e-01,-7.289153337478637695e-02,1.342369057238101959e-02,-2.259084582328796387e-02,3.007884509861469269e-02,-4.818508401513099670e-02,-5.043726880103349686e-03,7.951130717992782593e-02,-3.601475432515144348e-02,-4.004336148500442505e-02,2.482255101203918457e-01,-2.585920318961143494e-02,1.639596186578273773e-02,2.222733199596405029e-01,3.208559378981590271e-02,-2.179214172065258026e-02,4.524216987192630768e-03,-6.819374859333038330e-02,9.231778234243392944e-02,-7.476896047592163086e-02,-4.954855889081954956e-02,9.019651263952255249e-02,5.218340829014778137e-02,1.569909900426864624e-01,-1.647707372903823853e-01,-9.793268144130706787e-02,3.927583806216716766e-03,-6.731914728879928589e-02
-9.163034707307815552e-02,-9.243636392056941986e-03,-1.097457185387611389e-01,1.157542094588279724e-01,-9.651655703783035278e-02,4.172612726688385010e-02,-4.125522449612617493e-02,1.318494603037834167e-02,1.497160643339157104e-02,-1.479252725839614868e-01,2.158118225634098053e-02,-9.137713350355625153e-03,-8.430597931146621704e-02,-6.085997447371482849e-02,5.873164162039756775e-02,7.103766500949859619e-02,-1.899824738502502441e-01,-4.652883112430572510e-02,-1.263266354799270630e-01,-2.791593410074710846e-02,3.890040889382362366e-02,-3.090691566467285156e-02,8.331684768199920654e-02,-8.417303115129470825e-02,-1.784740574657917023e-02,5.732921883463859558e-02,2.142287231981754303e-02,4.767593927681446075e-03,-2.123863399028778076e-01,-7.487367838621139526e-02,9.915650635957717896e-02,-8.835151791572570801e-03,-6.710384786128997803e-02,1.214555799961090088e-01,4.658133536577224731e-02,2.232615649700164795e-02,-8.123534731566905975e-03,1.847637444734573364e-02,-6.853618472814559937e-02,-1.043996363878250122e-01,-1.198898702859878540e-01,1.177928075194358826e-01,-1.223556399345397949e-01,2.755872160196304321e-02,1.350711286067962646e-01,5.646166391670703888e-03,7.722845673561096191e-02,8.068078011274337769e-02,4.883921891450881958e-02,-1.657993793487548828e-01,1.223674938082695007e-01,7.069750130176544189e-02,-1.566393487155437469e-02,1.280696690082550049e-01,-1.826103925704956055e-01,-9.109561890363693237e-02,-1.168693006038665771e-01,2.360597550868988037e-01,-9.664835035800933838e-02,8.657151460647583008e-02,1.264625340700149536e-01,-3.798141842707991600e-03,5.009244754910469055e-02,8.701460063457489014e-02,-3.305059298872947693e-02,6.146461144089698792e-02,6.955397874116897583e-02,-5.326326563954353333e-02,-1.489351782947778702e-02,1.241592466831207275e-01,-3.124525025486946106e-02,-4.467328637838363647e-02,4.344395548105239868e-02,8.020322024822235107e-02,4.866037145256996155e-02,-2.725658752024173737e-02,3.542422782629728317e-03,-1.879594847559928894e-02,5.880897492170333862e-02,-3.270900808274745941e-03,-3.391230851411819458e-02,-5.869239196181297302e-02,-3.173903003334999084e-02,-4.250290989875793457e-02,-3.041469864547252655e-02,8.126586675643920898e-02,1.079956516623497009e-01,-9.969142079353332520e-02,5.790719389915466309e-02,-5.694057419896125793e-02,3.736656904220581055e-02,6.669668108224868774e-02,-2.255384344607591629e-03,1.082548219710588455e-02,9.451011568307876587e-02,-1.098118498921394348e-01,4.379838705062866211e-02,-7.814478129148483276e-02,-9.087381511926651001e-02,3.675649315118789673e-02,1.203719154000282288e-01,6.557230954058468342e-04,-6.777754519134759903e-03,-9.423249959945678711e-02,-7.838346646167337894e-04,-1.222056448459625244e-01,2.081223577260971069e-01,-9.352379292249679565e-02,-4.482549149543046951e-03,-1.967669464647769928e-03,-6.089113652706146240e-02,1.717295646667480469e-01,-1.995600946247577667e-02,-3.006557188928127289e-02,-2.125416994094848633e-01,-1.493838243186473846e-02,-8.143270015716552734e-02,7.264421135187149048e-02,1.598358713090419769e-02,1.442795991897583008e-01,3.313783183693885803e-02,3.867023065686225891e-02,-5.894212052226066589e-02,-1.825875788927078247e-02,1.037370041012763977e-01,-7.132834196090698242e-02,-2.043279260396957397e-02,1.475465744733810425e-01
-6.113394349813461304e-02,-4.022639393806457520e-01,-2.914362251758575439e-01,-1.088783368468284607e-01,1.015217229723930359e-01,-2.735374569892883301e-01,-2.480072975158691406e-01,-9.298108518123626709e-02,1.235290318727493286e-01,1.634901165962219238e-01,5.605764389038085938e-01,1.556603759527206421e-01,2.110430896282196045e-01,1.742730885744094849e-01,-1.172661706805229187e-01,1.808865815401077271e-01,-1.008088365197181702e-01,4.927612841129302979e-02,-1.101341005414724350e-02,-1.194967925548553467e-01,8.145983330905437469e-03,2.776748128235340118e-02,1.108236312866210938e-01,5.938047915697097778e-02,1.146745607256889343e-01,1.895629242062568665e-02,9.559436887502670288e-02,6.546395272016525269e-02,-1.824787259101867676e-01,-6.131592672318220139e-04,-8.542894572019577026e-02,-2.692685835063457489e-02,1.836497336626052856e-02,5.803858488798141479e-02,2.965117096900939941e-01,-2.001546025276184082e-01,-1.658637970685958862e-01,2.529390454292297363e-01,7.283294200897216797e-02,-1.941931247711181641e-01,-3.845812380313873291e-02,-1.157041192054748535e-01,-1.847042590379714966e-01,2.354923486709594727e-01,-2.143872231245040894e-01,-3.473359346389770508e-01,-1.299822926521301270e-01,4.808639176189899445e-03,4.936033487319946289e-02,-1.087237298488616943e-01,-2.041652612388134003e-02,1.185073330998420715e-01,-1.151170283555984497e-01,3.437471017241477966e-02,1.816575378179550171e-01,-3.666572272777557373e-01,-4.688047990202903748e-02,8.949995785951614380e-02,1.974639855325222015e-02,4.360526204109191895e-01,-7.279343903064727783e-02,-3.261955976486206055e-01,-2.071787565946578979e-01,-2.254806160926818848e-01,-2.059412002563476562e-01,-1.114653944969177246e-01,-2.438004910945892334e-01,1.945261657238006592e-01,3.463717922568321228e-02,3.739710897207260132e-03,8.684766292572021484e-02,4.896656610071659088e-03,-2.393207997083663940e-01,4.287399724125862122e-02,-1.599077135324478149e-01,-1.294573843479156494e-01,-2.545542716979980469e-01,-3.719911575317382812e-01,-1.522547844797372818e-02,2.693259902298450470e-02,-3.691293299198150635e-02,1.274361461400985718e-02,-2.354806754738092422e-03,4.480337500572204590e-01,-2.415558099746704102e-01,-3.028374910354614258e-01,-2.607598602771759033e-01,-1.771209836006164551e-01,2.311879396438598633e-01,-1.088497564196586609e-01,-1.496000140905380249e-01,-2.626023590564727783e-01,-3.713292479515075684e-01,1.280326545238494873e-01,-1.504672467708587646e-01,1.082550212740898132e-01,1.598399132490158081e-01,-5.092947185039520264e-02,-1.301449984312057495e-01,-2.223336696624755859e-01,-1.328223645687103271e-01,-1.100479587912559509e-01,-4.101516306400299072e-02,-1.567792892456054688e-01,7.692082226276397705e-02,1.195917800068855286e-01,6.706161051988601685e-02,-1.658678203821182251e-01,-2.182755805552005768e-02,8.259521797299385071e-03,2.148293107748031616e-01,-1.290813833475112915e-01,4.284410178661346436e-01,-2.058862298727035522e-01,1.981735378503799438e-01,-1.788016408681869507e-01,1.223014965653419495e-01,9.428495168685913086e-02,-2.475330829620361328e-01,-1.920375078916549683e-01,7.693244516849517822e-02,5.685595050454139709e-02,-1.941110491752624512e-01,-1.140874624252319336e-01,-3.493027091026306152e-01,-2.624449729919433594e-01,-2.949591577053070068e-01,-1.350014209747314453e-01
-1.420458406209945679e-01,-1.227754056453704834e-01,-9.307855740189552307e-03,-1.369304209947586060e-01,6.329704076051712036e-02,-3.018055111169815063e-02,4.104675725102424622e-02,-4.842908680438995361e-02,-3.402618318796157837e-02,1.204374134540557861e-01,-1.679880544543266296e-02,1.861285120248794556e-01,2.235933393239974976e-02,3.182654269039630890e-03,-2.399399690330028534e-02,-8.450110256671905518e-02,9.840960055589675903e-02,-3.452681005001068115e-02,8.575618267059326172e-02,-2.401099540293216705e-02,3.557217121124267578e-02,-6.312105059623718262e-02,4.206984117627143860e-02,9.721353650093078613e-03,3.584403079003095627e-03,-1.003218814730644226e-01,-8.086808025836944580e-02,4.965365864336490631e-03,4.082089755684137344e-03,5.117795988917350769e-02,-6.105701625347137451e-02,7.545045018196105957e-02,5.144045874476432800e-02,-1.668793708086013794e-01,4.515843838453292847e-02,5.587181821465492249e-02,1.826041750609874725e-02,-1.444160789251327515e-01,5.000997334718704224e-02,-6.577169150114059448e-02,6.509176641702651978e-02,1.367281377315521240e-01,1.011028736829757690e-01,-7.533017080277204514e-03,-6.007687747478485107e-02,-3.213296877220273018e-03,9.778450429439544678e-02,-1.582465022802352905e-01,9.742203354835510254e-02,1.330246180295944214e-01,8.850557357072830200e-02,-7.183631509542465210e-02,3.693444281816482544e-02,-9.436513483524322510e-02,9.729449450969696045e-02,-7.644099742174148560e-02,8.610059320926666260e-02,-6.718257069587707520e-02,-3.564370423555374146e-02,8.594273775815963745e-02,-4.560888186097145081e-02,4.459640756249427795e-02,-1.093239039182662964e-01,-3.816652297973632812e-02,-1.806937344372272491e-02,-4.093402996659278870e-02,5.328037589788436890e-02,5.758442357182502747e-02,-1.228485032916069031e-01,-1.484107971191406250e-01,6.040640175342559814e-02,-1.917063891887664795e-01,-7.942897081375122070e-02,-5.919396877288818359e-03,5.189227312803268433e-02,6.711531430482864380e-02,3.201363980770111084e-02,-1.994357444345951080e-02,7.575225085020065308e-02,1.269642356783151627e-02,-2.109643258154392242e-02,-1.785226166248321533e-01,-6.819585710763931274e-02,-6.386027205735445023e-03,6.124405562877655029e-02,6.339652836322784424e-02,-4.900820553302764893e-02,6.804575771093368530e-02,4.309040307998657227e-02,-9.242370724678039551e-02,8.824510872364044189e-02,-1.597844064235687256e-01,-5.355440825223922729e-02,4.705091565847396851e-02,7.902399450540542603e-02,9.768573939800262451e-02,2.023768797516822815e-02,-2.691212669014930725e-02,-5.713623389601707458e-02,1.225162297487258911e-01,-1.307535469532012939e-01,1.560421437025070190e-01,-5.387489870190620422e-02,-2.012619562447071075e-02,-6.259667873382568359e-02,-1.841739751398563385e-02,3.875967115163803101e-02,3.593234717845916748e-02,1.000835075974464417e-01,7.167674601078033447e-02,8.950102329254150391e-02,1.586668342351913452e-01,-1.696689724922180176e-01,1.396993398666381836e-01,1.028309389948844910e-01,-4.694831371307373047e-02,6.329491734504699707e-02,-4.562743008136749268e-03,-8.758911490440368652e-02,1.225224360823631287e-01,8.664241433143615723e-02,-5.763668566942214966e-03,-8.329354226589202881e-02,-5.346114933490753174e-02,1.973809599876403809e-01,-2.091445587575435638e-02,-3.542004153132438660e-02,-4.363697767257690430e-02
-1.381891220808029175e-01,-6.235096976161003113e-02,-2.363408915698528290e-02,6.588236987590789795e-02,1.702600717544555664e-02,1.216762736439704895e-01,-1.823836565017700195e-01,-3.105061128735542297e-02,4.700500145554542542e-02,-4.484725743532180786e-02,8.328225463628768921e-02,-7.069341838359832764e-02,9.770546853542327881e-02,-2.102309092879295349e-02,3.645497933030128479e-02,9.810996800661087036e-02,-3.674682974815368652e-02,-1.416362076997756958e-01,1.518711596727371216e-01,3.056002315133810043e-03,2.761222608387470245e-02,-1.867735944688320160e-02,-1.949730664491653442e-01,-4.802307114005088806e-02,3.097576834261417389e-02,-2.640377730131149292e-02,2.906033024191856384e-02,5.385281518101692200e-02,-1.237096339464187622e-01,-1.230949088931083679e-01,-4.316026344895362854e-02,5.671972781419754028e-02,5.303767323493957520e-02,3.723132610321044922e-02,5.593881011009216309e-02,-1.212236210703849792e-01,-8.996925316751003265e-03,1.132791340351104736e-01,3.977470844984054565e-02,-5.634513217955827713e-03,-4.390403162688016891e-03,8.360902965068817139e-02,-3.749124333262443542e-02,-4.724859818816184998e-02,1.287554204463958740e-01,-1.566764339804649353e-02,6.364347040653228760e-02,-5.239154025912284851e-02,6.927486509084701538e-02,-8.218730241060256958e-02,-4.606847092509269714e-02,1.011826004832983017e-02,3.412339091300964355e-02,5.628829076886177063e-02,-7.154893595725297928e-03,-6.707409024238586426e-02,-3.062440454959869385e-02,5.226617678999900818e-03,-5.868953466415405273e-02,-2.385552972555160522e-03,8.082811534404754639e-02,-1.476129144430160522e-01,5.716564506292343140e-02,6.875938922166824341e-02,-1.384961307048797607e-01,-1.400198340415954590e-01,-1.344473939388990402e-02,1.464916672557592392e-02,-1.464687734842300415e-01,2.422343567013740540e-02,9.245555847883224487e-02,-5.136782303452491760e-02,5.059202387928962708e-02,-2.475733458995819092e-01,-1.065881624817848206e-01,-1.182814836502075195e-01,-9.268404543399810791e-02,-3.155849128961563110e-02,-1.945973373949527740e-02,-3.684051334857940674e-02,-1.293194890022277832e-01,5.352631956338882446e-02,-9.355128742754459381e-03,-6.002676486968994141e-02,-6.041292101144790649e-02,8.314692974090576172e-02,-1.313689500093460083e-01,3.752180933952331543e-02,-9.145047515630722046e-02,-4.785832762718200684e-02,-2.019879966974258423e-02,-5.020557716488838196e-02,3.015341004356741905e-03,1.036586314439773560e-01,5.042665824294090271e-02,-2.845255658030509949e-02,-9.899906069040298462e-02,-6.890785694122314453e-02,1.042481586337089539e-01,-6.908097863197326660e-02,1.455309838056564331e-01,-3.914212062954902649e-02,-6.827398389577865601e-02,-5.862197373062372208e-03,-1.290000528097152710e-01,-6.919511407613754272e-02,-8.513581939041614532e-03,5.399273335933685303e-02,2.940392866730690002e-02,-7.687687128782272339e-02,-1.227904483675956726e-01,-3.986214753240346909e-03,-1.354339420795440674e-01,-1.418418884277343750e-01,8.784437924623489380e-02,5.730036273598670959e-02,-1.059256419539451599e-01,-1.826467923820018768e-02,-7.675199955701828003e-02,-9.136629849672317505e-02,2.312921285629272461e-01,-4.677908495068550110e-02,-2.770481072366237640e-02,-2.542860247194766998e-02,-1.302725374698638916e-01,1.285034418106079102e-01,9.179429709911346436e-02,-7.224942743778228760e-02
-8.612965047359466553e-02,4.485318437218666077e-02,-4.772486910223960876e-02,9.925843216478824615e-03,3.036266379058361053e-02,-1.754388362169265747e-01,3.830954432487487793e-02,-1.354455649852752686e-01,6.767897307872772217e-02,-4.210455715656280518e-02,5.295461043715476990e-02,-7.573994249105453491e-02,5.965639278292655945e-02,-5.301762372255325317e-02,8.325500786304473877e-02,-4.946334660053253174e-02,-1.125317513942718506e-01,-1.141646504402160645e-01,1.043336391448974609e-01,5.713395029306411743e-02,6.196481175720691681e-03,-1.441461034119129181e-02,-1.236857324838638306e-01,6.712578982114791870e-02,5.625443160533905029e-02,-3.397283703088760376e-02,1.521378755569458008e-02,2.225890755653381348e-02,-4.016178660094738007e-03,-3.615645691752433777e-02,-3.912909701466560364e-02,2.142119407653808594e-02,-1.039198562502861023e-01,4.591588303446769714e-02,2.187608927488327026e-02,1.874165609478950500e-02,1.269974708557128906e-01,-1.125629544258117676e-01,1.779427528381347656e-01,1.224158145487308502e-02,-2.372173778712749481e-02,1.695783436298370361e-01,2.558023901656270027e-03,-5.654809251427650452e-02,-1.770970225334167480e-01,-1.520986407995223999e-01,-6.258287280797958374e-02,-2.510457113385200500e-02,1.567524075508117676e-01,-1.587004982866346836e-03,4.637650772929191589e-02,2.000015974044799805e-02,-1.240702439099550247e-02,-7.039913535118103027e-02,3.031510487198829651e-02,-7.494312524795532227e-02,-1.453337222337722778e-01,1.135400012135505676e-01,1.414650976657867432e-01,-3.760152310132980347e-02,9.590607369318604469e-04,-4.393215477466583252e-02,-2.233953587710857391e-02,1.355998665094375610e-01,5.923246592283248901e-02,1.879202388226985931e-02,-5.715650692582130432e-02,-1.571700870990753174e-01,1.559405028820037842e-01,9.236129373311996460e-02,-8.323176950216293335e-02,1.882778406143188477e-01,-9.982043504714965820e-02,1.715799560770392418e-03,1.617394685745239258e-01,-1.315234694629907608e-02,6.548374891281127930e-02,-7.506849709898233414e-03,1.436878293752670288e-01,-9.152270108461380005e-02,3.112584725022315979e-02,1.606527948752045631e-04,4.470610618591308594e-02,3.604222461581230164e-02,-6.343719363212585449e-02,-1.490255892276763916e-01,-1.257979571819305420e-01,4.442884400486946106e-02,-1.424614489078521729e-01,-2.090620994567871094e-02,3.964202105998992920e-02,-2.906824275851249695e-02,1.317146420478820801e-02,-4.488658532500267029e-02,4.547914117574691772e-02,2.801206894218921661e-02,2.467379719018936157e-02,-1.294692307710647583e-01,2.669556811451911926e-02,7.905761152505874634e-02,1.528894305229187012e-01,-1.497847586870193481e-02,-1.219431608915328979e-01,9.052471071481704712e-02,1.354494318366050720e-02,9.768152981996536255e-02,8.947731927037239075e-03,-1.436575204133987427e-01,-6.446298956871032715e-02,-1.892813597805798054e-03,-1.645982116460800171e-01,-1.144455447793006897e-01,-2.245080843567848206e-02,-1.931183189153671265e-01,1.189490184187889099e-01,1.190467998385429382e-01,-1.276764869689941406e-01,-8.971154689788818359e-02,-8.324798941612243652e-02,-5.646373331546783447e-02,7.616156339645385742e-02,2.804293669760227203e-02,1.017804667353630066e-01,-1.320163458585739136e-01,5.366233736276626587e-02,-1.531458739191293716e-02,1.946281827986240387e-02,1.638406664133071899e-01
1.722272783517837524e-01,1.483438536524772644e-02,-9.234998142346739769e-04,-4.797705635428428650e-02,1.512817572802305222e-02,5.340475589036941528e-02,-1.830402910709381104e-01,3.148570656776428223e-02,-2.224019356071949005e-02,-4.311865568161010742e-02,-1.387633234262466431e-01,-2.164368517696857452e-02,2.045177817344665527e-01,7.811163365840911865e-02,1.211457699537277222e-02,-1.896270662546157837e-01,-7.950926199555397034e-03,-1.347340494394302368e-01,-9.000178426504135132e-02,-3.412289172410964966e-02,-8.275259286165237427e-03,7.684449106454849243e-02,-4.942890256643295288e-02,8.184942416846752167e-03,-9.566017985343933105e-02,-4.881212115287780762e-02,-1.371257676510140300e-04,-9.137161076068878174e-02,5.376220867037773132e-02,-2.105055842548608780e-03,-7.073765993118286133e-02,5.998866632580757141e-02,6.941156089305877686e-02,-6.666828878223896027e-03,5.546583235263824463e-02,-3.330393135547637939e-02,-1.498769819736480713e-01,-1.498222798109054565e-01,3.894528746604919434e-02,-2.836023829877376556e-02,-3.913834691047668457e-02,-1.407566666603088379e-01,5.453764647245407104e-02,7.392742484807968140e-02,9.335968643426895142e-02,-1.102432683110237122e-01,-7.427790015935897827e-02,-3.981070965528488159e-02,1.260590255260467529e-01,1.306413710117340088e-01,-4.044507816433906555e-02,3.200382366776466370e-02,2.167287468910217285e-02,1.853191852569580078e-01,4.476086050271987915e-02,-7.806418091058731079e-02,6.244940310716629028e-02,3.740408271551132202e-02,-1.097284629940986633e-01,-3.401003032922744751e-02,3.012872301042079926e-02,1.446741353720426559e-02,-1.152065843343734741e-01,-1.485742479562759399e-01,5.334198847413063049e-02,-5.620280280709266663e-03,2.247168123722076416e-02,-1.653894223272800446e-02,1.616295129060745239e-01,-7.017239928245544434e-03,5.555662512779235840e-02,3.011902794241905212e-02,1.080956831574440002e-01,-1.264244467020034790e-01,2.115157991647720337e-01,-3.547701984643936157e-02,-1.468699425458908081e-02,3.222469240427017212e-03,4.497799649834632874e-02,-2.282156608998775482e-02,4.984580446034669876e-03,2.060853689908981323e-01,-1.162985265254974365e-01,1.273536239750683308e-03,1.323858052492141724e-01,-1.034538745880126953e-01,3.431419318076223135e-04,2.755399234592914581e-02,7.240990549325942993e-02,3.579833777621388435e-03,1.015492156147956848e-01,-4.126567393541336060e-02,-1.044871169142425060e-03,-2.907659672200679779e-02,-1.733224242925643921e-01,4.149904102087020874e-02,1.585961133241653442e-02,-4.443907737731933594e-02,8.213149756193161011e-02,8.880437910556793213e-02,2.036957293748855591e-01,8.638419210910797119e-02,-3.648257628083229065e-02,-7.575098425149917603e-02,7.728582620620727539e-02,-3.018742427229881287e-02,1.857359111309051514e-01,2.798528783023357391e-02,5.453267693519592285e-02,1.173925250768661499e-01,7.836698740720748901e-02,1.348644774407148361e-02,-5.562700703740119934e-02,-5.439316108822822571e-02,1.224707346409559250e-02,-1.102130487561225891e-01,1.540924459695816040e-01,-6.728546693921089172e-03,5.280010402202606201e-02,1.685027480125427246e-01,-5.296208430081605911e-03,-9.951740503311157227e-03,-7.480989396572113037e-02,-1.734340339899063110e-01,2.109550312161445618e-02,-2.540946006774902344e-02,9.932807087898254395e-02,1.442907750606536865e-01
-1.005154773592948914e-01,-3.398927510716021061e-04,-5.983453616499900818e-02,3.685684502124786377e-02,-1.459073871374130249e-01,-7.986989617347717285e-02,-9.088777005672454834e-02,3.501708433032035828e-02,-1.551368534564971924e-01,-1.570685058832168579e-01,-9.364656358957290649e-02,-1.602521836757659912e-01,-2.441071160137653351e-02,5.604679509997367859e-02,-7.902990281581878662e-02,1.204218864440917969e-01,7.464230060577392578e-02,1.491980850696563721e-01,-1.194869726896286011e-01,-5.743964761495590210e-02,-2.062038779258728027e-01,1.557762175798416138e-01,5.559070780873298645e-02,1.217033192515373230e-01,2.135989964008331299e-01,3.409043326973915100e-02,-4.438106436282396317e-03,-1.947058439254760742e-01,5.530221015214920044e-02,-1.767983436584472656e-01,1.715079098939895630e-01,9.020812064409255981e-02,-6.273924559354782104e-02,1.976779252290725708e-01,3.683751076459884644e-02,-6.487912684679031372e-02,-4.696288611739873886e-03,1.556869689375162125e-02,6.360113620758056641e-03,3.013616241514682770e-02,-3.264033794403076172e-02,5.999074876308441162e-02,1.838810145854949951e-01,8.574853837490081787e-02,2.580199241638183594e-01,5.946521461009979248e-02,2.781173028051853180e-02,1.103329360485076904e-01,1.173918172717094421e-01,-5.281195044517517090e-02,7.964318245649337769e-02,1.407694816589355469e-01,-3.316855803132057190e-02,-1.437938679009675980e-02,9.180521965026855469e-02,1.214573755860328674e-01,-1.790915429592132568e-01,-2.208381146192550659e-02,5.551145225763320923e-02,-2.011610567569732666e-01,-8.566740434616804123e-04,1.217264607548713684e-01,2.777367830276489258e-02,7.856411486864089966e-02,-1.575971767306327820e-02,-5.301937088370323181e-02,-1.065201032906770706e-02,-3.908159211277961731e-02,-2.773252502083778381e-02,-7.586362957954406738e-02,1.885245293378829956e-01,3.418600931763648987e-02,-8.543564379215240479e-02,-2.139797993004322052e-02,6.385625898838043213e-02,8.055780827999114990e-02,-4.466461390256881714e-02,-2.185888402163982391e-02,-3.700982313603162766e-03,-1.222086176276206970e-01,4.263480380177497864e-02,1.811423450708389282e-01,1.235184893012046814e-01,-8.123255521059036255e-02,-1.509260237216949463e-01,-1.590031087398529053e-01,1.000633165240287781e-01,-4.311911016702651978e-02,-9.717884659767150879e-02,-7.964597642421722412e-02,-6.238858029246330261e-02,2.405467629432678223e-01,-1.732574310153722763e-05,-1.029418259859085083e-01,2.156143784523010254e-01,7.337611913681030273e-02,1.576484590768814087e-01,-1.364386230707168579e-01,-5.681179463863372803e-02,1.702869683504104614e-02,-5.716000683605670929e-03,4.068826138973236084e-02,-8.554368466138839722e-02,1.449645608663558960e-01,2.184153907001018524e-02,-1.195209771394729614e-01,-6.410025060176849365e-02,-1.558203995227813721e-01,5.306951701641082764e-02,1.620494574308395386e-02,5.583466961979866028e-02,9.520021080970764160e-02,-1.591263562440872192e-01,-9.361397475004196167e-02,-1.374760121107101440e-01,7.126934081315994263e-02,3.400668967515230179e-03,-4.117704555392265320e-02,1.417977958917617798e-01,-2.759021706879138947e-02,1.379811614751815796e-01,-2.596317529678344727e-01,1.332369595766067505e-01,-5.051957443356513977e-02,2.038083523511886597e-01,-6.677331868559122086e-03,-1.186238601803779602e-02,4.551694169640541077e-02
1.037767902016639709e-02,-6.640093773603439331e-02,8.058833330869674683e-02,-1.554824318736791611e-02,-1.678539663553237915e-01,3.426488935947418213e-01,1.136223375797271729e-01,1.920797228813171387e-01,-7.979501038789749146e-02,2.883879244327545166e-01,-4.206436872482299805e-02,1.903814077377319336e-01,4.740947484970092773e-02,-6.733782589435577393e-02,5.755870789289474487e-02,1.297903358936309814e-01,1.283315122127532959e-01,2.145234644412994385e-01,5.120176821947097778e-02,1.715954840183258057e-01,2.732717394828796387e-01,-1.016599908471107483e-01,2.604302763938903809e-01,7.593529671430587769e-02,3.302097786217927933e-03,1.605048030614852905e-01,-3.829355537891387939e-02,4.301311969757080078e-01,2.670113742351531982e-02,-1.913451999425888062e-01,4.355857893824577332e-02,-4.381275177001953125e-02,2.875682199373841286e-03,3.058696091175079346e-01,1.448115855455398560e-01,4.345391690731048584e-02,5.121812969446182251e-02,3.633047342300415039e-01,8.024401962757110596e-02,2.012933045625686646e-02,1.693813949823379517e-01,1.735836714506149292e-01,-3.124469332396984100e-02,2.746244668960571289e-01,1.948791295289993286e-01,2.135395705699920654e-01,1.803659349679946899e-01,1.052909791469573975e-01,6.799636036157608032e-02,6.962084770202636719e-02,1.005282476544380188e-01,4.827288538217544556e-02,2.394915372133255005e-02,-8.509198576211929321e-02,4.361094236373901367e-01,5.492947530001401901e-03,-1.275434624403715134e-02,2.350363582372665405e-01,8.677969127893447876e-02,1.505974531173706055e-01,9.561689570546150208e-03,5.838009063154459000e-03,1.291894763708114624e-01,1.024317517876625061e-01,1.814134418964385986e-01,1.571689248085021973e-01,-9.336826205253601074e-02,4.034034907817840576e-02,1.799176037311553955e-01,6.792736798524856567e-02,-1.363576203584671021e-01,-1.805412583053112030e-02,3.375852853059768677e-02,-4.350747540593147278e-02,4.794272035360336304e-02,-1.656694114208221436e-01,4.959844984114170074e-03,9.074480086565017700e-02,1.445932835340499878e-01,-7.756188511848449707e-02,1.179267838597297668e-01,5.200461670756340027e-02,8.320319652557373047e-02,-4.691655561327934265e-02,2.161885499954223633e-01,-8.787737041711807251e-02,9.146352857351303101e-02,1.690498925745487213e-02,2.423039823770523071e-01,2.355567365884780884e-01,-6.856852024793624878e-02,9.817813336849212646e-02,1.723184585571289062e-01,1.853986382484436035e-01,6.356835365295410156e-02,1.480534672737121582e-01,4.878436401486396790e-02,1.675332039594650269e-01,1.533649861812591553e-01,-4.304903000593185425e-02,5.024231970310211182e-02,9.803382307291030884e-02,3.372672572731971741e-02,4.374607652425765991e-02,1.239669993519783020e-01,3.883070498704910278e-02,3.536965548992156982e-01,-7.794015109539031982e-02,-2.433584183454513550e-01,3.144119381904602051e-01,8.201583474874496460e-02,6.618790328502655029e-02,7.600399106740951538e-02,-3.330918401479721069e-02,3.631694987416267395e-02,7.113907486200332642e-02,-4.959860071539878845e-02,2.050125300884246826e-01,4.133064765483140945e-03,1.157813444733619690e-01,6.359578669071197510e-02,1.450044214725494385e-01,-3.874994814395904541e-02,3.285599499940872192e-02,7.634780555963516235e-02,-2.267475984990596771e-02,4.034419730305671692e-02,-7.505790144205093384e-02
-6.097169592976570129e-03,2.089306153357028961e-02,-9.833791851997375488e-02,1.408837124472483993e-04,-5.775428563356399536e-02,6.771804764866828918e-03,-8.930056542158126831e-02,-5.142335966229438782e-02,-1.182673722505569458e-01,-1.111743003129959106e-01,-6.088683381676673889e-03,1.199188921600580215e-02,-3.471489995718002319e-02,-4.004034399986267090e-02,4.613016545772552490e-02,4.250877723097801208e-02,1.111957356333732605e-01,-2.207809686660766602e-02,5.459818989038467407e-02,8.591680228710174561e-02,4.814496263861656189e-02,1.304162442684173584e-01,-1.084107905626296997e-01,2.608803100883960724e-02,9.624350070953369141e-02,-1.424829512834548950e-01,-1.195342764258384705e-01,-7.210545986890792847e-02,1.833727061748504639e-01,4.821286723017692566e-02,-1.242156773805618286e-01,9.228858351707458496e-02,7.394655793905258179e-02,5.554617196321487427e-02,4.390995576977729797e-02,1.250951588153839111e-01,-6.107027828693389893e-02,3.542659804224967957e-02,-1.039593443274497986e-01,-5.986855924129486084e-02,5.497737601399421692e-02,7.487501949071884155e-02,1.650528796017169952e-02,-8.625680580735206604e-03,-1.091252937912940979e-01,9.415062144398689270e-03,-3.078478574752807617e-02,1.038735657930374146e-01,-9.238027036190032959e-02,8.565508574247360229e-02,2.440561912953853607e-02,5.709676817059516907e-02,3.022283688187599182e-02,1.185136809945106506e-01,-1.413180083036422729e-01,8.313924074172973633e-02,-1.032880619168281555e-01,-4.399585723876953125e-02,8.801541477441787720e-02,1.039699837565422058e-01,1.007688865065574646e-01,3.358860313892364502e-02,1.676091700792312622e-01,9.149358421564102173e-02,-1.892195194959640503e-01,3.493797034025192261e-03,3.767863288521766663e-02,-1.300941854715347290e-01,-6.007070466876029968e-02,3.769608959555625916e-02,4.556556791067123413e-02,-8.806385844945907593e-02,-7.604160159826278687e-02,-5.767527222633361816e-02,9.848621487617492676e-02,-2.920425683259963989e-02,-1.215813010931015015e-01,-1.046582162380218506e-01,1.331066638231277466e-01,1.235802285373210907e-02,-8.561564981937408447e-02,-9.606635570526123047e-02,3.454544395208358765e-02,3.570591285824775696e-02,-4.823113977909088135e-02,-1.262287795543670654e-01,-2.196368761360645294e-02,8.427247405052185059e-02,-1.188007891178131104e-01,-7.022426277399063110e-02,1.257055625319480896e-02,7.392711937427520752e-02,1.298765838146209717e-01,-3.109035314992070198e-04,1.111291423439979553e-01,-1.032649353146553040e-01,-7.902228832244873047e-02,-1.760157028911635280e-04,-6.848945468664169312e-02,-7.358118891716003418e-02,-5.764473229646682739e-02,-1.732963919639587402e-01,-2.264085039496421814e-02,6.014157086610794067e-03,-4.861285910010337830e-02,6.970408558845520020e-02,-1.002614721655845642e-01,-6.714023649692535400e-02,-1.061874814331531525e-02,8.260041475296020508e-02,-3.530667722225189209e-02,-2.306317165493965149e-02,-1.092518307268619537e-02,1.329261213541030884e-01,3.693898394703865051e-02,8.852075040340423584e-02,-1.693082973361015320e-02,-1.276241987943649292e-01,2.840447425842285156e-02,-9.998630732297897339e-02,4.509873222559690475e-03,-5.931733176112174988e-03,-2.039998956024646759e-02,2.718373388051986694e-02,3.220494836568832397e-02,-9.949843585491180420e-02,-4.780115932226181030e-02,-1.924296654760837555e-02
-4.789731651544570923e-02,-5.376407131552696228e-02,-1.380027681589126587e-01,-7.494556158781051636e-02,-9.335310757160186768e-02,1.955037377774715424e-02,2.879724465310573578e-02,2.031808719038963318e-02,5.877887830138206482e-02,3.338545560836791992e-02,-3.831746429204940796e-02,9.250990301370620728e-02,-1.300544738769531250e-01,-1.090303435921669006e-01,3.801859542727470398e-02,-1.092149168252944946e-01,9.039085358381271362e-02,-8.465558290481567383e-02,-1.199288852512836456e-02,5.691623315215110779e-02,-3.574392572045326233e-02,-4.094005376100540161e-02,-4.268432781100273132e-02,3.914271946996450424e-03,-1.166552305221557617e-01,-9.052844718098640442e-03,1.505274772644042969e-01,5.947154760360717773e-02,8.126991242170333862e-02,2.576115541160106659e-02,1.721228472888469696e-03,1.272294372320175171e-01,-1.474192589521408081e-01,2.477103285491466522e-02,-1.836014213040471077e-03,-1.165559664368629456e-01,-1.070320680737495422e-01,1.571343392133712769e-01,9.138350933790206909e-02,6.059641391038894653e-02,9.169808030128479004e-02,7.741120457649230957e-02,-5.611964687705039978e-02,5.578257888555526733e-02,2.372566983103752136e-02,1.097259074449539185e-01,7.101026177406311035e-02,1.319440454244613647e-01,-3.099603764712810516e-02,-1.946440897881984711e-02,-1.693237200379371643e-02,-3.017928823828697205e-02,7.178140431642532349e-02,-3.924942761659622192e-02,5.705201253294944763e-02,-4.135137051343917847e-02,-1.388102918863296509e-01,-1.371054351329803467e-01,3.172384947538375854e-02,-7.294153794646263123e-03,7.848061621189117432e-02,2.966760843992233276e-02,-1.116545870900154114e-01,-2.215168997645378113e-02,-1.773034483194351196e-01,-8.847638964653015137e-02,-2.519992180168628693e-02,-6.094264239072799683e-02,9.388547390699386597e-03,-1.472120583057403564e-01,4.721029475331306458e-02,7.955721765756607056e-02,-8.722038567066192627e-02,-5.327878892421722412e-02,5.292328819632530212e-02,-6.114788725972175598e-02,2.333620795980095863e-03,5.359049420803785324e-03,1.264533959329128265e-02,-3.917785361409187317e-02,1.983060985803604126e-01,-1.948829144239425659e-01,2.069386690855026245e-01,-5.662337690591812134e-02,8.731423318386077881e-02,1.034926846623420715e-01,-1.758863218128681183e-02,-7.387826591730117798e-02,3.128460422158241272e-02,-1.107769533991813660e-01,3.109498322010040283e-02,1.691866964101791382e-01,7.705873250961303711e-02,-9.152830392122268677e-02,4.212053120136260986e-02,-8.013777434825897217e-02,5.287475651130080223e-04,-8.244068175554275513e-02,1.334121376276016235e-01,9.644759446382522583e-02,1.575697585940361023e-02,-5.179389938712120056e-02,-1.470894962549209595e-01,8.861895650625228882e-02,5.033181980252265930e-02,2.934038266539573669e-02,-1.068168878555297852e-01,5.284179002046585083e-02,-2.611052431166172028e-02,1.153860390186309814e-01,-8.849032968282699585e-02,-1.488760393112897873e-02,3.040567738935351372e-03,1.341756992042064667e-02,4.036733135581016541e-02,-4.169816151261329651e-03,-7.225687056779861450e-02,-1.332060843706130981e-01,-1.031052842736244202e-01,1.028904467821121216e-01,-8.614617586135864258e-02,1.576915755867958069e-02,-6.739783287048339844e-02,8.329885452985763550e-02,1.636411325307562947e-04,-2.948594652116298676e-02,1.506437361240386963e-01,3.371373936533927917e-02
2.254860848188400269e-01,-3.261827528476715088e-01,1.727257221937179565e-01,-1.251204162836074829e-01,4.162968099117279053e-01,5.841022357344627380e-02,-1.139906719326972961e-01,1.313446927815675735e-02,1.359105110168457031e-01,-1.003555282950401306e-01,9.782513231039047241e-02,2.404391467571258545e-01,2.058393359184265137e-01,5.052792653441429138e-02,-2.693606913089752197e-02,-2.417476177215576172e-01,-2.175269573926925659e-01,-1.799722760915756226e-01,-6.352173630148172379e-03,9.883240610361099243e-02,-1.905742287635803223e-02,2.888473309576511383e-02,-5.431258678436279297e-02,7.621738314628601074e-02,-1.697247475385665894e-01,-4.879631742369383574e-04,-7.924562669359147549e-04,3.820361495018005371e-01,-4.827382415533065796e-02,4.590330123901367188e-01,-6.199906021356582642e-02,-3.168821334838867188e-02,3.877952322363853455e-02,-1.988749355077743530e-01,-1.559493243694305420e-01,5.299636349081993103e-02,-2.089283317327499390e-01,1.120204478502273560e-02,-8.796336501836776733e-02,-5.510435253381729126e-02,1.211334690451622009e-01,-2.322449237108230591e-01,-2.156345844268798828e-01,-2.440262585878372192e-02,-1.140246242284774780e-01,1.542024910449981689e-01,2.136380076408386230e-01,1.198668777942657471e-01,-1.033269017934799194e-01,1.720637679100036621e-01,-1.176518052816390991e-01,-6.750240176916122437e-02,2.355947047472000122e-01,8.724448829889297485e-02,-2.325103282928466797e-01,-2.012026906013488770e-01,2.120351791381835938e-02,-2.771787345409393311e-01,6.600487232208251953e-02,7.848785817623138428e-02,1.542768254876136780e-02,-2.720988988876342773e-01,-1.086155027151107788e-01,-1.109795793890953064e-01,-2.371535450220108032e-01,2.203870564699172974e-01,-2.837503887712955475e-02,-6.642172578722238541e-03,-1.711400598287582397e-02,1.158475577831268311e-01,-4.297083988785743713e-02,-1.647762060165405273e-01,-7.950229942798614502e-02,4.823442921042442322e-02,3.174187988042831421e-02,7.047867774963378906e-02,2.580316960811614990e-01,-2.727566286921501160e-02,8.173602819442749023e-02,4.663442820310592651e-02,-2.770463824272155762e-01,-2.078014239668846130e-02,5.068467929959297180e-02,2.851681411266326904e-01,-7.547051459550857544e-02,1.618298329412937164e-02,-1.354280710220336914e-01,-2.420559078454971313e-01,1.782269179821014404e-01,-6.054304912686347961e-02,-1.831948459148406982e-01,-1.396677345037460327e-01,-2.851065993309020996e-01,9.240107238292694092e-02,-2.811419665813446045e-01,4.479204490780830383e-02,-1.983894705772399902e-01,-2.413821518421173096e-01,-5.920504033565521240e-02,-4.748273640871047974e-02,-3.595740534365177155e-03,-1.786029636859893799e-01,-3.873551031574606895e-03,-2.445763498544692993e-01,1.149731799960136414e-01,2.364324629306793213e-01,-1.084906756877899170e-01,2.707281112670898438e-01,2.801823802292346954e-02,-1.480821222066879272e-01,6.580527126789093018e-02,4.140093177556991577e-02,4.167408123612403870e-02,2.486437745392322540e-02,-1.342690438032150269e-01,1.222156286239624023e-01,-1.005929484963417053e-01,-1.416116207838058472e-01,-2.887379527091979980e-01,-2.210578620433807373e-01,1.340488940477371216e-01,3.223074078559875488e-01,8.576851338148117065e-02,-1.828242540359497070e-01,-1.800579875707626343e-01,-1.712671816349029541e-01,-6.453131139278411865e-02,3.618138283491134644e-02
2.065727561712265015e-01,1.483141034841537476e-01,-1.432754099369049072e-01,-4.873323813080787659e-02,1.565933078527450562e-01,-5.866832658648490906e-02,-6.023394316434860229e-02,6.579160690307617188e-02,5.211933329701423645e-02,-2.257398813962936401e-01,-4.050842486321926117e-03,-5.974005162715911865e-02,-3.450848534703254700e-02,-5.165754258632659912e-02,-6.265181303024291992e-02,3.289948217570781708e-03,5.213528871536254883e-02,-1.323210150003433228e-01,2.047884017229080200e-01,-7.060750573873519897e-02,-8.264157921075820923e-02,-7.129462063312530518e-02,1.202995628118515015e-01,6.401411443948745728e-02,2.458267286419868469e-02,-8.986202999949455261e-03,1.433138549327850342e-01,-1.213276060298085213e-03,9.868848323822021484e-02,-6.116684526205062866e-02,-1.164978072047233582e-01,1.964058727025985718e-01,7.883126288652420044e-02,1.023099943995475769e-01,-5.608063191175460815e-02,-3.171131014823913574e-02,-8.748483657836914062e-02,-1.676232367753982544e-01,-2.626571618020534515e-02,1.920237950980663300e-02,1.527403146028518677e-01,1.333298534154891968e-01,6.284295767545700073e-02,1.641851365566253662e-01,-6.145194917917251587e-02,3.135947510600090027e-02,-9.384291619062423706e-02,2.357699275016784668e-01,-6.286252290010452271e-02,-1.301333755254745483e-01,-1.714019663631916046e-02,2.234596312046051025e-01,6.538648903369903564e-02,5.668259412050247192e-02,7.838795334100723267e-02,-5.344350822269916534e-03,-4.051350057125091553e-02,1.066003888845443726e-01,3.926749899983406067e-02,-1.628325879573822021e-02,8.915586769580841064e-02,-7.068076729774475098e-02,-9.491632133722305298e-02,-1.244739722460508347e-02,-1.800577901303768158e-02,4.329578578472137451e-02,1.383745372295379639e-01,1.712488085031509399e-01,-3.183383494615554810e-02,-1.788317412137985229e-02,-1.862349957227706909e-01,-8.493311703205108643e-02,1.048678066581487656e-02,1.412161886692047119e-01,1.538423355668783188e-02,-6.617179512977600098e-02,1.004346087574958801e-01,-3.859611228108406067e-02,8.233249932527542114e-02,-3.129803016781806946e-02,1.331363022327423096e-01,9.151250869035720825e-02,1.347178593277931213e-03,3.555708378553390503e-02,-3.935873880982398987e-02,1.105081140995025635e-01,-3.017291985452175140e-02,4.898112639784812927e-02,-1.687533706426620483e-01,-4.910632967948913574e-02,-9.356833249330520630e-02,6.575039029121398926e-02,-9.967151284217834473e-02,1.432408113032579422e-02,2.084155566990375519e-02,-1.676366329193115234e-01,-1.153288334608078003e-01,-3.455773368477821350e-02,8.952354080975055695e-03,9.373749047517776489e-02,8.414266258478164673e-02,-6.953675299882888794e-02,4.255323484539985657e-02,1.196310296654701233e-01,8.031913638114929199e-02,-2.159099131822586060e-01,-6.591752637177705765e-03,9.392115473747253418e-02,-9.120625257492065430e-02,-3.892474249005317688e-02,-4.337969422340393066e-02,-1.530361324548721313e-01,-4.179458692669868469e-02,1.105979084968566895e-01,7.447194308042526245e-02,-7.415767014026641846e-02,-1.286052633076906204e-02,1.832906007766723633e-01,2.694070339202880859e-02,1.383025851100683212e-02,2.904260298237204552e-03,5.554199591279029846e-02,3.647996112704277039e-02,-4.231012240052223206e-02,1.477245241403579712e-01,-1.393062702845782042e-04,1.469957083463668823e-02,9.315039962530136108e-02
-5.178232491016387939e-02,6.568679958581924438e-02,1.828674525022506714e-01,-7.812704890966415405e-02,-2.941793762147426605e-02,-6.376188248395919800e-02,4.609259590506553650e-02,-8.749711513519287109e-02,-6.681165099143981934e-02,8.539536967873573303e-03,-6.901254504919052124e-02,-5.803171917796134949e-02,7.914996892213821411e-02,3.921118006110191345e-02,-9.754048660397529602e-03,-5.305611062794923782e-03,-7.330277562141418457e-02,7.212737202644348145e-02,1.360649708658456802e-02,-1.076601371169090271e-01,9.908855706453323364e-02,-4.723982885479927063e-03,-5.438037961721420288e-02,4.699281975626945496e-02,5.566618591547012329e-02,-1.030027717351913452e-01,-1.038965880870819092e-01,-4.439547285437583923e-02,-1.090203970670700073e-02,-1.425642520189285278e-02,-4.611755907535552979e-02,1.471841633319854736e-01,7.570169866085052490e-03,-1.449092477560043335e-02,6.093379855155944824e-02,1.246113702654838562e-01,5.787727236747741699e-02,9.380985796451568604e-02,-2.193951234221458435e-02,-8.733448386192321777e-02,8.227202296257019043e-02,2.891052141785621643e-02,3.473059460520744324e-02,3.737531602382659912e-02,4.659591615200042725e-02,-8.631672710180282593e-03,1.620906293392181396e-01,2.395068295300006866e-02,5.654926598072052002e-02,6.685668230056762695e-02,-1.953241825103759766e-01,-1.303067337721586227e-02,-1.095164939761161804e-01,8.064729720354080200e-02,1.603319197893142700e-01,-7.752812653779983521e-02,5.080625042319297791e-02,-9.160964190959930420e-02,3.064853139221668243e-02,-9.159348905086517334e-02,1.332022100687026978e-01,-1.573248505592346191e-01,8.684251457452774048e-02,1.866537332534790039e-02,-4.185331985354423523e-02,1.489701122045516968e-01,1.331656239926815033e-03,-1.172113567590713501e-01,2.114809304475784302e-01,-1.337958383373916149e-03,-1.181156709790229797e-01,-3.326690569519996643e-02,-2.992837689816951752e-02,7.911632955074310303e-02,5.449011921882629395e-02,9.781175106763839722e-02,-7.223891466856002808e-02,4.596419259905815125e-02,-7.861274294555187225e-03,5.866570025682449341e-02,-5.642287433147430420e-02,2.151995431631803513e-03,-8.048790693283081055e-02,1.939461529254913330e-01,9.170778840780258179e-02,7.120787352323532104e-02,-2.636227197945117950e-02,5.153450183570384979e-03,3.751935437321662903e-02,5.764536559581756592e-03,-5.280525982379913330e-02,-4.006638750433921814e-02,-9.232387691736221313e-02,1.823750697076320648e-02,-5.969315394759178162e-02,1.288976520299911499e-01,2.206594124436378479e-02,1.911853700876235962e-01,2.499078214168548584e-02,-3.041475638747215271e-02,-9.473665803670883179e-02,1.224635094404220581e-01,1.367640644311904907e-01,-5.692129209637641907e-02,-1.191473007202148438e-01,1.178634818643331528e-03,1.702162027359008789e-01,5.126758664846420288e-02,-8.238621056079864502e-02,9.570448659360408783e-03,-1.562324315309524536e-01,-4.094350617378950119e-03,1.959188468754291534e-02,-4.649852961301803589e-02,-1.195324771106243134e-02,-1.885352283716201782e-02,1.141826957464218140e-01,-1.819962449371814728e-02,-1.501251608133316040e-01,-2.820818684995174408e-02,-4.180207103490829468e-02,-3.072729706764221191e-02,6.700197607278823853e-02,1.736612915992736816e-01,-7.017579674720764160e-02,3.909151628613471985e-02,-1.956064626574516296e-02,-6.028952449560165405e-02
-6.964311748743057251e-02,-4.849223792552947998e-01,-9.183520078659057617e-02,1.022829636931419373e-01,1.906021870672702789e-02,1.580040454864501953e-01,-2.720128893852233887e-01,-7.513064146041870117e-02,-1.396555751562118530e-01,1.432261317968368530e-01,7.085141539573669434e-02,1.354470849037170410e-01,-1.879806965589523315e-01,-3.123201131820678711e-01,-7.569555938243865967e-02,1.273737549781799316e-01,5.055376887321472168e-02,2.055604457855224609e-01,-9.544081985950469971e-02,-2.333474904298782349e-01,1.041991636157035828e-02,1.559765934944152832e-01,-2.329047322273254395e-01,-1.577437072992324829e-01,1.501460671424865723e-01,8.464754372835159302e-02,7.617998868227005005e-02,2.295002937316894531e-01,-2.191791087388992310e-01,6.505312025547027588e-02,1.323873735964298248e-02,2.529150107875466347e-03,-1.039540395140647888e-01,3.003273308277130127e-01,-2.869939506053924561e-01,-1.111325621604919434e-01,-2.458729296922683716e-01,-6.048406288027763367e-02,-2.409045584499835968e-02,1.196095272898674011e-01,-1.125921010971069336e-01,-3.426487445831298828e-01,-1.234698072075843811e-01,3.011938631534576416e-01,-1.092113852500915527e-01,-1.439498364925384521e-01,1.578727364540100098e-01,4.774069413542747498e-02,-1.727694272994995117e-01,4.743382334709167480e-02,-1.119572967290878296e-01,-6.340143084526062012e-02,-3.039688430726528168e-02,-2.130219936370849609e-01,-8.323919028043746948e-02,-3.778846468776464462e-03,-7.998303323984146118e-02,-1.485360711812973022e-01,-5.192570015788078308e-02,-1.124068573117256165e-01,-1.351981461048126221e-01,-8.411449939012527466e-02,2.711421065032482147e-02,-1.266994476318359375e-01,-3.355217278003692627e-01,1.690405905246734619e-01,8.891504257917404175e-02,2.464793473482131958e-01,2.513381838798522949e-01,-4.611855447292327881e-01,1.351313889026641846e-01,-1.223754137754440308e-01,-8.011201769113540649e-02,-3.574120998382568359e-01,-1.756731122732162476e-01,1.813703030347824097e-01,-1.870348602533340454e-01,-1.790906861424446106e-02,1.186474487185478210e-01,-1.109005808830261230e-01,-1.096631959080696106e-02,-6.440076977014541626e-03,3.758476302027702332e-02,4.638582468032836914e-02,4.926931858062744141e-02,1.028649434447288513e-01,-5.321405455470085144e-02,-2.046409994363784790e-01,1.365831643342971802e-01,-9.458196163177490234e-02,1.086388155817985535e-01,9.891469031572341919e-02,9.091177582740783691e-02,1.004591360688209534e-01,2.160774543881416321e-02,1.690750755369663239e-02,-3.121548518538475037e-02,1.282710134983062744e-01,4.490851238369941711e-02,1.462949663400650024e-01,1.543158590793609619e-01,-5.424019414931535721e-03,-6.603968143463134766e-02,-1.007357165217399597e-01,-4.059040173888206482e-02,2.498941868543624878e-01,-8.294197171926498413e-02,-1.448179483413696289e-01,2.490518391132354736e-01,2.736178934574127197e-01,7.406722009181976318e-02,2.495642453432083130e-01,-4.358423650264739990e-01,-1.110465005040168762e-01,-9.686398506164550781e-02,-7.478760927915573120e-02,-2.082475274801254272e-01,3.140290454030036926e-02,-1.965538114309310913e-01,-2.841378152370452881e-01,6.872845441102981567e-02,2.883564531803131104e-01,2.012497335672378540e-01,-4.363594949245452881e-02,5.102736875414848328e-02,8.092702366411685944e-03,7.503412663936614990e-02,-1.097772195935249329e-01
5.599065870046615601e-02,-1.101874709129333496e-01,-2.499246969819068909e-03,7.954265922307968140e-02,3.270751237869262695e-02,9.900960326194763184e-02,-2.053592503070831299e-01,5.173880979418754578e-02,-3.225465118885040283e-02,-1.043023616075515747e-01,-7.859944552183151245e-02,-2.989521436393260956e-02,1.024189367890357971e-01,5.289832130074501038e-02,-5.765471607446670532e-02,7.883927971124649048e-02,6.788595113903284073e-03,1.262135058641433716e-01,-7.073951512575149536e-02,-3.002806007862091064e-02,4.978357627987861633e-02,-1.283711493015289307e-01,7.984077185392379761e-02,5.633276421576738358e-03,2.041465602815151215e-02,-1.760075241327285767e-02,8.865032345056533813e-02,-6.893611978739500046e-03,5.715870484709739685e-02,1.449255645275115967e-01,-1.042506620287895203e-01,-3.691707178950309753e-02,5.397658050060272217e-02,7.171034067869186401e-02,-8.256164193153381348e-02,-5.656001344323158264e-02,2.887339703738689423e-02,-4.679841920733451843e-02,1.654226146638393402e-02,1.831822395324707031e-01,6.449048221111297607e-02,1.477346569299697876e-01,-1.043258383870124817e-01,1.610786765813827515e-01,1.538130342960357666e-01,-1.010727975517511368e-02,8.221220970153808594e-02,-9.742582216858863831e-03,3.354569897055625916e-02,-1.207379903644323349e-02,-3.424981608986854553e-02,1.114453822374343872e-01,-1.097908541560173035e-01,-8.486825972795486450e-02,7.010229676961898804e-02,1.031685853376984596e-03,6.688667088747024536e-02,1.263978928327560425e-01,4.549369961023330688e-02,4.085037112236022949e-02,1.151056587696075439e-01,7.958423346281051636e-03,1.311596333980560303e-01,-1.244412660598754883e-01,-1.124683171510696411e-01,5.790645256638526917e-03,-3.782774507999420166e-02,1.432547122240066528e-01,3.421358764171600342e-03,8.807872235774993896e-02,-1.308976262807846069e-01,-1.508074700832366943e-01,1.919006183743476868e-02,1.165465787053108215e-01,-1.388873755931854248e-01,-4.966710507869720459e-02,-1.216640397906303406e-01,-3.004507720470428467e-02,6.807384639978408813e-02,-1.508143637329339981e-02,1.478980034589767456e-01,-1.266288310289382935e-01,-1.715665012598037720e-01,9.677616879343986511e-03,5.316539481282234192e-02,1.943903975188732147e-02,1.282178610563278198e-01,-1.332180667668581009e-02,5.894133448600769043e-02,-8.444103150395676494e-05,1.080142632126808167e-01,-5.059683322906494141e-02,1.127827093005180359e-01,-9.179639071226119995e-02,1.068097054958343506e-01,-6.830258667469024658e-02,2.256137691438198090e-02,1.599514740519225597e-03,4.572599008679389954e-02,6.772721558809280396e-02,-5.098281428217887878e-03,2.000740170478820801e-02,-6.023482978343963623e-02,1.420724242925643921e-01,-6.542385369539260864e-02,1.167339086532592773e-02,1.762857288122177124e-01,4.665010049939155579e-02,-7.246268540620803833e-02,-4.082844033837318420e-02,-1.437278389930725098e-01,-4.636123403906822205e-02,8.655681461095809937e-02,-7.744263857603073120e-02,9.797574579715728760e-02,9.770264476537704468e-02,9.791084378957748413e-02,1.097268983721733093e-02,7.489708065986633301e-02,1.066282764077186584e-01,-9.441240690648555756e-03,-1.936454442329704762e-03,1.046480908989906311e-01,2.041215542703866959e-03,1.165308132767677307e-01,-9.214134514331817627e-02,1.271670684218406677e-02,1.935718208551406860e-02
2.352711111307144165e-01,2.141782343387603760e-01,-2.448032237589359283e-02,-5.276929587125778198e-02,-7.495118677616119385e-02,4.735175073146820068e-01,2.228342294692993164e-01,9.074494242668151855e-02,-2.272035628557205200e-01,2.623254247009754181e-02,-6.110828518867492676e-01,1.445838510990142822e-01,5.398730863817036152e-04,-2.056308686733245850e-01,3.635320365428924561e-01,5.418932065367698669e-02,5.147963762283325195e-02,1.189382523298263550e-01,2.660449407994747162e-02,-1.503340750932693481e-01,1.423409879207611084e-01,1.803771704435348511e-01,5.544741153717041016e-01,3.322859406471252441e-01,1.075313463807106018e-01,1.929902732372283936e-01,-1.741048879921436310e-02,3.691200911998748779e-01,2.413660436868667603e-01,3.209863603115081787e-02,-3.497493639588356018e-02,2.344748675823211670e-01,-2.881368696689605713e-01,1.698916256427764893e-01,1.053499504923820496e-01,5.870414525270462036e-02,-4.253926221281290054e-03,-3.834346234798431396e-01,-1.258027460426092148e-02,-8.869452029466629028e-02,9.189081937074661255e-02,1.557390540838241577e-01,-6.095940247178077698e-02,-2.422981858253479004e-01,8.748354017734527588e-02,2.954621016979217529e-01,2.209244817495346069e-01,-2.642578817903995514e-02,1.511787921190261841e-01,7.145223766565322876e-02,5.280182231217622757e-03,-1.194999441504478455e-01,2.518031895160675049e-01,-3.890089318156242371e-02,2.389110773801803589e-01,2.139022052288055420e-01,-1.365113854408264160e-01,1.357525736093521118e-01,1.334952861070632935e-01,2.553891241550445557e-01,-2.097655832767486572e-01,2.376757748425006866e-02,1.365840137004852295e-01,2.091786414384841919e-01,3.006764054298400879e-01,2.846168577671051025e-01,3.386132717132568359e-01,-1.693489253520965576e-01,-3.374201357364654541e-01,-1.395757123827934265e-02,-1.807637363672256470e-01,-4.402557015419006348e-02,3.310713171958923340e-02,-8.316329680383205414e-03,1.981044262647628784e-01,-3.035482764244079590e-01,-5.507327616214752197e-02,2.080626934766769409e-01,2.962339520454406738e-01,3.308251034468412399e-03,2.160504758358001709e-01,-3.761279582977294922e-02,1.739716716110706329e-02,-3.928803801536560059e-01,5.130811929702758789e-01,-1.861854940652847290e-01,6.807023286819458008e-02,1.595903746783733368e-02,1.495100110769271851e-01,1.313188951462507248e-02,-1.513088047504425049e-01,1.987884193658828735e-01,7.697000354528427124e-02,3.057728894054889679e-02,-1.035306304693222046e-01,-1.768998503684997559e-01,-6.056526675820350647e-02,2.537373006343841553e-01,-7.815892994403839111e-02,2.180403769016265869e-01,-1.024938896298408508e-01,2.668685019016265869e-01,-3.091363608837127686e-02,1.308479607105255127e-01,1.366642117500305176e-01,-4.539859294891357422e-02,1.769192982465028763e-03,2.134683579206466675e-01,-3.948578238487243652e-01,2.420112043619155884e-01,3.123201727867126465e-01,2.468090206384658813e-01,-3.267092108726501465e-01,5.349799524992704391e-03,3.612402454018592834e-02,1.270654890686273575e-02,5.078116431832313538e-02,4.256537556648254395e-01,-1.528434455394744873e-01,-3.421591222286224365e-02,-1.576907932758331299e-02,2.904956042766571045e-01,6.300630420446395874e-02,-2.593894675374031067e-02,1.779072135686874390e-01,8.821227401494979858e-02,2.821714282035827637e-01,2.959791757166385651e-02
-3.214088454842567444e-02,-6.521622091531753540e-02,-8.664075285196304321e-02,-4.847401753067970276e-02,-6.402797251939773560e-02,-1.043308898806571960e-01,-1.236926764249801636e-03,-7.773946225643157959e-02,-1.243659183382987976e-01,1.582907289266586304e-01,2.429619617760181427e-02,-5.194802582263946533e-02,-2.452263608574867249e-02,-3.314725309610366821e-02,9.020691365003585815e-02,8.163420855998992920e-02,-1.523870322853326797e-02,-2.640472957864403725e-03,-2.972649037837982178e-02,-2.035030350089073181e-02,-6.571746617555618286e-02,8.329483121633529663e-02,9.475774317979812622e-02,-9.619064629077911377e-02,7.514660805463790894e-02,-4.787527397274971008e-02,1.142655089497566223e-01,1.942127496004104614e-01,-1.358215510845184326e-01,-1.387743931263685226e-02,-1.536032743752002716e-02,4.245537519454956055e-02,3.616995364427566528e-02,4.763358831405639648e-02,-1.358988601714372635e-02,-1.204712898470461369e-03,-3.299462050199508667e-02,1.354204267263412476e-01,-7.037623971700668335e-02,-1.689289882779121399e-02,6.499461829662322998e-02,3.016239218413829803e-02,4.553882777690887451e-02,9.059653617441654205e-03,-6.494525820016860962e-02,6.052343919873237610e-02,5.454185232520103455e-02,8.025777339935302734e-02,-1.608278229832649231e-02,-1.568781882524490356e-01,-3.021638095378875732e-02,3.914419934153556824e-02,1.411176025867462158e-01,-6.360006332397460938e-02,-1.975694745779037476e-01,4.599754884839057922e-02,6.736671179533004761e-02,9.943776577711105347e-02,5.302342027425765991e-02,9.509177505970001221e-02,-5.755444988608360291e-02,-1.901235245168209076e-02,6.762997806072235107e-02,1.569571942090988159e-01,1.059529259800910950e-01,8.572373539209365845e-02,7.813546061515808105e-02,-9.402295202016830444e-02,-1.106371209025382996e-01,6.117546558380126953e-02,6.648752093315124512e-02,-2.362417243421077728e-02,3.368968144059181213e-02,4.439740441739559174e-03,2.402551285922527313e-02,-8.784126490354537964e-02,1.766756363213062286e-02,1.596554666757583618e-01,7.974132150411605835e-02,9.193605184555053711e-02,8.120126090943813324e-03,-1.233114628121256828e-03,8.772704750299453735e-02,1.073250249028205872e-01,1.365564763545989990e-01,-6.622212938964366913e-03,1.116669923067092896e-01,-1.345698684453964233e-01,5.466353148221969604e-02,-5.962163954973220825e-02,1.668536812067031860e-01,-1.641258969902992249e-02,1.836670041084289551e-01,-1.213940456509590149e-01,1.780684851109981537e-02,1.833939179778099060e-02,7.656904868781566620e-03,-4.361307946965098381e-04,-1.141165755689144135e-02,1.880840659141540527e-01,3.552205115556716919e-02,9.661109745502471924e-02,1.107689272612333298e-02,-8.244732767343521118e-02,-1.906868219375610352e-01,-9.608607739210128784e-02,6.141959503293037415e-02,-1.066318526864051819e-01,2.176122814416885376e-01,1.882385648787021637e-02,2.347376197576522827e-02,-1.282152980566024780e-01,-7.389094214886426926e-03,-1.028277948498725891e-01,1.410986781120300293e-01,9.669954329729080200e-02,-1.163466945290565491e-01,3.050453588366508484e-02,4.334996640682220459e-02,3.515746444463729858e-02,-1.544531900435686111e-02,-9.022915363311767578e-02,-7.341995835304260254e-02,-8.659251965582370758e-03,-8.551105856895446777e-02,1.913908496499061584e-02,-5.651443451642990112e-02,3.499811887741088867e-02
-1.085336953401565552e-01,3.007686138153076172e-02,-1.402256637811660767e-01,4.735953360795974731e-02,1.270630806684494019e-01,-1.015591546893119812e-01,-2.530810190364718437e-03,5.327922478318214417e-02,-1.023833826184272766e-01,-1.763857007026672363e-01,-9.194210916757583618e-02,-6.415998935699462891e-02,7.137937936931848526e-03,8.501552790403366089e-02,-2.077327808365225792e-03,-4.957247525453567505e-02,4.807116836309432983e-02,-1.126821245998144150e-02,1.163917034864425659e-01,9.127753227949142456e-02,-8.465622365474700928e-02,-2.996926009654998779e-02,7.418420165777206421e-02,3.479082509875297546e-02,1.012395620346069336e-01,-4.490251652896404266e-03,6.941653788089752197e-02,1.221756823360919952e-02,-4.551228135824203491e-02,-4.741669632494449615e-03,-7.223325967788696289e-02,4.213653132319450378e-02,-3.656883165240287781e-02,1.207969859242439270e-01,-2.609683200716972351e-02,4.857268929481506348e-02,-9.598902612924575806e-02,-2.403199672698974609e-02,1.058414205908775330e-01,-1.578190475702285767e-01,1.475435793399810791e-01,-1.305613368749618530e-01,2.471767365932464600e-02,-2.262523397803306580e-02,5.602379795163869858e-03,7.228093687444925308e-03,4.099102318286895752e-02,4.026304930448532104e-02,-6.210953742265701294e-02,9.521962702274322510e-02,-1.073552072048187256e-01,-3.027820959687232971e-02,7.219321280717849731e-02,-4.257915169000625610e-02,2.174831330776214600e-01,-1.431591659784317017e-01,-1.186837255954742432e-01,1.409342139959335327e-01,1.373241841793060303e-01,-1.219809707254171371e-02,-8.643199503421783447e-02,-6.662367284297943115e-02,-1.002972051501274109e-01,-7.944273203611373901e-02,-1.740913093090057373e-01,5.054365098476409912e-02,1.013005990535020828e-02,1.441631913185119629e-01,1.142590343952178955e-01,-7.516302168369293213e-02,-7.392849028110504150e-02,1.061405241489410400e-01,7.940260320901870728e-02,-5.470230430364608765e-02,-6.036993488669395447e-02,6.666361540555953979e-02,2.054962888360023499e-02,-9.313484653830528259e-03,1.054243966937065125e-01,1.419099569320678711e-01,2.479184186086058617e-03,7.935761660337448120e-02,3.970488533377647400e-02,7.628130912780761719e-02,6.287790834903717041e-02,-1.866218298673629761e-01,1.104732900857925415e-01,4.052897542715072632e-02,-4.942273721098899841e-02,-1.569649875164031982e-01,1.847302168607711792e-02,9.284313023090362549e-02,-1.275789439678192139e-01,-5.839491263031959534e-02,4.234353080391883850e-02,1.107712835073471069e-01,-3.998478502035140991e-02,-3.414920065551996231e-03,-1.012164428830146790e-01,-2.797480672597885132e-02,1.736102104187011719e-01,-1.382382363080978394e-01,8.274640887975692749e-02,1.333134435117244720e-02,1.141682490706443787e-01,2.337337646167725325e-04,3.951407968997955322e-02,-1.350993216037750244e-01,3.442673245444893837e-03,1.498552598059177399e-02,-4.826636612415313721e-02,4.325891658663749695e-02,-2.132071927189826965e-02,7.009398192167282104e-02,-1.147659420967102051e-01,-1.509492546319961548e-01,3.811525180935859680e-02,-8.565624803304672241e-02,1.211227625608444214e-01,1.827830262482166290e-02,1.595193594694137573e-01,-1.435291115194559097e-02,8.052414655685424805e-02,1.054692640900611877e-01,-1.558829098939895630e-01,-1.294330209493637085e-01,1.152393594384193420e-01,1.834985315799713135e-01
2.508661244064569473e-03,3.415495529770851135e-02,9.641794115304946899e-02,1.475166715681552887e-02,1.020822599530220032e-01,-1.415232867002487183e-01,1.977132447063922882e-02,5.126387253403663635e-02,-1.064634025096893311e-01,1.003752425312995911e-01,1.787009090185165405e-02,9.082055836915969849e-02,5.310896411538124084e-02,-1.600531488656997681e-01,3.264413401484489441e-02,-3.530105575919151306e-02,-4.781226813793182373e-02,-2.301361039280891418e-02,-1.063910871744155884e-02,1.599589549005031586e-02,1.623993515968322754e-01,1.615913212299346924e-02,1.768168434500694275e-02,-5.761938914656639099e-02,-8.890524506568908691e-02,-9.486328810453414917e-02,-6.410257518291473389e-02,1.133133172988891602e-01,7.763805240392684937e-02,3.765374049544334412e-02,8.864150196313858032e-02,1.641334407031536102e-02,1.263776570558547974e-01,-1.586872190237045288e-01,-2.926537767052650452e-02,-1.182431355118751526e-01,1.502499431371688843e-01,2.962003275752067566e-02,8.729860186576843262e-02,2.593192644417285919e-02,-1.522793527692556381e-02,-1.684541255235671997e-02,5.933194234967231750e-02,8.178679272532463074e-03,3.308336809277534485e-02,1.215302199125289917e-01,4.717084020376205444e-02,-7.375109940767288208e-02,-7.706690579652786255e-02,4.899986460804939270e-02,1.202642396092414856e-01,-1.953996531665325165e-02,-2.698256168514490128e-03,1.410753428936004639e-01,1.683041453361511230e-01,1.454155147075653076e-01,-5.046199634671211243e-02,1.287620216608047485e-01,4.138265550136566162e-02,-3.775896131992340088e-02,-1.200925707817077637e-01,3.309781104326248169e-02,-1.104696914553642273e-01,8.949318528175354004e-02,-1.028809845447540283e-01,-4.591537266969680786e-02,-8.051373064517974854e-03,9.908815473318099976e-02,-1.327911466360092163e-01,1.245955526828765869e-01,2.168083786964416504e-01,-3.091455996036529541e-02,-1.635166699998080730e-03,9.110010415315628052e-02,1.279184874147176743e-02,1.123364865779876709e-01,-4.949498921632766724e-02,1.079456731677055359e-01,-1.682504415512084961e-01,1.042899675667285919e-02,6.045788899064064026e-02,-9.092238545417785645e-02,-3.293986618518829346e-02,4.585965350270271301e-02,1.274041384458541870e-01,-3.242528764531016350e-03,-1.413814127445220947e-01,4.256591200828552246e-02,3.039702959358692169e-02,1.840141718275845051e-03,-1.507344394922256470e-01,-1.097642630338668823e-01,-4.222935438156127930e-02,6.269442290067672729e-02,-1.192579343914985657e-01,2.715246565639972687e-02,3.142263367772102356e-02,2.675530500710010529e-02,1.200196053832769394e-02,-5.945726297795772552e-03,-1.361117814667522907e-03,3.007333143614232540e-04,-4.644459113478660583e-02,2.708273008465766907e-03,-9.432341903448104858e-02,-1.015608087182044983e-01,-7.421080023050308228e-02,9.178358130156993866e-03,1.649434417486190796e-01,2.526623383164405823e-02,1.152269169688224792e-01,1.026763245463371277e-01,2.443049848079681396e-02,2.426823414862155914e-02,-7.518195360898971558e-02,2.204272150993347168e-02,1.274726092815399170e-01,1.216635387390851974e-02,-1.461880281567573547e-02,-8.569333702325820923e-03,2.222102880477905273e-02,-8.111821115016937256e-02,4.653523489832878113e-02,-4.360084980726242065e-02,-6.892273575067520142e-02,-6.208793073892593384e-02,3.068091720342636108e-02,1.003885939717292786e-01
7.259882055222988129e-03,-1.202832236886024475e-01,-4.245831817388534546e-02,-6.020779535174369812e-02,6.513527035713195801e-02,3.903395310044288635e-02,-4.593390598893165588e-02,-6.155980378389358521e-02,2.409061230719089508e-02,-9.779646247625350952e-02,-4.903975874185562134e-02,1.748321056365966797e-01,1.958354860544204712e-01,-2.055750228464603424e-02,8.110992610454559326e-02,2.210965380072593689e-02,-1.461409777402877808e-02,1.322269439697265625e-02,8.696955442428588867e-02,-5.301473662257194519e-02,1.110587343573570251e-01,-4.490788280963897705e-02,-1.428960561752319336e-01,-3.026536665856838226e-02,1.606962271034717560e-02,-3.459156677126884460e-02,-4.711787402629852295e-02,-1.769497804343700409e-02,-3.429201990365982056e-02,8.455878496170043945e-02,-3.076112456619739532e-02,-1.050549522042274475e-01,7.838686555624008179e-02,-1.644721068441867828e-02,-4.294115304946899414e-02,-1.159262210130691528e-01,1.696107089519500732e-01,-4.114180058240890503e-02,-4.886170104146003723e-02,-4.015190154314041138e-02,8.187603950500488281e-02,4.899644106626510620e-02,-5.493515357375144958e-02,2.151320874691009521e-02,-1.128429919481277466e-01,4.642516747117042542e-02,7.381016016006469727e-02,-1.278421282768249512e-01,4.296367987990379333e-02,-5.469573661684989929e-02,9.459830820560455322e-02,-6.975508760660886765e-03,1.206067018210887909e-02,-1.191027089953422546e-01,-6.380211561918258667e-02,9.339116513729095459e-02,-1.799582690000534058e-02,-3.131912648677825928e-02,6.512356549501419067e-02,1.377280205488204956e-01,1.734302043914794922e-01,5.417148349806666374e-04,7.344818115234375000e-02,-1.535975188016891479e-01,-1.329732835292816162e-01,1.419145166873931885e-01,-6.288789957761764526e-02,1.333435475826263428e-01,6.323422491550445557e-02,6.976342946290969849e-02,1.016817707568407059e-02,-2.544971928000450134e-02,-1.515166312456130981e-01,7.104325294494628906e-02,-9.330512583255767822e-02,-2.563115395605564117e-02,1.195109486579895020e-01,8.591262251138687134e-02,-9.060551226139068604e-02,-3.083762712776660919e-02,3.103357180953025818e-02,5.856640264391899109e-02,-7.953995466232299805e-02,-2.519047446548938751e-02,-5.913635715842247009e-02,5.384071543812751770e-02,-1.370608210563659668e-01,7.116917520761489868e-02,7.996042817831039429e-02,-1.145841479301452637e-01,-5.457941815257072449e-02,-1.528880596160888672e-01,2.893202379345893860e-02,1.119187176227569580e-01,1.765833236277103424e-03,6.322826724499464035e-03,1.217884942889213562e-01,1.111143901944160461e-01,1.108234748244285583e-01,-2.908916585147380829e-02,-2.543834969401359558e-02,1.020417660474777222e-01,7.016858458518981934e-02,1.414144337177276611e-01,9.120780974626541138e-03,-1.078423485159873962e-01,-1.151534020900726318e-01,-1.226830631494522095e-01,1.541112270206212997e-02,6.900730729103088379e-02,-7.879273593425750732e-02,8.860040456056594849e-02,3.850387781858444214e-02,-8.581056445837020874e-02,3.266252204775810242e-02,-9.050299972295761108e-02,-4.278776422142982483e-02,-3.064123354852199554e-02,-9.440411627292633057e-02,-3.005223348736763000e-02,1.762421727180480957e-01,-4.966527596116065979e-02,-9.407781809568405151e-02,-2.224912494421005249e-02,-1.548590213060379028e-01,-1.481419056653976440e-01,-1.010303273797035217e-01,-1.399058848619461060e-02
-6.978568155318498611e-03,-6.122861802577972412e-02,1.088963896036148071e-01,1.990801990032196045e-01,-1.390373408794403076e-01,-8.998949080705642700e-02,-1.016781255602836609e-01,2.341880090534687042e-02,1.056570485234260559e-01,-8.632300049066543579e-02,2.068106532096862793e-01,-2.933225035667419434e-01,1.318030357360839844e-01,1.157355979084968567e-01,8.057221770286560059e-02,-8.586918562650680542e-02,-2.176046371459960938e-01,7.450170814990997314e-02,7.203995436429977417e-02,1.641517430543899536e-01,-1.120239496231079102e-01,1.183355003595352173e-01,-8.903545141220092773e-02,-1.695115119218826294e-02,-4.188210889697074890e-02,-2.239646762609481812e-02,9.910193271934986115e-03,-1.527705490589141846e-01,-3.468658030033111572e-02,-1.416750904172658920e-02,-2.431183457374572754e-01,-2.277289927005767822e-01,-2.118692994117736816e-01,-5.040524601936340332e-01,-1.592854224145412445e-02,-1.292334944009780884e-01,7.196946442127227783e-02,7.687395066022872925e-02,-1.699542552232742310e-01,-8.324262686073780060e-03,-7.428227923810482025e-03,1.511478275060653687e-01,4.150118678808212280e-03,1.531172171235084534e-02,1.973362118005752563e-01,-6.767425686120986938e-02,-1.516341418027877808e-01,2.151539176702499390e-02,-7.067853957414627075e-02,1.978715509176254272e-01,-1.848269402980804443e-01,7.237031310796737671e-02,-1.253307759761810303e-01,-2.389441244304180145e-02,-2.229380905628204346e-01,-1.027066856622695923e-01,-1.892794966697692871e-01,-3.483074605464935303e-01,2.265795767307281494e-01,-3.932681083679199219e-01,4.197370633482933044e-02,5.898809432983398438e-02,3.610780462622642517e-02,2.317703701555728912e-02,-4.679286479949951172e-02,7.790406048297882080e-02,-1.206037867814302444e-02,5.307893455028533936e-02,1.644026041030883789e-01,-2.392438799142837524e-01,-1.934830471873283386e-02,5.550754070281982422e-02,-1.758715957403182983e-01,1.522942483425140381e-01,-6.529865413904190063e-02,8.935786783695220947e-02,7.206253707408905029e-02,-1.408400535583496094e-01,-7.533518970012664795e-02,7.643885910511016846e-02,-2.113151103258132935e-01,1.854577809572219849e-01,1.249117180705070496e-01,-4.041191190481185913e-02,1.751737296581268311e-01,-6.104604154825210571e-02,-1.386180818080902100e-01,-8.881707489490509033e-02,-1.132575888186693192e-02,-2.926794886589050293e-01,2.673366107046604156e-02,-2.398991733789443970e-01,-1.209358796477317810e-01,1.461511943489313126e-02,-2.697567939758300781e-01,1.197865903377532959e-01,1.548514887690544128e-02,1.033922359347343445e-01,-1.270232796669006348e-01,-7.843427360057830811e-02,1.999380439519882202e-01,9.641662985086441040e-02,-4.388589039444923401e-02,8.344399183988571167e-02,7.345514744520187378e-02,-1.236181855201721191e-01,1.580394804477691650e-01,7.189537864178419113e-03,7.161676138639450073e-02,1.428701169788837433e-02,-8.676424622535705566e-02,5.266563966870307922e-02,4.742867872118949890e-02,4.329416155815124512e-02,5.646120384335517883e-02,3.314154967665672302e-02,-6.485363095998764038e-02,-8.192190527915954590e-02,1.354180276393890381e-01,-1.658128499984741211e-01,7.964185625314712524e-02,-1.573905050754547119e-01,1.295329630374908447e-01,2.554442360997200012e-02,-1.633949205279350281e-02,-8.906329423189163208e-02,5.179335549473762512e-02,1.508872359991073608e-01
-7.310640811920166016e-02,-2.354670688509941101e-02,-5.998061387799680233e-04,-3.353978693485260010e-02,4.960429295897483826e-02,4.301339760422706604e-02,1.840146631002426147e-01,5.179017316550016403e-03,-3.005458973348140717e-02,2.849164605140686035e-02,2.417582459747791290e-02,8.197256177663803101e-02,8.157844096422195435e-02,-4.399578645825386047e-02,4.027660563588142395e-02,-3.881417587399482727e-02,-9.406241774559020996e-02,-2.366015501320362091e-02,-8.234187960624694824e-02,3.495545312762260437e-02,1.671529561281204224e-01,-4.770610854029655457e-02,-4.943740367889404297e-02,-3.128298558294773102e-03,6.291672587394714355e-02,-2.681639231741428375e-02,8.466798812150955200e-02,-6.387873739004135132e-02,-4.926597699522972107e-02,-7.440675795078277588e-02,1.306707859039306641e-01,7.540408521890640259e-02,7.774320989847183228e-02,4.968701675534248352e-02,1.209629848599433899e-01,8.890473842620849609e-02,7.110754400491714478e-02,3.420817479491233826e-02,8.153197914361953735e-02,1.073736622929573059e-01,-3.820167109370231628e-02,8.868027478456497192e-02,8.312588185071945190e-02,2.611763030290603638e-02,-1.205739229917526245e-01,-1.039925888180732727e-01,1.138380244374275208e-01,9.444286674261093140e-02,-3.267414495348930359e-02,5.749989300966262817e-02,7.531498372554779053e-02,-2.183117344975471497e-02,-1.446179747581481934e-01,-2.488970756530761719e-02,-4.661393910646438599e-02,9.278844296932220459e-02,-2.496658451855182648e-02,-5.589896067976951599e-02,-9.130805265158414841e-04,-6.183822080492973328e-02,1.133067309856414795e-01,5.407780781388282776e-02,1.906322874128818512e-02,-6.786898523569107056e-02,9.355009533464908600e-03,-3.591240197420120239e-02,2.361922152340412140e-02,7.763651758432388306e-02,4.276465624570846558e-02,1.409523636102676392e-01,9.524554945528507233e-03,-5.449914559721946716e-02,2.089675283059477806e-03,-2.286163344979286194e-02,3.195634111762046814e-02,1.959690898656845093e-01,-5.159058049321174622e-02,-2.820977568626403809e-02,1.139383576810359955e-02,5.601394176483154297e-02,-3.092303499579429626e-02,5.497361719608306885e-02,1.641856282949447632e-01,-9.694451838731765747e-02,3.809689730405807495e-02,-1.412603706121444702e-01,-5.771030858159065247e-02,-6.819366663694381714e-02,1.096563190221786499e-01,-1.124950200319290161e-01,-1.041654646396636963e-01,-1.303226053714752197e-01,-3.566031903028488159e-02,3.853282332420349121e-02,-1.325005199760198593e-02,-8.344288915395736694e-02,4.535204172134399414e-02,4.961847327649593353e-03,-7.871565222740173340e-02,-2.300377562642097473e-02,7.062093168497085571e-02,2.543196268379688263e-02,4.825762659311294556e-02,-4.897340666502714157e-03,1.368745863437652588e-01,1.067557930946350098e-01,1.421188712120056152e-01,1.210558861494064331e-01,-3.940474987030029297e-02,1.607709750533103943e-02,-1.873664744198322296e-02,7.742363214492797852e-02,-3.019649907946586609e-02,8.063446730375289917e-02,-6.864227354526519775e-02,-6.161575764417648315e-02,7.608581334352493286e-02,1.668874919414520264e-01,3.018296137452125549e-02,-4.486664012074470520e-02,1.737861707806587219e-02,5.343548208475112915e-02,-7.508636265993118286e-02,3.568209009245038033e-03,8.285084366798400879e-02,8.100099116563796997e-02,7.234340906143188477e-02,7.875753939151763916e-02
6.693942099809646606e-02,8.051475882530212402e-02,1.169774215668439865e-02,-1.238705813884735107e-01,-1.115688588470220566e-03,-5.032267421483993530e-02,-5.188570544123649597e-02,-8.175121992826461792e-02,-7.536188513040542603e-02,9.500071406364440918e-03,1.014273539185523987e-01,-1.046985387802124023e-01,9.336043894290924072e-02,8.117770776152610779e-03,8.015646785497665405e-02,-1.301528066396713257e-01,1.087940335273742676e-01,2.290383214130997658e-03,4.534640163183212280e-02,-4.072459414601325989e-02,1.831846870481967926e-02,1.209432780742645264e-01,-3.071104735136032104e-02,-6.421817839145660400e-02,3.390866518020629883e-02,1.599713712930679321e-01,5.780438333749771118e-02,-7.494471967220306396e-02,3.219560161232948303e-02,-1.048476248979568481e-01,5.930862203240394592e-02,1.745740622282028198e-01,-2.357251346111297607e-01,2.123128389939665794e-03,-6.417191773653030396e-02,1.114667877554893494e-01,1.137177832424640656e-02,-3.619913384318351746e-02,1.217845678329467773e-01,-3.936776146292686462e-02,-8.462576568126678467e-02,8.932703733444213867e-02,1.208277791738510132e-02,-2.227518148720264435e-02,-5.932245776057243347e-02,4.485989362001419067e-02,-6.719419360160827637e-02,-2.981865592300891876e-02,1.070995721966028214e-02,-6.346242874860763550e-02,-1.478790212422609329e-02,6.569888442754745483e-02,4.830134660005569458e-02,9.275276958942413330e-02,3.713591396808624268e-02,1.593670807778835297e-02,5.187557265162467957e-02,-1.769920811057090759e-02,-3.140098880976438522e-03,7.499592751264572144e-02,5.285251885652542114e-02,6.549519300460815430e-02,3.152915462851524353e-02,2.889345213770866394e-02,-1.078236401081085205e-01,5.255891755223274231e-02,7.482177019119262695e-02,1.091929432004690170e-02,7.735570520162582397e-02,5.460400879383087158e-02,1.737857908010482788e-01,-4.460928216576576233e-02,9.659687057137489319e-03,-1.386472880840301514e-01,7.466205954551696777e-02,4.285218939185142517e-02,6.012266129255294800e-02,5.699038505554199219e-02,4.149828851222991943e-02,3.218844160437583923e-02,3.003008663654327393e-02,-2.124968320131301880e-01,2.183151394128799438e-01,-9.059951454401016235e-02,1.648661941289901733e-01,1.518255472183227539e-01,-1.059536635875701904e-01,-4.216039087623357773e-03,1.947079449892044067e-01,-9.381193667650222778e-02,8.553007990121841431e-02,6.337999552488327026e-02,-8.420653641223907471e-02,2.859659725800156593e-03,8.001424372196197510e-02,-5.691197887063026428e-02,-5.555253848433494568e-02,6.230955943465232849e-02,-2.153326943516731262e-02,-9.019935876131057739e-02,3.461448103189468384e-02,-1.997518353164196014e-02,6.498759239912033081e-02,1.260947883129119873e-01,-3.158495575189590454e-02,-6.266247481107711792e-02,-5.269075557589530945e-02,-1.981516182422637939e-02,-5.108452588319778442e-02,-3.799517080187797546e-02,-4.085236787796020508e-02,-6.008391827344894409e-02,6.280168145895004272e-02,5.644686520099639893e-02,1.343192458152770996e-01,-3.317447006702423096e-02,-5.955770984292030334e-02,6.701318919658660889e-02,9.013035148382186890e-02,-4.448738694190979004e-02,-1.775743812322616577e-02,1.332860440015792847e-03,-8.520724624395370483e-02,-8.824623376131057739e-02,4.286423325538635254e-02,1.350276824086904526e-02,1.314759105443954468e-01,1.377366483211517334e-01
6.368959695100784302e-02,-1.037239730358123779e-01,-2.744782250374555588e-03,1.336304545402526855e-01,1.289149373769760132e-01,-5.647742375731468201e-02,-1.362966094166040421e-02,-1.269747614860534668e-01,-1.836882089264690876e-03,-1.082901880145072937e-01,8.368394523859024048e-02,1.380616128444671631e-01,-2.610711008310317993e-02,2.791206836700439453e-01,1.332026626914739609e-02,8.758877217769622803e-02,3.954466804862022400e-02,3.622183203697204590e-02,-4.173516482114791870e-02,-1.389781087636947632e-01,1.183248870074748993e-02,-1.338743120431900024e-01,6.619870662689208984e-02,6.803070008754730225e-02,9.846147894859313965e-02,9.509146213531494141e-02,9.492262452840805054e-02,1.319666653871536255e-01,4.549757763743400574e-02,9.211554192006587982e-03,2.869425108656287193e-03,1.265690475702285767e-01,1.843123733997344971e-01,-8.778777904808521271e-03,1.479608938097953796e-02,1.897005923092365265e-02,1.721455901861190796e-02,-6.516477465629577637e-02,2.568155527114868164e-01,9.671599417924880981e-02,-1.548814177513122559e-01,-8.714180439710617065e-02,1.127739101648330688e-01,2.062397003173828125e-01,7.270403206348419189e-02,-1.506316512823104858e-01,2.530038654804229736e-01,1.675391793251037598e-01,-4.830084741115570068e-02,4.715926572680473328e-02,-1.560518443584442139e-01,9.080044180154800415e-02,3.775270655751228333e-02,-1.626960933208465576e-01,2.354808896780014038e-01,-1.565132141113281250e-01,-3.366049006581306458e-02,9.967351332306861877e-03,4.569672979414463043e-03,1.780920475721359253e-01,3.178151696920394897e-02,-8.361229300498962402e-02,-5.978082492947578430e-02,-9.959422051906585693e-02,-9.284552931785583496e-02,-2.581971883773803711e-02,-3.688576072454452515e-02,2.936658561229705811e-01,1.682851463556289673e-01,6.747156847268342972e-03,-9.193618595600128174e-02,-4.650723561644554138e-02,-9.273552894592285156e-02,2.545914798974990845e-02,1.014975905418395996e-01,-1.426412165164947510e-02,1.192042753100395203e-01,-7.997533306479454041e-03,-1.060491055250167847e-01,-6.189056858420372009e-02,-5.263218283653259277e-02,-1.798387169837951660e-01,-2.126155653968453407e-03,9.652125090360641479e-02,3.421919047832489014e-01,-8.618527650833129883e-02,-5.751700606197118759e-03,9.070646762847900391e-02,6.783603131771087646e-02,1.217786106280982494e-03,-1.137629523873329163e-01,2.580472268164157867e-02,6.019048765301704407e-02,2.293095178902149200e-02,-3.052999451756477356e-02,2.387368865311145782e-02,1.536410450935363770e-01,-1.095303222537040710e-01,-5.633438006043434143e-02,-7.542500644922256470e-02,-1.421240717172622681e-01,-8.213595300912857056e-02,2.047196179628372192e-01,-1.535408049821853638e-01,-4.417422413825988770e-02,-6.904977560043334961e-02,4.059274792671203613e-01,1.084959954023361206e-01,1.875028461217880249e-01,3.019722998142242432e-01,6.818986497819423676e-03,1.749862916767597198e-02,1.929662823677062988e-01,-6.022864952683448792e-02,1.380624324083328247e-01,-1.808944940567016602e-01,1.974200606346130371e-01,-2.710680067539215088e-01,-1.124658808112144470e-02,-1.097822841256856918e-02,-6.437896937131881714e-02,-3.223542496562004089e-02,-9.405276924371719360e-02,1.551393717527389526e-01,-6.058305129408836365e-02,-4.111602902412414551e-02,-1.226489841938018799e-01,8.614657446742057800e-03
-7.491073012351989746e-02,9.633957594633102417e-02,6.066157296299934387e-02,-6.646679341793060303e-02,-8.188885450363159180e-02,1.289760470390319824e-01,-7.401155680418014526e-02,7.391824573278427124e-02,6.608560681343078613e-02,4.971082881093025208e-02,3.003400936722755432e-02,9.829685837030410767e-02,1.012395396828651428e-01,-6.709472090005874634e-02,7.730608433485031128e-02,-7.537075132131576538e-02,5.582666024565696716e-02,1.217504516243934631e-01,1.371234804391860962e-01,-3.092917427420616150e-02,-1.513642072677612305e-01,-3.594827279448509216e-02,-2.052557840943336487e-02,-1.071034893393516541e-01,-1.989902555942535400e-02,7.340035587549209595e-02,1.665596291422843933e-02,3.362296894192695618e-02,-4.057816043496131897e-02,5.308798048645257950e-03,1.364321075379848480e-02,1.958008110523223877e-02,-3.181166201829910278e-02,2.887013852596282959e-01,1.549599170684814453e-01,-1.466016471385955811e-01,1.644922792911529541e-01,-1.197784990072250366e-01,-7.622248679399490356e-02,1.166317015886306763e-01,-6.610407680273056030e-02,2.560025453567504883e-01,-1.300195157527923584e-01,4.855429008603096008e-02,-1.073944754898548126e-02,-6.002951785922050476e-02,3.667661547660827637e-02,-5.648352205753326416e-02,4.098642989993095398e-02,3.862607851624488831e-02,9.379838407039642334e-02,-1.856618933379650116e-02,1.056994199752807617e-01,1.389189250767230988e-02,3.110475651919841766e-02,-4.839655011892318726e-02,-4.823031648993492126e-02,1.111362725496292114e-01,3.498573321849107742e-03,-1.258214656263589859e-02,5.837431922554969788e-02,-9.305810928344726562e-02,-1.760166287422180176e-01,1.141564548015594482e-02,-6.837989203631877899e-03,1.315128654241561890e-01,-6.467828899621963501e-02,1.698846928775310516e-02,1.114655286073684692e-01,-8.070375025272369385e-02,6.987494230270385742e-02,9.639271348714828491e-02,5.393323674798011780e-02,1.012337431311607361e-01,1.328577287495136261e-02,9.136654436588287354e-03,8.701134473085403442e-02,1.387956179678440094e-02,7.771444506943225861e-03,-4.834390059113502502e-02,1.871020048856735229e-01,1.318251155316829681e-02,-6.288696080446243286e-02,-7.991909980773925781e-02,1.283506453037261963e-01,-8.951286971569061279e-02,-2.305656671524047852e-02,2.451278828084468842e-02,3.359591960906982422e-02,-2.458951622247695923e-02,-1.781580150127410889e-01,-1.017576530575752258e-01,8.391316235065460205e-02,-7.662549614906311035e-02,1.672479882836341858e-02,5.462592467665672302e-02,-1.763024628162384033e-01,1.085686963051557541e-02,1.168381571769714355e-01,-1.974573358893394470e-02,3.127953410148620605e-02,1.789106726646423340e-01,7.435168325901031494e-02,7.069330662488937378e-02,-1.107563544064760208e-02,1.395936589688062668e-03,9.862420707941055298e-02,5.795797333121299744e-04,3.283207491040229797e-02,-4.339499771595001221e-02,2.030163072049617767e-02,1.006266698241233826e-01,-6.658326089382171631e-02,-1.149460747838020325e-01,-1.905520260334014893e-02,1.041709929704666138e-01,-9.728860110044479370e-02,1.033055037260055542e-02,-8.523088693618774414e-02,-6.684154272079467773e-02,2.069266736507415771e-01,3.276782808825373650e-03,-3.491235896944999695e-02,-4.842156916856765747e-02,8.614679425954818726e-02,1.368811279535293579e-01,5.923770740628242493e-02,2.119118273258209229e-01
8.226830512285232544e-02,1.488719880580902100e-01,-1.637824624776840210e-01,1.055870652198791504e-01,5.421614274382591248e-02,5.921247974038124084e-02,4.488896951079368591e-02,4.302424564957618713e-02,-7.303852587938308716e-02,-1.254943460226058960e-01,4.709924757480621338e-02,1.447487529367208481e-02,2.123947888612747192e-01,2.769887074828147888e-02,-1.226343289017677307e-01,-7.630734145641326904e-02,-2.412869967520236969e-02,5.683385208249092102e-02,1.576068997383117676e-01,1.623803228139877319e-01,1.537372767925262451e-01,6.839379668235778809e-02,-7.303220033645629883e-02,2.815056033432483673e-02,-2.414316125214099884e-02,-1.883825808763504028e-01,2.385172620415687561e-02,-2.903904393315315247e-02,4.353930801153182983e-02,-4.705714434385299683e-02,7.831351459026336670e-02,-5.541226267814636230e-02,-1.224809661507606506e-01,2.432425320148468018e-02,-2.754039689898490906e-02,6.876216828823089600e-02,-4.294311627745628357e-02,7.759078592061996460e-02,1.732921898365020752e-01,-7.876756042242050171e-02,3.065858036279678345e-03,1.175124123692512512e-01,-3.009162470698356628e-02,6.190808862447738647e-02,6.873729079961776733e-02,4.467141255736351013e-02,1.408309638500213623e-01,9.110172092914581299e-02,-1.689675301313400269e-01,-1.896555162966251373e-02,5.998131260275840759e-02,1.239144653081893921e-01,-4.349472373723983765e-02,2.449952624738216400e-02,-8.819684386253356934e-02,7.921994477510452271e-02,6.743361800909042358e-02,1.061704754829406738e-01,-1.237234696745872498e-01,5.213465541601181030e-02,1.593023389577865601e-01,2.266366779804229736e-01,-4.088386427611112595e-03,-1.719674468040466309e-02,2.889770641922950745e-02,1.660344749689102173e-02,3.739730268716812134e-02,1.070261076092720032e-01,1.344821006059646606e-01,-4.602286219596862793e-02,-2.149173170328140259e-01,1.274016797542572021e-01,-2.649234794080257416e-02,4.331481177359819412e-04,-2.075849473476409912e-02,-2.894221432507038116e-02,-3.878025710582733154e-02,-7.286664098501205444e-02,4.376341402530670166e-02,-2.553561143577098846e-02,-5.455756187438964844e-02,1.203675344586372375e-01,1.920850574970245361e-01,1.038635298609733582e-01,1.987676173448562622e-01,-2.354929596185684204e-02,4.020413756370544434e-02,-1.263989061117172241e-01,-9.193684160709381104e-02,-7.026600185781717300e-03,1.911115795373916626e-01,-1.030361428856849670e-01,-6.535425782203674316e-02,2.552626840770244598e-02,3.756279498338699341e-02,-7.037199288606643677e-02,8.564679324626922607e-02,8.548390865325927734e-02,-1.255547255277633667e-01,1.467705368995666504e-01,5.405982583761215210e-02,-1.234901249408721924e-01,1.356770694255828857e-01,-7.170692086219787598e-02,-3.379518911242485046e-02,1.457654386758804321e-01,1.198007687926292419e-01,3.199967788532376289e-03,-1.434708833694458008e-01,6.366027146577835083e-02,4.270501062273979187e-02,-9.518323838710784912e-02,-2.415754459798336029e-02,9.950824081897735596e-02,-2.067428380250930786e-01,-6.175497546792030334e-02,2.032157331705093384e-01,-3.353878855705261230e-02,6.162012461572885513e-03,1.963814049959182739e-01,-9.070400893688201904e-02,-9.225375950336456299e-03,-6.517226248979568481e-02,-1.643981970846652985e-02,6.723123043775558472e-02,-2.640953846275806427e-02,1.165681704878807068e-01,1.014580950140953064e-01
5.983813479542732239e-02,1.148560568690299988e-01,-6.380961835384368896e-02,4.273781180381774902e-02,-4.800425469875335693e-02,-5.723547562956809998e-02,1.195675805211067200e-01,-3.571927919983863831e-02,1.418220400810241699e-01,-5.487060546875000000e-02,-1.447535958141088486e-02,1.034956052899360657e-01,-6.140859797596931458e-02,-6.069318577647209167e-02,3.194727376103401184e-02,-8.534345775842666626e-03,-3.447381407022476196e-02,5.970584973692893982e-02,8.626870810985565186e-03,6.289999186992645264e-02,4.330613091588020325e-02,4.447884857654571533e-02,1.238581445068120956e-02,-5.404427275061607361e-02,8.863169699907302856e-02,-1.186072453856468201e-01,7.095770537853240967e-02,-5.823272094130516052e-02,4.665431752800941467e-02,2.292197011411190033e-02,-1.313100308179855347e-01,-1.069558784365653992e-02,4.659387469291687012e-02,1.142674535512924194e-01,7.634359877556562424e-03,3.738748654723167419e-02,-9.561208426021039486e-04,-1.227448433637619019e-01,1.896073669195175171e-02,-2.216077409684658051e-02,9.476774372160434723e-03,-6.015472114086151123e-02,6.121928617358207703e-02,7.046122848987579346e-02,3.881130740046501160e-02,5.690930411219596863e-02,5.136262997984886169e-02,-1.020247116684913635e-01,-6.736065447330474854e-02,1.355194896459579468e-01,4.425122460816055536e-04,-4.577468708157539368e-02,-2.776057459414005280e-02,-9.440163522958755493e-02,3.149246051907539368e-02,-5.462693050503730774e-02,1.164321154356002808e-01,-4.308304190635681152e-02,8.606787025928497314e-02,-3.033552132546901703e-02,1.883926540613174438e-01,1.778453239239752293e-03,1.069859191775321960e-01,1.137982457876205444e-01,1.054200576618313789e-03,7.662262301892042160e-03,6.587815005332231522e-03,-1.520067900419235229e-01,1.584676802158355713e-01,1.248600110411643982e-01,-4.511824995279312134e-02,4.606058821082115173e-02,-4.318176209926605225e-02,-3.058183752000331879e-02,-8.866136521100997925e-02,7.818246632814407349e-02,1.393402367830276489e-01,-1.109006106853485107e-01,-1.318146437406539917e-01,-4.920601472258567810e-02,-4.309417679905891418e-02,3.085166774690151215e-02,-1.602524071931838989e-01,-1.630779169499874115e-02,8.448234200477600098e-02,-2.921032160520553589e-02,-1.254900991916656494e-01,9.643123298883438110e-02,9.621799737215042114e-02,8.696454018354415894e-02,5.518150515854358673e-03,-8.680764585733413696e-02,3.382884338498115540e-02,8.766192942857742310e-03,1.683806478977203369e-01,-4.472587630152702332e-02,-3.293094038963317871e-02,1.769367754459381104e-01,6.949155032634735107e-02,1.181363016366958618e-01,4.726437851786613464e-02,-2.352507971227169037e-02,-1.530746072530746460e-01,-1.242092996835708618e-01,6.428009271621704102e-02,-5.412412062287330627e-02,-1.853514015674591064e-01,2.079378813505172729e-02,-4.423882812261581421e-02,5.350189656019210815e-02,4.613453149795532227e-02,3.450626879930496216e-02,2.560567297041416168e-02,1.058199405670166016e-01,9.651598334312438965e-02,1.448335051536560059e-01,-6.871071457862854004e-02,-1.258672624826431274e-01,8.087310008704662323e-03,-7.178477942943572998e-02,1.368163079023361206e-01,6.449815630912780762e-02,1.284847687929868698e-02,-4.002138972282409668e-02,2.319635264575481415e-02,4.487861692905426025e-02,-9.854079037904739380e-02,-2.862185053527355194e-02
-8.922348916530609131e-02,-5.836884677410125732e-02,3.852137923240661621e-02,-2.608049102127552032e-02,-5.430872365832328796e-02,-1.790890097618103027e-02,-1.063842400908470154e-01,6.613404303789138794e-02,-4.470036923885345459e-02,-3.947988897562026978e-02,-2.043127641081809998e-02,-1.350633949041366577e-01,7.994755357503890991e-02,7.085175812244415283e-02,4.840727895498275757e-02,-8.338778465986251831e-02,-4.222666844725608826e-02,1.081143226474523544e-02,2.292879484593868256e-02,2.293920703232288361e-02,5.355197936296463013e-02,-1.012770310044288635e-01,4.789426922798156738e-02,7.917436212301254272e-02,-6.423765793442726135e-03,-4.256421700119972229e-02,1.840877812355756760e-03,-3.710202872753143311e-02,-8.780306577682495117e-02,1.689976602792739868e-01,8.158601820468902588e-02,9.476777166128158569e-02,-3.455046936869621277e-02,-1.055685430765151978e-01,-3.431906551122665405e-02,8.795328438282012939e-02,1.296235769987106323e-01,1.104675605893135071e-01,-1.618475317955017090e-01,-1.830085925757884979e-02,-1.740875542163848877e-01,-1.409620642662048340e-01,-1.079730540513992310e-01,7.187850773334503174e-02,-7.037381082773208618e-02,9.234403073787689209e-02,2.183797769248485565e-02,9.683968871831893921e-02,-3.511956334114074707e-02,6.027246825397014618e-03,-1.783780306577682495e-01,7.575523108243942261e-02,8.372817188501358032e-02,-2.852788753807544708e-02,-1.117812916636466980e-01,6.525834649801254272e-02,-7.844827324151992798e-02,-6.990722846239805222e-03,-7.565367221832275391e-02,2.788788825273513794e-02,-8.300024271011352539e-02,-1.217687800526618958e-01,3.228930756449699402e-02,-7.900461554527282715e-02,1.147383525967597961e-01,-1.043517962098121643e-01,1.614228338003158569e-01,-6.992622464895248413e-02,-2.253709435462951660e-01,-4.423518106341362000e-02,-2.222486399114131927e-02,-1.112371981143951416e-01,1.355981267988681793e-02,-4.840074107050895691e-03,-3.139544278383255005e-02,2.982919104397296906e-02,1.090203877538442612e-02,-4.705590754747390747e-02,-1.252380907535552979e-01,-1.955405920743942261e-01,1.394904404878616333e-01,-3.914488479495048523e-02,6.313179433345794678e-02,-7.722694426774978638e-02,-2.206806465983390808e-02,-1.673420369625091553e-01,-9.583377093076705933e-02,1.272121816873550415e-01,-8.468869328498840332e-02,7.133508473634719849e-02,3.376566991209983826e-02,3.273563086986541748e-02,-6.988874822854995728e-02,8.677771687507629395e-02,-1.631899178028106689e-02,5.246823281049728394e-02,5.593949556350708008e-02,3.688268736004829407e-02,1.922146826982498169e-01,4.414483904838562012e-02,1.394902169704437256e-01,-6.341166794300079346e-02,-4.131757840514183044e-02,-1.224892586469650269e-02,1.132101472467184067e-02,-7.868024706840515137e-02,-6.271022558212280273e-02,-3.686580806970596313e-02,6.968601047992706299e-02,2.907660230994224548e-02,-7.092366367578506470e-02,5.459397286176681519e-02,1.356963217258453369e-01,1.459778994321823120e-01,-1.354205515235662460e-02,7.583587616682052612e-02,-3.426976501941680908e-02,3.582670539617538452e-02,-2.030360698699951172e-02,-9.530249238014221191e-02,-4.110862314701080322e-02,1.534185409545898438e-01,-6.799960881471633911e-02,4.155993834137916565e-02,6.131611019372940063e-02,2.610325254499912262e-02,-1.248646974563598633e-01,6.196454539895057678e-02
