-6.603850424289703369e-02,-6.102671101689338684e-02,-1.086859852075576782e-01,1.469582039862871170e-02,1.873007714748382568e-01,1.576090604066848755e-01,-1.198039390146732330e-02,-1.165087819099426270e-01,-8.942525088787078857e-02,1.150818839669227600e-01,9.410005807876586914e-02,-1.425627917051315308e-01,-1.465761940926313400e-02,3.625513613224029541e-02,-3.983395919203758240e-02,1.222697272896766663e-01,-1.278882771730422974e-01,-1.447602808475494385e-01,2.224792726337909698e-02,1.180821210145950317e-01,-1.574979722499847412e-01,9.339118748903274536e-02,-1.902761310338973999e-02,5.564117059111595154e-02,-1.038675662130117416e-02,-1.128220930695533752e-01,6.524438410997390747e-02,3.242862597107887268e-02,-1.360280960798263550e-01,1.478369534015655518e-01,-9.846278280019760132e-02,1.256101876497268677e-01,-5.634361132979393005e-02,-1.184334978461265564e-01,6.612685392610728741e-04,-4.290997609496116638e-02,6.673070043325424194e-02,-5.290028452873229980e-02,-1.223857998847961426e-01,1.531432848423719406e-02,-8.219289779663085938e-02,-1.664143204689025879e-01,-9.546601772308349609e-02,-4.701781272888183594e-02,1.975095644593238831e-02,-9.429218620061874390e-02,5.641743540763854980e-02,-8.855409175157546997e-02,1.266442686319351196e-01,1.020608842372894287e-02,-8.927742391824722290e-02,6.277915835380554199e-02,-1.728476397693157196e-02,8.657811209559440613e-03,-1.380371581763029099e-02,-1.074548512697219849e-01,3.422373533248901367e-02,-4.518071934580802917e-02,4.231410846114158630e-02,6.788780540227890015e-02,-5.289727076888084412e-02,1.180425286293029785e-01,9.717264771461486816e-02,-4.697766155004501343e-02,-2.954101935029029846e-02,-1.356698758900165558e-02,-2.368900738656520844e-02,9.550616145133972168e-03,-1.108168885111808777e-01,-2.729446999728679657e-02,-7.269120216369628906e-02,7.104487717151641846e-02,1.946275830268859863e-01,-1.163689270615577698e-01,-1.041339263319969177e-01,5.506842397153377533e-03,-5.204947665333747864e-02,1.013200283050537109e-01,6.100855022668838501e-02,6.146464869379997253e-02,1.959189586341381073e-02,-6.980933248996734619e-02,-7.104086130857467651e-02,-7.797159999608993530e-02,1.899234019219875336e-02,1.304189115762710571e-01,-7.302171736955642700e-02,1.346751302480697632e-02,4.804730042815208435e-02,9.479233622550964355e-02,1.422795932739973068e-02,-1.846761703491210938e-01,-1.345431357622146606e-01,-6.079515814781188965e-02,-3.279625996947288513e-02,-3.958031535148620605e-02,5.366141442209482193e-03,1.173904165625572205e-01,-7.229373604059219360e-02,-4.505700245499610901e-02,8.164153993129730225e-02,-2.867296338081359863e-02,1.177125498652458191e-01,-9.107556194067001343e-02,9.092123806476593018e-02,4.068298637866973877e-02,-7.021065801382064819e-02,-1.520573794841766357e-01,5.111623927950859070e-02,-1.068521514534950256e-01,-7.765819877386093140e-02,-1.215093284845352173e-01,7.884752005338668823e-02,-1.171323880553245544e-01,-7.524856179952621460e-02,-3.490485716611146927e-03,-1.079992279410362244e-01,4.394786804914474487e-02,-1.357347220182418823e-01,-4.127595946192741394e-02,6.671529263257980347e-02,1.165115758776664734e-01,8.380316942930221558e-02,-2.662465348839759827e-02,1.435473095625638962e-02,4.749018326401710510e-02,-1.897340863943099976e-01,-1.846586316823959351e-01
2.761101163923740387e-02,-1.357797533273696899e-01,1.578574329614639282e-01,4.202589392662048340e-02,1.656026393175125122e-02,-9.855893254280090332e-02,-1.178275868296623230e-01,-1.224481984972953796e-01,-4.262815043330192566e-02,-6.034759804606437683e-02,-9.310115128755569458e-02,7.661536335945129395e-02,-3.079287416767328978e-04,-1.815699413418769836e-02,-6.277028471231460571e-02,6.579278409481048584e-02,1.156440004706382751e-01,-1.732470840215682983e-02,5.759015679359436035e-02,1.378006953746080399e-02,1.264408230781555176e-01,4.106562584638595581e-03,6.167076155543327332e-02,6.177923083305358887e-02,1.076943650841712952e-01,-6.699761003255844116e-02,1.186033710837364197e-01,-5.485432222485542297e-02,1.668621599674224854e-02,-6.011665984988212585e-02,-1.550065279006958008e-01,-1.680800318717956543e-01,7.708682096563279629e-04,-1.806515902280807495e-01,-1.786132752895355225e-01,1.484613865613937378e-01,-1.049503590911626816e-02,-8.294292539358139038e-02,7.145946472883224487e-02,8.354204893112182617e-02,1.838359683752059937e-01,5.902509763836860657e-02,1.120460852980613708e-01,-5.946442112326622009e-02,-5.909627676010131836e-02,-4.696632176637649536e-02,-7.510165870189666748e-02,8.561655133962631226e-02,2.448230225127190351e-04,9.427737444639205933e-02,-7.048686593770980835e-02,-7.334326952695846558e-02,1.362621337175369263e-01,-1.639058291912078857e-01,-6.444497406482696533e-02,3.394902870059013367e-02,-6.110910698771476746e-02,5.268524959683418274e-02,-1.357420235872268677e-01,1.916944831609725952e-01,1.703938990831375122e-01,6.917323917150497437e-02,-1.005578190088272095e-01,-4.097067564725875854e-02,1.281304806470870972e-01,-1.347122639417648315e-01,3.394362051039934158e-03,1.367707550525665283e-02,6.219307705760002136e-02,5.807958543300628662e-03,5.446690320968627930e-02,4.381001368165016174e-02,9.312766604125499725e-03,6.511554867029190063e-02,8.206979185342788696e-02,-1.926358342170715332e-01,5.829708650708198547e-02,1.632574498653411865e-01,6.009493395686149597e-02,-4.038523882627487183e-02,-3.857919573783874512e-02,1.706616580486297607e-01,-8.661714382469654083e-03,-1.744974404573440552e-01,-1.435394305735826492e-02,-8.101548999547958374e-02,6.910412013530731201e-02,-1.651272177696228027e-01,3.029604069888591766e-02,-2.899163775146007538e-02,-8.730968087911605835e-02,2.945314161479473114e-02,-1.241419911384582520e-01,1.216406226158142090e-01,5.117661505937576294e-02,1.099255084991455078e-01,-1.227954030036926270e-01,-1.428196579217910767e-01,-3.148223459720611572e-02,-9.722534567117691040e-02,-1.121542006731033325e-01,1.466101314872503281e-02,6.174520403146743774e-02,-4.269350692629814148e-02,1.814102232456207275e-01,-4.444044083356857300e-03,1.546833943575620651e-02,-8.600446581840515137e-02,2.595371566712856293e-02,1.070485711097717285e-01,-1.862903498113155365e-02,8.382015675306320190e-02,4.389284551143646240e-02,1.632957011461257935e-01,-4.429673776030540466e-02,-1.471033543348312378e-01,2.685547247529029846e-02,-4.536991193890571594e-02,-2.057757787406444550e-02,1.625203527510166168e-02,-5.002285167574882507e-02,4.299072921276092529e-02,4.105623811483383179e-02,-1.859526187181472778e-01,-1.647383719682693481e-01,-9.254722297191619873e-02,3.044637851417064667e-02,1.660199165344238281e-01
-1.292409151792526245e-01,1.820315420627593994e-01,-2.631656266748905182e-02,-5.023263767361640930e-02,1.877509057521820068e-03,8.561898767948150635e-02,-1.372501999139785767e-01,-1.033804416656494141e-01,-9.725092910230159760e-03,-1.393719911575317383e-01,-1.540192961692810059e-01,-4.646638035774230957e-02,-3.628935292363166809e-02,-5.111495777964591980e-02,-9.216295555233955383e-03,1.659844219684600830e-01,-2.240195684134960175e-02,1.554391086101531982e-01,-6.951460987329483032e-02,1.444119065999984741e-01,4.679901525378227234e-02,-9.225539118051528931e-02,-7.719166460447013378e-04,-7.188379019498825073e-02,-9.741047397255897522e-03,1.267519779503345490e-02,-4.821638390421867371e-02,6.087088584899902344e-02,6.224295124411582947e-02,1.194732934236526489e-01,-1.146089807152748108e-01,-1.030167266726493835e-01,2.254581265151500702e-02,3.141395002603530884e-02,5.021270737051963806e-02,6.945228669792413712e-03,5.654133856296539307e-03,1.769373267889022827e-01,-1.071283146739006042e-01,2.204466424882411957e-02,8.115725964307785034e-02,6.147630885243415833e-02,1.303474903106689453e-01,-8.504579216241836548e-02,-1.784797571599483490e-02,-1.177989784628152847e-02,-7.385629694908857346e-03,-1.199808120727539062e-01,1.812986284494400024e-01,-1.159967556595802307e-01,8.054056018590927124e-02,1.304562389850616455e-01,6.175963208079338074e-02,-1.008931770920753479e-01,-3.378406539559364319e-02,-3.430575504899024963e-02,-1.786918938159942627e-01,1.844868361949920654e-01,8.773314207792282104e-02,1.627126894891262054e-02,-6.060659512877464294e-02,-5.220169946551322937e-02,5.006039049476385117e-03,-1.395274698734283447e-02,-1.469010561704635620e-01,1.099591851234436035e-01,1.194492727518081665e-01,6.226782570593059063e-04,-1.359456777572631836e-02,-5.484471842646598816e-02,-1.307358779013156891e-02,1.182209234684705734e-02,-5.696470290422439575e-02,3.981064655818045139e-04,1.595755815505981445e-01,-1.469394564628601074e-01,-2.795568481087684631e-02,-9.053441137075424194e-02,-7.660283893346786499e-02,6.691498309373855591e-02,8.334007114171981812e-02,5.767945572733879089e-02,-7.762052863836288452e-02,8.158843219280242920e-02,-9.653663635253906250e-02,1.798523515462875366e-01,1.042931079864501953e-01,1.541368812322616577e-01,3.095927648246288300e-02,5.068485811352729797e-02,-6.761453300714492798e-02,1.801574975252151489e-01,-6.647295504808425903e-02,-1.301506012678146362e-01,-8.569225668907165527e-02,-1.245060283690690994e-02,2.881229296326637268e-02,6.823734380304813385e-03,2.887265384197235107e-02,1.726341317407786846e-03,6.983579695224761963e-02,6.163904070854187012e-02,1.930607408285140991e-01,8.828596770763397217e-02,1.586528378538787365e-03,1.287332624197006226e-01,9.573153406381607056e-02,-3.110510483384132385e-02,-8.843889087438583374e-02,-2.873923256993293762e-02,6.908162683248519897e-02,8.978323638439178467e-02,-5.069483071565628052e-02,3.363569080829620361e-02,-9.734693169593811035e-02,1.306392834521830082e-03,9.501146525144577026e-02,-1.814091019332408905e-02,1.727080345153808594e-02,3.734562173485755920e-02,1.014855653047561646e-01,-1.188101693987846375e-01,-9.412965923547744751e-02,1.076633483171463013e-01,-2.017340064048767090e-02,-2.988667786121368408e-02,-3.427780419588088989e-02,3.173128888010978699e-02
-9.182100743055343628e-02,-1.592928171157836914e-01,2.598977461457252502e-02,-7.397660519927740097e-03,6.223097071051597595e-02,6.990378350019454956e-02,6.629099696874618530e-02,-6.835100054740905762e-02,5.856408551335334778e-02,-1.124459505081176758e-01,-3.458365425467491150e-02,-1.001822277903556824e-01,1.196597982197999954e-02,-1.247785799205303192e-02,1.425026636570692062e-02,-1.383027713745832443e-02,-1.607142947614192963e-02,4.753096401691436768e-02,-1.744744717143476009e-03,-5.776408594101667404e-03,-3.627048572525382042e-03,-4.578588157892227173e-02,-7.015318423509597778e-02,1.311983913183212280e-01,5.135679990053176880e-02,1.538058072328567505e-01,6.053670868277549744e-02,-1.064451709389686584e-01,3.223235951736569405e-03,3.910309448838233948e-02,1.566787809133529663e-01,-1.211120858788490295e-01,-1.294302493333816528e-01,-6.110486015677452087e-02,-1.983425579965114594e-02,-5.623481702059507370e-03,-1.423500329256057739e-01,6.797879934310913086e-02,1.846071891486644745e-02,-5.842211190611124039e-03,-1.003740951418876648e-01,-1.031862478703260422e-02,-1.453255563974380493e-01,-1.148898527026176453e-01,1.273599117994308472e-01,-6.730415858328342438e-03,1.610465534031391144e-02,-4.311072826385498047e-02,4.932250827550888062e-02,-4.328307509422302246e-02,1.455455273389816284e-02,7.288254797458648682e-02,-3.097197413444519043e-02,1.435168534517288208e-01,-4.116644710302352905e-02,9.618168324232101440e-02,-2.711693756282329559e-02,1.008607074618339539e-01,-1.062052976340055466e-02,-3.398955985903739929e-02,8.148586004972457886e-02,-1.389513374306261539e-03,7.053542882204055786e-02,-7.835097610950469971e-02,-3.561708331108093262e-02,-4.961089044809341431e-02,-1.004010438919067383e-01,1.184541359543800354e-01,3.278888761997222900e-02,-6.748434156179428101e-02,-2.029409073293209076e-02,9.134946763515472412e-02,1.476511955261230469e-01,9.423324838280677795e-03,-8.250317722558975220e-02,-4.857983812689781189e-02,8.330749720335006714e-02,1.969553530216217041e-02,3.023533849045634270e-03,-5.026399716734886169e-02,-1.594611853361129761e-01,-3.892784938216209412e-02,8.761703222990036011e-02,-6.202070042490959167e-02,-5.015757679939270020e-02,-5.453962832689285278e-02,3.725248947739601135e-02,-1.041316762566566467e-01,-1.122342944145202637e-01,1.116692647337913513e-01,1.836809217929840088e-01,-1.436774269677698612e-03,5.892867967486381531e-02,1.566745042800903320e-01,-1.115587726235389709e-01,1.383961886167526245e-01,1.655205525457859039e-02,6.481178104877471924e-02,-2.411579154431819916e-02,-2.886563353240489960e-02,-1.643919795751571655e-01,-6.552487611770629883e-02,6.958317756652832031e-02,-3.358527645468711853e-02,-4.613688215613365173e-02,-4.582121968269348145e-02,-1.370469629764556885e-01,-8.465203642845153809e-02,-5.810040235519409180e-02,-1.075220108032226562e-01,2.869525551795959473e-02,-1.307099610567092896e-01,-1.229842901229858398e-01,1.187695264816284180e-01,-8.609660714864730835e-02,-1.605784334242343903e-02,2.125293016433715820e-02,1.060748025774955750e-01,6.259088218212127686e-02,2.178253047168254852e-02,-2.159097418189048767e-02,1.085581928491592407e-01,1.234525591135025024e-01,1.146350651979446411e-01,1.028653420507907867e-02,-1.872859448194503784e-01,1.934665143489837646e-01,1.191122308373451233e-01
-4.531897231936454773e-02,-9.328890591859817505e-02,-3.209591656923294067e-02,-7.806017249822616577e-02,-1.991256326436996460e-01,5.785044655203819275e-02,-5.554234609007835388e-02,-1.056619212031364441e-01,1.267520040273666382e-01,5.740487575531005859e-02,1.049660798162221909e-02,-1.701597869396209717e-01,8.623024076223373413e-02,5.800758954137563705e-03,-1.200175434350967407e-01,-3.482638299465179443e-02,1.487714517861604691e-02,3.568986430764198303e-02,-4.879107326269149780e-02,1.863647997379302979e-02,1.407988648861646652e-02,-8.504050225019454956e-02,1.008413638919591904e-02,2.133906260132789612e-02,6.616654992103576660e-02,-6.960120797157287598e-02,1.594991832971572876e-01,-1.022557392716407776e-01,-5.759311467409133911e-02,-3.884105011820793152e-02,1.691544353961944580e-01,-2.474775165319442749e-02,-1.337477415800094604e-01,8.796211332082748413e-02,-1.792414039373397827e-01,-5.478103831410408020e-02,-1.234191656112670898e-01,4.496268928050994873e-02,-5.012425780296325684e-02,-1.368169635534286499e-01,-3.573464695364236832e-03,1.152044683694839478e-01,5.647342279553413391e-02,5.566556006669998169e-02,-5.533493310213088989e-02,1.094571873545646667e-01,4.351648315787315369e-02,2.303724177181720734e-02,-5.374512076377868652e-02,-3.760069236159324646e-02,3.128286078572273254e-02,9.342023730278015137e-02,3.685823082923889160e-02,7.952840626239776611e-02,1.380951255559921265e-01,8.622497320175170898e-02,-2.629141323268413544e-02,-1.351762264966964722e-01,-8.441638201475143433e-02,2.833595685660839081e-02,1.741408370435237885e-02,-1.201383024454116821e-01,-8.652561157941818237e-02,-1.548971864394843578e-03,1.301236897706985474e-01,-8.842746168375015259e-02,5.428831651806831360e-02,2.982981316745281219e-02,-1.026006266474723816e-01,-4.275640100240707397e-02,-1.206624205224215984e-03,-1.355709042400121689e-02,1.115464940667152405e-01,-8.436553925275802612e-02,-4.451076313853263855e-02,3.960805758833885193e-02,2.652511373162269592e-02,-1.136505007743835449e-01,-1.006415411829948425e-01,-9.519121795892715454e-02,-3.689203783869743347e-02,1.147440597414970398e-01,-3.805200802162289619e-03,1.240650191903114319e-01,2.056924067437648773e-02,-1.282742172479629517e-01,-1.379778683185577393e-01,7.389118522405624390e-02,-1.311907172203063965e-01,-5.446929857134819031e-02,7.681440562009811401e-02,-1.832183003425598145e-01,-7.955327630043029785e-02,5.120984837412834167e-02,6.498774141073226929e-02,-7.541213929653167725e-02,1.892330050468444824e-01,-1.670464687049388885e-02,-2.074770443141460419e-02,1.010617241263389587e-01,-1.364161260426044464e-02,6.550879776477813721e-02,8.408062905073165894e-02,-1.232223063707351685e-01,1.551070064306259155e-01,-3.000405989587306976e-02,2.744431793689727783e-02,-6.882292032241821289e-02,-4.206679388880729675e-02,-1.346676349639892578e-01,4.579038172960281372e-02,-1.561160832643508911e-01,-5.747123435139656067e-02,-1.530256271362304688e-01,-3.984517604112625122e-02,1.735378354787826538e-01,-5.803325772285461426e-02,7.732796669006347656e-02,1.840796694159507751e-02,-8.500932902097702026e-02,4.488963261246681213e-02,9.840663522481918335e-02,-6.789578497409820557e-02,-4.076425358653068542e-02,-4.693698137998580933e-03,1.785380691289901733e-01,1.763344854116439819e-01,5.518151447176933289e-02
5.156248807907104492e-02,-9.664710611104965210e-02,1.408487558364868164e-01,-1.381125487387180328e-02,7.059431076049804688e-02,-6.875171512365341187e-02,7.638832926750183105e-02,2.107957191765308380e-02,8.310300856828689575e-02,-2.321429550647735596e-02,-1.288744509220123291e-01,1.777838170528411865e-02,1.710789464414119720e-02,4.482031986117362976e-02,1.157793328166007996e-01,1.608875207602977753e-02,1.507186144590377808e-01,8.438565582036972046e-02,1.862389408051967621e-02,-5.323575064539909363e-02,-1.696269959211349487e-01,-1.004625484347343445e-01,1.032648906111717224e-01,-3.668086975812911987e-02,4.195024818181991577e-02,-1.334752291440963745e-01,1.485872715711593628e-01,-5.682895705103874207e-02,8.958148211240768433e-02,-1.604363881051540375e-02,-6.839008629322052002e-02,-1.515877693891525269e-01,1.055602580308914185e-01,1.923350617289543152e-02,3.267041966319084167e-02,-2.782563306391239166e-02,1.830518692731857300e-01,1.054915934801101685e-01,3.683357685804367065e-02,-1.889223158359527588e-01,-8.993531763553619385e-02,-4.506523534655570984e-02,1.145041957497596741e-01,5.795446783304214478e-02,-7.980275899171829224e-02,-5.657025799155235291e-02,1.145154163241386414e-01,-6.669655442237854004e-02,-1.563358865678310394e-02,7.016460597515106201e-02,-1.175154820084571838e-01,1.041943430900573730e-01,-3.197331726551055908e-02,-1.268866807222366333e-01,-8.021982014179229736e-02,7.062955945730209351e-02,-7.623025029897689819e-02,4.922465886920690536e-03,-7.205991446971893311e-02,-1.121942400932312012e-01,3.282619640231132507e-02,-7.604455202817916870e-02,5.002185329794883728e-02,-1.404214352369308472e-01,-4.848108068108558655e-02,3.487721085548400879e-02,6.022411584854125977e-02,-4.200733732432126999e-03,-3.875864669680595398e-02,-1.664080619812011719e-01,-5.561679229140281677e-02,1.663009673357009888e-01,-7.090244442224502563e-02,-7.692360132932662964e-02,1.998768150806427002e-01,-1.448913943022489548e-02,9.020441211760044098e-03,-2.515684626996517181e-02,-1.977942436933517456e-01,-6.125482916831970215e-02,1.511857360601425171e-01,5.559977889060974121e-02,1.612297892570495605e-01,2.137157134711742401e-02,-3.787144646048545837e-02,9.235187619924545288e-02,-6.192271783947944641e-02,-1.605907082557678223e-01,-5.998326092958450317e-02,-8.971121162176132202e-02,-4.970006644725799561e-02,-6.459183990955352783e-02,-5.321491882205009460e-02,4.082574509084224701e-03,-1.470370739698410034e-01,2.081526257097721100e-02,1.050721183419227600e-01,-5.349185690283775330e-02,7.902784645557403564e-02,-4.745745286345481873e-02,2.060599252581596375e-02,1.228415146470069885e-01,1.475665438920259476e-02,-4.663430526852607727e-02,-4.599666967988014221e-02,4.718930274248123169e-02,1.260580420494079590e-01,5.209518224000930786e-02,1.309144794940948486e-01,1.222056150436401367e-01,7.833702117204666138e-02,-1.284917891025543213e-01,-1.832323521375656128e-01,6.078413873910903931e-02,2.048066444694995880e-02,4.126715660095214844e-02,-1.506197303533554077e-01,-5.094608291983604431e-02,6.667334586381912231e-02,3.757932037115097046e-02,-1.035152450203895569e-01,-1.376700252294540405e-01,-1.533404439687728882e-01,-3.268114104866981506e-02,3.182698413729667664e-02,-7.857811450958251953e-02,3.459273604676127434e-03,6.196808442473411560e-02
-1.237383298575878143e-02,-3.702749311923980713e-02,1.791781559586524963e-02,-1.741319149732589722e-01,-4.268246516585350037e-02,-9.517288953065872192e-02,1.634222865104675293e-01,-8.638300746679306030e-02,-1.814012825489044189e-01,2.968095056712627411e-02,8.981984108686447144e-02,-2.419769577682018280e-02,2.500141970813274384e-02,3.793760435655713081e-03,5.172228440642356873e-02,-5.176344141364097595e-02,-2.639316953718662262e-02,-5.480203032493591309e-02,1.035728584975004196e-02,-8.586930483579635620e-02,-1.157241612672805786e-01,2.465581335127353668e-02,-9.451533108949661255e-02,1.240905523300170898e-01,8.279357105493545532e-02,1.472301930189132690e-01,-1.965816505253314972e-02,-9.338941425085067749e-02,-1.267910003662109375e-01,1.692267358303070068e-01,2.680229581892490387e-02,7.949250750243663788e-03,-1.226634383201599121e-01,9.211854194290935993e-04,-2.594977989792823792e-02,1.189808622002601624e-01,1.354127097874879837e-02,-2.692861948162317276e-03,-5.438021849840879440e-03,1.010055001825094223e-02,-1.637120693922042847e-01,4.868804942816495895e-03,1.442817319184541702e-02,-1.145946308970451355e-01,8.716251701116561890e-02,-8.873487263917922974e-02,4.175638779997825623e-02,-6.049961596727371216e-02,-3.793944045901298523e-02,2.795056067407131195e-02,1.075701341032981873e-01,8.775173686444759369e-03,1.232297420501708984e-01,-1.854928210377693176e-02,5.025745835155248642e-03,7.091307081282138824e-03,1.698270440101623535e-02,1.110773067921400070e-02,-1.691183894872665405e-01,1.754588931798934937e-01,-5.027858540415763855e-02,3.083485364913940430e-02,6.708779186010360718e-02,-1.683980971574783325e-02,1.322551220655441284e-01,-5.437621474266052246e-02,-4.892433993518352509e-03,4.876947775483131409e-02,4.175364226102828979e-02,4.461642354726791382e-02,-3.363844752311706543e-02,-5.480325967073440552e-02,-7.110714912414550781e-03,1.701445430517196655e-01,-9.496443718671798706e-02,3.858612617477774620e-03,7.040432095527648926e-02,-6.116117164492607117e-02,3.443180397152900696e-02,1.342104561626911163e-02,-8.828418329358100891e-03,-7.043009251356124878e-02,-1.992055624723434448e-01,4.848679900169372559e-02,-5.656481534242630005e-02,5.103653762489557266e-03,-1.454161554574966431e-01,1.081658974289894104e-01,9.072417020797729492e-02,1.247448846697807312e-01,2.576822414994239807e-02,8.461574465036392212e-02,-1.545653790235519409e-01,-9.778890758752822876e-02,6.148125603795051575e-02,1.411307901144027710e-01,4.903798550367355347e-02,9.489633888006210327e-02,-9.599734097719192505e-03,2.426331490278244019e-02,-7.248408510349690914e-04,1.463741529732942581e-02,-8.542784303426742554e-02,9.122359007596969604e-02,-3.257515374571084976e-03,-3.196141868829727173e-02,1.556172408163547516e-02,9.417963773012161255e-02,4.376763477921485901e-02,5.428796634078025818e-02,-7.278914004564285278e-02,-9.724213927984237671e-02,1.170870065689086914e-01,6.471609324216842651e-02,1.387388557195663452e-01,5.854918435215950012e-02,1.638648845255374908e-02,1.697381436824798584e-01,7.858034223318099976e-02,4.413984343409538269e-02,-1.116945687681436539e-02,9.921001642942428589e-02,6.504560355097055435e-03,-1.859284192323684692e-01,-1.772868931293487549e-01,-5.695628747344017029e-02,7.666078954935073853e-02,-7.398694008588790894e-02
1.879584640264511108e-01,-2.092758379876613617e-02,9.469013661146163940e-02,1.101165935397148132e-01,-6.319060921669006348e-03,3.887547180056571960e-02,-7.101314514875411987e-02,-8.509790152311325073e-02,-1.034674867987632751e-01,1.232160329818725586e-01,-1.151460036635398865e-01,-1.117757782340049744e-01,-1.548149585723876953e-01,4.071339592337608337e-02,8.828854560852050781e-02,9.646613150835037231e-02,-9.456869214773178101e-02,-3.829965367913246155e-02,-4.694400727748870850e-02,1.052853837609291077e-02,1.160576716065406799e-01,1.859132796525955200e-01,6.925161182880401611e-02,5.461589246988296509e-02,1.187755465507507324e-01,-7.597353309392929077e-02,-2.514722757041454315e-02,-4.633306711912155151e-02,-1.816491335630416870e-01,5.860972031950950623e-02,-2.603927627205848694e-02,5.487561970949172974e-02,1.842215657234191895e-01,6.402024067938327789e-03,-2.743631042540073395e-02,-1.836390793323516846e-02,1.273091286420822144e-01,4.714941978454589844e-02,-1.378077198751270771e-03,6.421514600515365601e-02,-5.649821832776069641e-02,1.102792173624038696e-01,1.039714217185974121e-01,-1.018431317061185837e-02,-5.273780971765518188e-02,4.926006868481636047e-02,1.097400188446044922e-01,6.528559327125549316e-02,5.060509592294692993e-02,1.864700168371200562e-01,-9.404187649488449097e-02,-1.153528094291687012e-01,6.941215693950653076e-02,-1.489929575473070145e-02,9.401857852935791016e-02,-4.614028707146644592e-02,-5.590083822607994080e-02,-2.733347378671169281e-02,7.598810829222202301e-03,4.167202115058898926e-02,-6.437166780233383179e-02,-7.117582112550735474e-02,-1.482149213552474976e-01,8.382096886634826660e-02,2.500340342521667480e-02,1.609132885932922363e-01,-2.946499362587928772e-02,1.540339738130569458e-01,1.019058153033256531e-01,2.723520807921886444e-02,-6.138997152447700500e-02,-3.572986647486686707e-02,-9.784148633480072021e-02,-1.852611452341079712e-02,-5.202333908528089523e-03,-2.833431120961904526e-03,4.446749389171600342e-02,-1.203980594873428345e-01,-6.239520851522684097e-03,-1.337039619684219360e-01,1.603948026895523071e-01,-1.350360512733459473e-01,8.615662902593612671e-02,-4.551739618182182312e-02,-5.274074897170066833e-02,1.637753546237945557e-01,-1.333957165479660034e-01,-5.683314800262451172e-02,-3.392887115478515625e-02,5.955184623599052429e-02,6.689812988042831421e-02,1.996778398752212524e-01,-5.006724223494529724e-02,1.750719547271728516e-01,5.668912082910537720e-02,-6.371139734983444214e-02,-1.795488037168979645e-02,2.826148271560668945e-02,-1.785167306661605835e-01,1.397438049316406250e-01,-1.977256536483764648e-01,1.173908635973930359e-01,-2.382939867675304413e-02,7.769154757261276245e-02,-8.892267942428588867e-03,-4.761026427149772644e-02,5.930365994572639465e-02,9.005635045468807220e-03,-1.703687757253646851e-01,1.984244883060455322e-01,-9.781010448932647705e-03,1.126071959733963013e-01,-1.423389911651611328e-01,1.606367528438568115e-01,-1.996930688619613647e-02,6.332686543464660645e-02,9.960386902093887329e-02,-4.599630832672119141e-02,-1.159330531954765320e-01,-1.438167989253997803e-01,1.779229938983917236e-01,-9.252506494522094727e-02,1.309258192777633667e-01,8.766905963420867920e-02,-1.400809139013290405e-01,-4.903129115700721741e-02,-4.673893377184867859e-02,-5.360314995050430298e-02
-2.085048146545886993e-02,7.100928574800491333e-02,1.277203764766454697e-02,3.790225461125373840e-02,7.749677449464797974e-02,9.134472161531448364e-02,3.163129836320877075e-02,5.841023847460746765e-02,-6.783265620470046997e-02,-4.906341060996055603e-02,1.509640514850616455e-01,-6.937226746231317520e-03,1.352045536041259766e-01,-8.106636814773082733e-03,6.195985898375511169e-02,-2.133349515497684479e-02,-7.426272332668304443e-02,6.966369110159575939e-04,-1.015782356262207031e-01,7.901411503553390503e-02,9.035774320363998413e-02,8.716263622045516968e-02,4.432439431548118591e-02,9.177932888269424438e-02,-4.313971102237701416e-02,-1.029932424426078796e-01,1.741653867065906525e-02,-6.700190249830484390e-03,-1.482557654380798340e-01,-1.014386042952537537e-01,9.738438576459884644e-02,1.529426872730255127e-01,1.555744092911481857e-02,6.688978523015975952e-02,-1.707861386239528656e-02,-9.855796396732330322e-02,3.305525332689285278e-02,7.326550036668777466e-02,-1.229511648416519165e-01,4.793877899646759033e-02,5.083307623863220215e-02,1.695842854678630829e-02,2.541126683354377747e-02,-3.073905408382415771e-02,-6.843333691358566284e-02,-1.951699517667293549e-02,-1.957870647311210632e-02,4.221340641379356384e-02,2.496401965618133545e-02,-1.010243445634841919e-01,3.245085477828979492e-02,2.428649552166461945e-02,1.863237470388412476e-01,1.356179565191268921e-01,1.253475695848464966e-01,-2.582835592329502106e-02,-2.351052686572074890e-02,6.800439208745956421e-02,2.708279155194759369e-02,3.118155896663665771e-02,1.048020869493484497e-01,-1.503261923789978027e-01,-1.111528053879737854e-01,7.396951317787170410e-02,-1.723855584859848022e-01,1.391748636960983276e-01,-6.702361255884170532e-02,1.291355043649673462e-01,-6.899578124284744263e-02,4.320055991411209106e-02,-8.541186898946762085e-02,6.760941445827484131e-02,-8.471103757619857788e-02,1.726778969168663025e-02,-6.834699958562850952e-02,9.530359879136085510e-03,8.852769434452056885e-02,-6.247718352824449539e-03,-5.982368066906929016e-02,-9.536713361740112305e-02,-1.477024704217910767e-01,2.310131862759590149e-02,1.205463558435440063e-01,-7.751450687646865845e-02,7.431410998106002808e-02,-5.613555666059255600e-03,3.133057802915573120e-02,9.495671838521957397e-02,6.136589869856834412e-02,-1.443232130259275436e-02,5.632593855261802673e-02,-1.999616995453834534e-02,-5.518449470400810242e-02,1.774370074272155762e-01,-4.581119865179061890e-02,2.705551125109195709e-02,8.786638826131820679e-02,-2.369217947125434875e-02,9.971839934587478638e-02,-8.522809296846389771e-02,3.195151686668395996e-02,-4.322309419512748718e-02,1.579229682683944702e-01,3.108723275363445282e-02,-1.189141646027565002e-01,-4.745705798268318176e-02,-2.220960333943367004e-02,7.288926094770431519e-02,1.014910936355590820e-01,-2.045878395438194275e-02,-9.287073463201522827e-02,-1.102358698844909668e-01,8.981583639979362488e-03,6.182650476694107056e-02,1.629319638013839722e-01,-4.865651950240135193e-02,-6.182716041803359985e-02,-1.878040134906768799e-01,-7.680479437112808228e-02,5.445266887545585632e-02,6.376892328262329102e-02,-1.623267382383346558e-01,6.653404980897903442e-02,-1.695500873029232025e-02,-2.397104166448116302e-02,6.974282115697860718e-02,-1.469401717185974121e-01,-5.055751185864210129e-03
-4.938421398401260376e-02,-1.149353291839361191e-02,-1.246905326843261719e-01,-7.114280015230178833e-02,-8.570225909352302551e-03,1.135435923933982849e-01,1.958487480878829956e-01,1.539892256259918213e-01,8.243352919816970825e-02,5.932149291038513184e-02,-4.853751510381698608e-02,-7.429473847150802612e-02,1.814605854451656342e-02,5.509205535054206848e-02,1.911639422178268433e-01,1.758751720190048218e-01,9.780716896057128906e-02,4.653118550777435303e-02,-1.302300542593002319e-01,1.038137078285217285e-02,-5.633675679564476013e-02,1.614388972520828247e-01,-1.395719200372695923e-01,-1.115850359201431274e-01,-4.037569463253021240e-02,-4.447094351053237915e-02,-2.214979194104671478e-02,-1.002498418092727661e-01,-1.150163337588310242e-01,-3.206452354788780212e-02,-9.089832752943038940e-02,-5.645905807614326477e-02,-4.801278933882713318e-03,-6.180009990930557251e-02,1.963548175990581512e-02,-7.428782433271408081e-02,1.435965448617935181e-01,-2.882856689393520355e-02,2.851326763629913330e-02,1.033238545060157776e-01,-1.082781329751014709e-01,-2.593681216239929199e-02,-5.498610064387321472e-02,1.527281850576400757e-01,1.180901452898979187e-01,1.034572273492813110e-01,-8.884196728467941284e-02,1.705675274133682251e-01,-3.908867761492729187e-02,-7.628782838582992554e-02,2.029131911695003510e-02,-6.923084706068038940e-02,2.273501083254814148e-02,-1.725622117519378662e-01,-9.225114434957504272e-02,3.295333357527852058e-03,7.294733822345733643e-02,-3.513945266604423523e-02,-1.293941885232925415e-01,1.342592984437942505e-01,-3.668943420052528381e-02,-6.241661310195922852e-02,9.859915822744369507e-02,1.631080210208892822e-01,-1.751872003078460693e-01,1.071503683924674988e-01,5.175383016467094421e-02,-1.345622586086392403e-03,-1.764571964740753174e-01,1.478892862796783447e-01,7.551067322492599487e-02,-1.158646345138549805e-01,1.785431504249572754e-01,-4.648449644446372986e-02,1.769568026065826416e-01,2.714930847287178040e-02,-1.603727191686630249e-01,3.619097173213958740e-02,-6.185197457671165466e-02,-1.454568207263946533e-01,-7.001533359289169312e-02,-6.129683461040258408e-03,6.831538677215576172e-02,-8.079820871353149414e-02,2.658344618976116180e-02,1.257646530866622925e-01,-5.086554959416389465e-02,3.996744751930236816e-02,6.101540848612785339e-02,5.225659534335136414e-02,-1.352564245462417603e-02,-1.631842553615570068e-01,-2.270093373954296112e-02,-5.420492962002754211e-02,-7.453854382038116455e-02,1.488975733518600464e-01,8.286209404468536377e-02,1.069593336433172226e-02,-4.572490975260734558e-02,-1.112054139375686646e-01,1.880982518196105957e-01,5.885401368141174316e-02,-5.362866446375846863e-02,8.096696436405181885e-02,2.646024804562330246e-03,-1.929146498441696167e-01,-3.089002147316932678e-02,6.178238987922668457e-02,-1.189370974898338318e-01,-6.202926859259605408e-02,-1.276622265577316284e-01,-1.222132146358489990e-02,6.527693569660186768e-02,9.909316152334213257e-02,5.886137112975120544e-02,6.953270733356475830e-02,-7.265294343233108521e-02,-1.737161725759506226e-01,-5.414880346506834030e-03,1.456537693738937378e-01,9.972159750759601593e-03,1.216104403138160706e-01,5.180757027119398117e-03,4.695232026278972626e-03,3.165158256888389587e-02,4.526894167065620422e-02,2.760821953415870667e-02,5.086883530020713806e-02
1.399975866079330444e-01,1.277249306440353394e-01,-2.531372383236885071e-02,2.225056104362010956e-02,4.835308715701103210e-02,2.401497773826122284e-02,6.452280282974243164e-02,-6.622246652841567993e-02,-1.106185466051101685e-01,-3.623548150062561035e-02,1.026307269930839539e-01,1.142174005508422852e-01,-1.315336674451828003e-01,7.902251929044723511e-02,-1.599127650260925293e-01,4.425617679953575134e-02,1.910027414560317993e-01,-2.454577758908271790e-02,9.302801638841629028e-02,3.142413869500160217e-02,1.527429223060607910e-01,-1.223291382193565369e-01,-1.881795376539230347e-01,4.021741822361946106e-02,9.674461930990219116e-02,2.890916168689727783e-02,1.099037155508995056e-01,6.270944327116012573e-02,5.560203269124031067e-02,5.190695077180862427e-02,9.020980447530746460e-03,-7.112242281436920166e-02,1.164038181304931641e-01,8.056139631662517786e-05,9.429167956113815308e-02,9.991003572940826416e-02,1.253994554281234741e-02,-1.594611257314682007e-01,3.214456140995025635e-02,-4.177799820899963379e-02,-7.269701361656188965e-02,-1.274863034486770630e-01,8.415359072387218475e-03,1.707479357719421387e-01,1.686098873615264893e-01,8.583139628171920776e-02,-1.070321574807167053e-01,-4.329880233854055405e-03,-4.924083873629570007e-02,-1.522541791200637817e-01,-2.735367417335510254e-02,6.903979182243347168e-02,8.967780508100986481e-03,-7.312452048063278198e-02,-9.900652803480625153e-03,-1.365036815404891968e-01,-7.353996485471725464e-02,-4.018840566277503967e-02,-9.907694160938262939e-02,1.374635547399520874e-01,-1.496727615594863892e-01,3.913760185241699219e-02,4.039990529417991638e-02,9.307104162871837616e-03,-5.546804144978523254e-02,2.367625944316387177e-02,8.255213499069213867e-02,-1.421156805008649826e-02,-1.319667249917984009e-01,4.648450389504432678e-02,-2.322131209075450897e-02,5.087435990571975708e-02,-1.420044895894534420e-06,-1.182547807693481445e-01,2.317171171307563782e-02,-1.340939700603485107e-01,-2.226138673722743988e-02,1.259504705667495728e-01,1.130734197795391083e-02,6.016000732779502869e-02,2.421155944466590881e-02,1.810515075922012329e-01,8.565068244934082031e-03,-1.139304190874099731e-01,3.807979077100753784e-02,1.663582958281040192e-02,-7.668139040470123291e-02,1.547451466321945190e-01,4.631128534674644470e-02,1.932560503482818604e-01,-1.211476251482963562e-01,-1.793488711118698120e-01,-1.179674193263053894e-01,1.488664299249649048e-01,2.405824325978755951e-02,2.926317229866981506e-02,3.461943240836262703e-03,5.108154844492673874e-03,4.795885831117630005e-02,-6.527651846408843994e-02,7.390769571065902710e-02,6.507344543933868408e-02,7.809993624687194824e-02,-1.348998397588729858e-01,-1.654760241508483887e-01,-9.653282165527343750e-02,-1.225734353065490723e-01,-1.299471110105514526e-01,-2.295176126062870026e-02,-6.656654924154281616e-02,-2.091805264353752136e-02,-9.469857066869735718e-02,4.907673224806785583e-02,5.227859690785408020e-02,-2.598087862133979797e-02,-1.608279794454574585e-01,-8.720276504755020142e-02,2.194625698029994965e-02,-5.829709395766258240e-02,-3.611624985933303833e-02,4.739538766443729401e-03,3.729648515582084656e-02,-1.278699487447738647e-01,-4.478293936699628830e-03,1.006170138716697693e-01,-7.362188398838043213e-02,1.439338624477386475e-01,-1.124522313475608826e-01
-7.054199464619159698e-03,1.912503689527511597e-01,8.927344530820846558e-02,-1.239090561866760254e-01,2.513314783573150635e-02,1.266115754842758179e-01,-9.611585177481174469e-03,-5.760619044303894043e-02,9.631206281483173370e-03,9.009482711553573608e-02,-1.081090718507766724e-01,9.331914037466049194e-02,5.304914433509111404e-03,1.372006386518478394e-01,-6.974652409553527832e-02,1.782933026552200317e-01,-2.257282100617885590e-02,1.457990258932113647e-01,-1.881653517484664917e-01,5.705305933952331543e-02,-3.268898278474807739e-02,-6.314646452665328979e-02,5.089904740452766418e-02,-4.115200787782669067e-02,9.221636503934860229e-02,-9.208828210830688477e-02,6.724424660205841064e-02,6.830023229122161865e-02,5.932142958045005798e-02,-8.816802501678466797e-02,1.054187789559364319e-01,3.830852732062339783e-02,-7.716172188520431519e-02,-4.700924828648567200e-02,5.760267004370689392e-02,2.305489592254161835e-02,-7.496467977762222290e-02,1.885585300624370575e-02,-1.435628086328506470e-01,-5.044968053698539734e-02,5.127654224634170532e-02,-7.807780057191848755e-02,-2.120291255414485931e-02,-4.028933867812156677e-02,6.476943939924240112e-02,1.250258535146713257e-01,1.465766727924346924e-01,-6.879481673240661621e-02,-3.686798363924026489e-02,1.420306973159313202e-03,8.733540773391723633e-02,9.710812009871006012e-03,6.203228980302810669e-02,6.457891315221786499e-02,7.832144200801849365e-02,7.071376591920852661e-02,1.004557833075523376e-01,2.243239246308803558e-02,1.369708627462387085e-01,7.387210428714752197e-02,-4.518036171793937683e-02,-1.860553584992885590e-02,4.955519735813140869e-02,-6.176834180951118469e-02,1.159663572907447815e-01,4.412513598799705505e-02,1.613833755254745483e-01,-4.917734861373901367e-02,-1.266382187604904175e-01,-1.955689936876296997e-01,5.696985125541687012e-02,7.833584398031234741e-02,2.143088029697537422e-03,-2.218721248209476471e-02,7.734266109764575958e-03,6.459747999906539917e-02,-7.691867649555206299e-02,2.910045720636844635e-02,1.817582696676254272e-01,-1.712253093719482422e-01,7.710826396942138672e-02,-6.008348613977432251e-02,1.619475930929183960e-01,-3.240472450852394104e-02,1.873884536325931549e-02,2.164781652390956879e-02,-4.136587306857109070e-02,-4.057339578866958618e-02,-8.585490286350250244e-03,-1.729168742895126343e-01,-4.191859066486358643e-02,-2.623530663549900055e-02,5.969597771763801575e-02,3.130574896931648254e-02,2.623546496033668518e-02,-1.497978158295154572e-02,1.091251894831657410e-01,-1.115808114409446716e-01,-1.743129640817642212e-01,-6.665708869695663452e-02,5.847610160708427429e-02,1.974142044782638550e-01,3.957995772361755371e-02,1.100639477372169495e-01,8.763736486434936523e-02,5.005211755633354187e-02,4.473919048905372620e-02,-1.957415342330932617e-01,-2.226390689611434937e-02,-1.802097260951995850e-01,2.523248828947544098e-02,-5.636599287390708923e-02,7.460381835699081421e-02,-1.232112646102905273e-01,-1.174243614077568054e-01,1.740451902151107788e-02,-5.406326055526733398e-02,-7.889454811811447144e-02,-7.776194065809249878e-02,2.099613286554813385e-02,4.360110312700271606e-02,1.115169748663902283e-01,-4.114751517772674561e-02,1.668574847280979156e-02,-3.645357489585876465e-02,9.966999292373657227e-02,6.777612119913101196e-02,9.144413284957408905e-03
4.706854745745658875e-02,1.174006238579750061e-01,6.020781397819519043e-02,-1.020932123064994812e-01,7.076930999755859375e-02,9.684522449970245361e-02,-2.161734737455844879e-02,-9.192141145467758179e-02,-1.250421255826950073e-01,6.015890464186668396e-02,-1.180249005556106567e-01,5.360221490263938904e-02,3.300313651561737061e-02,-5.153373628854751587e-02,2.987728454172611237e-02,5.456359311938285828e-02,-1.022058948874473572e-01,1.040626987814903259e-01,1.228621508926153183e-02,-1.176004633307456970e-01,-8.713706396520137787e-03,-7.304021622985601425e-03,1.675877533853054047e-02,7.933583855628967285e-02,-6.066007539629936218e-02,-6.557126343250274658e-02,2.183143049478530884e-02,1.006151437759399414e-01,-2.433748543262481689e-02,-8.325007557868957520e-02,3.194369003176689148e-02,5.549467727541923523e-02,-1.149426326155662537e-01,1.227104067802429199e-01,-7.801734656095504761e-02,-1.622006669640541077e-02,-2.892619930207729340e-02,3.251491859555244446e-02,-1.108487471938133240e-01,-1.329751908779144287e-01,4.614028614014387131e-03,-6.215424463152885437e-02,7.927155122160911560e-03,-1.287057995796203613e-01,6.736648827791213989e-02,-1.011760160326957703e-01,-6.541120260953903198e-02,1.221065074205398560e-01,6.536697596311569214e-02,1.680629104375839233e-01,2.853109873831272125e-02,-3.932712227106094360e-02,1.135871559381484985e-02,3.208472579717636108e-02,1.125494986772537231e-01,-1.481112539768218994e-01,1.147528067231178284e-01,-4.056917876005172729e-02,4.620503261685371399e-02,4.056313261389732361e-02,8.973438292741775513e-02,8.559147268533706665e-02,-7.655913382768630981e-02,-1.231978461146354675e-01,-4.931359365582466125e-02,6.316636502742767334e-02,1.455629803240299225e-02,3.285570070147514343e-02,1.807377673685550690e-02,4.248269367963075638e-03,8.586006611585617065e-02,9.170796722173690796e-02,-6.462486833333969116e-02,-1.766486279666423798e-02,-5.199539288878440857e-02,2.457198873162269592e-02,6.810179352760314941e-02,-9.187167882919311523e-02,3.679076209664344788e-02,-6.672792136669158936e-02,-5.611471459269523621e-02,7.565361261367797852e-02,1.929157972335815430e-02,-1.051734611392021179e-01,4.980029072612524033e-03,2.855255268514156342e-02,-1.814851909875869751e-02,-5.035162717103958130e-02,-1.365155428647994995e-01,-6.379521917551755905e-03,-6.407667882740497589e-03,-1.203802153468132019e-01,1.318168044090270996e-01,2.290044911205768585e-02,2.695894800126552582e-02,-1.423425823450088501e-01,-3.867078572511672974e-02,-6.499397009611129761e-02,-6.069923285394906998e-03,-8.369123190641403198e-02,4.035962745547294617e-02,-5.074221640825271606e-02,5.536643415689468384e-02,6.657415628433227539e-02,-1.746977120637893677e-01,-1.394689977169036865e-01,-1.709869876503944397e-02,7.633652538061141968e-02,1.835975646972656250e-01,1.510309875011444092e-01,-4.571817442774772644e-02,3.023083508014678955e-02,-6.575752794742584229e-02,-1.361544430255889893e-02,2.623365819454193115e-02,-1.497092992067337036e-01,-1.787625402212142944e-01,1.967981755733489990e-01,-5.729217082262039185e-02,-2.328402735292911530e-02,4.549365118145942688e-02,1.528317481279373169e-02,9.456386417150497437e-02,2.564305206760764122e-03,1.384951621294021606e-01,-1.905949413776397705e-02,1.182059198617935181e-01,5.750105902552604675e-02
1.646127551794052124e-01,-6.831835210323333740e-02,8.610215038061141968e-02,8.760914206504821777e-02,-3.799518570303916931e-02,4.124038293957710266e-02,-2.167053334414958954e-02,1.514420360326766968e-01,9.187093377113342285e-02,8.045469969511032104e-02,-1.808128207921981812e-01,8.325953036546707153e-02,-1.306349784135818481e-01,-6.549414247274398804e-02,9.693361818790435791e-02,-4.927729070186614990e-02,-6.424850970506668091e-02,-2.112298086285591125e-02,1.004232689738273621e-01,-3.630339400842785835e-03,-2.620418742299079895e-02,4.814451932907104492e-02,-2.382021769881248474e-02,7.789925485849380493e-02,3.504019603133201599e-02,-7.822702080011367798e-02,2.588986419141292572e-02,1.216356977820396423e-01,6.969019025564193726e-02,-5.543049797415733337e-02,-1.994814723730087280e-02,1.136287599802017212e-01,-1.504551321268081665e-01,9.212620556354522705e-03,1.436797082424163818e-01,4.141456633806228638e-02,4.192876815795898438e-02,-6.246196851134300232e-02,1.469694972038269043e-01,-1.832368038594722748e-02,-3.285834565758705139e-02,-7.596275210380554199e-02,-6.877862662076950073e-02,-1.490838974714279175e-01,9.784480929374694824e-02,-3.694981336593627930e-03,6.498210132122039795e-02,5.651206895709037781e-02,5.698760226368904114e-02,5.656616762280464172e-02,1.483846157789230347e-01,-3.275826945900917053e-02,-7.789471000432968140e-02,-2.106398157775402069e-02,-4.000402987003326416e-02,4.242825135588645935e-02,1.734150797128677368e-01,5.231492593884468079e-02,5.150508880615234375e-02,4.999278113245964050e-02,-8.266612887382507324e-02,3.702579438686370850e-02,-9.021309763193130493e-02,5.229259282350540161e-02,-1.529576536267995834e-02,-1.104764342308044434e-01,-9.713044762611389160e-02,1.161524653434753418e-01,-7.940208539366722107e-03,1.234757900238037109e-02,4.232293367385864258e-02,4.917937330901622772e-03,-1.718059182167053223e-02,-1.281363666057586670e-01,-3.303316608071327209e-02,1.319211423397064209e-01,1.818934641778469086e-02,-9.358642995357513428e-02,1.530956011265516281e-02,-3.931258246302604675e-02,4.136790335178375244e-02,-4.929273575544357300e-02,4.140649363398551941e-02,-1.071107666939496994e-02,5.196578428149223328e-02,-4.574403632432222366e-03,9.053515642881393433e-02,-1.768414527177810669e-01,-3.007839620113372803e-02,-1.894713789224624634e-01,-5.394763499498367310e-02,5.953652784228324890e-02,5.425574257969856262e-03,-5.718907713890075684e-02,-1.714463680982589722e-01,1.087647080421447754e-01,-1.744372695684432983e-01,-8.656546473503112793e-02,-3.184184059500694275e-02,-1.317172646522521973e-01,7.861002534627914429e-02,8.042898029088973999e-02,7.473581284284591675e-02,1.263542175292968750e-01,-1.300659626722335815e-01,3.686204925179481506e-02,6.673897057771682739e-02,3.261670097708702087e-02,-8.156915009021759033e-02,1.325872242450714111e-01,1.341546326875686646e-01,-6.358205527067184448e-02,2.624113857746124268e-02,-2.642382495105266571e-02,-1.060926914215087891e-01,4.823965951800346375e-02,9.290413558483123779e-02,-6.214345805346965790e-03,-3.733486682176589966e-02,-8.197794854640960693e-02,6.931177526712417603e-02,5.798396095633506775e-02,8.670707792043685913e-02,1.302944719791412354e-01,3.589740023016929626e-02,3.304162248969078064e-02,-4.456391930580139160e-02,-1.141441613435745239e-01
2.315608039498329163e-02,3.035559691488742828e-02,-1.076557766646146774e-02,9.980800747871398926e-02,1.027053222060203552e-01,-4.342190548777580261e-02,9.668576531112194061e-03,-8.789524435997009277e-02,-1.357801705598831177e-01,-1.488398760557174683e-02,-5.446490272879600525e-02,-5.323209986090660095e-02,-1.920382305979728699e-02,-1.199644953012466431e-01,1.189166586846113205e-02,1.569503359496593475e-02,-8.922012150287628174e-02,-6.194350868463516235e-02,1.884893514215946198e-02,-5.038900300860404968e-02,4.466354474425315857e-02,-1.304467469453811646e-01,3.441797196865081787e-02,2.165024913847446442e-02,1.040331348776817322e-01,-1.836547441780567169e-02,6.492979079484939575e-02,1.653953939676284790e-01,-5.356795713305473328e-02,-8.397625386714935303e-02,-9.368868917226791382e-02,-1.674423962831497192e-01,-1.452029794454574585e-01,1.583135128021240234e-02,-1.159127876162528992e-01,-2.821215055882930756e-02,1.282521244138479233e-02,-1.156543642282485962e-01,9.439713507890701294e-02,-5.344054196029901505e-03,1.780665963888168335e-01,-4.536557197570800781e-02,4.156335443258285522e-02,-8.678963035345077515e-02,-7.054519653320312500e-02,-6.761441379785537720e-02,1.305047124624252319e-01,-5.189273506402969360e-02,1.387995947152376175e-02,1.508064121007919312e-01,-8.347918093204498291e-02,-1.113119870424270630e-01,-1.616966575384140015e-01,-8.079324662685394287e-02,-2.976013533771038055e-02,-1.747638285160064697e-01,-7.873047888278961182e-02,-1.645920425653457642e-01,8.519644290208816528e-02,2.745620440691709518e-03,-9.822690486907958984e-02,4.331671074032783508e-02,-9.865059703588485718e-02,-6.167260557413101196e-02,2.392909117043018341e-02,-3.901062533259391785e-02,7.468950748443603516e-02,-1.385238301008939743e-02,2.700272202491760254e-02,-1.810035109519958496e-01,1.614063605666160583e-02,1.643898189067840576e-01,3.360656788572669029e-03,1.187854930758476257e-01,-7.908007502555847168e-02,4.469650611281394958e-02,-6.679171323776245117e-02,-9.879000484943389893e-02,-1.697825454175472260e-02,-1.138668041676282883e-02,-3.467760235071182251e-02,-1.926555931568145752e-01,-2.096013538539409637e-02,1.202550083398818970e-01,4.181902110576629639e-02,3.566835448145866394e-02,-1.710637062788009644e-01,3.309357166290283203e-02,1.401077117770910263e-02,-9.194779209792613983e-03,5.396695062518119812e-02,1.031599193811416626e-01,-7.673343271017074585e-02,-1.776721924543380737e-01,8.264896273612976074e-02,1.760545670986175537e-01,-6.731985509395599365e-02,-1.145547777414321899e-01,5.371133238077163696e-02,2.425120398402214050e-02,4.471470788121223450e-02,-5.331515893340110779e-02,-8.016299456357955933e-02,-8.020370453596115112e-02,2.488203905522823334e-02,-1.174714490771293640e-01,-1.198830530047416687e-01,6.410815566778182983e-02,-9.270548820495605469e-02,-8.637925982475280762e-02,1.581506133079528809e-01,-5.098157748579978943e-02,1.295212656259536743e-02,3.001077286899089813e-02,4.964987561106681824e-02,-2.331452630460262299e-02,4.874049127101898193e-02,4.017814993858337402e-02,-1.877199411392211914e-01,-1.241467148065567017e-01,-2.112658321857452393e-02,2.160694263875484467e-02,4.604129493236541748e-02,-2.987022139132022858e-02,-5.597181245684623718e-02,1.676016300916671753e-01,1.522040665149688721e-01,1.115306615829467773e-01
-9.484208375215530396e-02,-5.703129246830940247e-02,-1.845230758190155029e-01,-1.066530570387840271e-01,-4.276474937796592712e-02,2.261965535581111908e-03,-5.155519396066665649e-02,3.265061601996421814e-02,-4.421288892626762390e-02,-1.059195920825004578e-01,-1.932193487882614136e-01,-1.184163093566894531e-01,-8.315752446651458740e-02,-2.783025242388248444e-02,1.031634435057640076e-01,-1.016865968704223633e-01,-4.697855561971664429e-03,2.877221442759037018e-02,-3.909013699740171432e-03,1.311644613742828369e-01,2.837894856929779053e-02,1.629995554685592651e-01,1.268408447504043579e-01,1.099529862403869629e-01,1.979857310652732849e-02,4.532879218459129333e-02,1.379695981740951538e-01,8.834908716380596161e-03,1.568396389484405518e-02,3.604574128985404968e-02,9.816019237041473389e-02,1.910997368395328522e-02,1.720374226570129395e-01,9.495045244693756104e-02,-4.433562979102134705e-02,1.669100075960159302e-01,1.588511466979980469e-01,-3.543046116828918457e-02,1.632367968559265137e-01,1.509359925985336304e-01,-8.361568301916122437e-02,1.902564316987991333e-01,-2.463366091251373291e-02,-3.440533205866813660e-02,-1.634428054094314575e-01,2.750816382467746735e-02,-7.979506999254226685e-02,3.996916487812995911e-02,1.921640709042549133e-02,-9.660210460424423218e-02,-8.050047606229782104e-02,-3.013022057712078094e-02,-6.468375772237777710e-02,-1.302887648344039917e-01,5.352860689163208008e-02,6.128899008035659790e-02,-1.520289201289415359e-02,2.106396295130252838e-02,1.131623145192861557e-02,-3.559694066643714905e-02,5.089366063475608826e-02,-8.778247982263565063e-02,9.054077416658401489e-02,7.068097591400146484e-02,-1.573460400104522705e-01,5.623805150389671326e-02,1.278997659683227539e-01,-1.308851689100265503e-01,-1.186303272843360901e-01,1.105299741029739380e-01,-1.845616847276687622e-01,-9.802486002445220947e-02,-2.068160101771354675e-02,-8.277384191751480103e-02,3.868496790528297424e-02,6.431343406438827515e-02,-2.169010229408740997e-02,-4.863964766263961792e-02,6.948236376047134399e-02,-1.526657640933990479e-01,-1.580439656972885132e-01,-1.016176268458366394e-01,1.331210415810346603e-02,-6.626730319112539291e-03,3.069784678518772125e-02,-1.561732292175292969e-01,-1.134704127907752991e-01,-1.205292567610740662e-01,-1.035168766975402832e-01,3.266812488436698914e-02,3.988906368613243103e-02,6.567721068859100342e-02,-1.261675804853439331e-01,-1.195353791117668152e-01,-7.079774886369705200e-02,-1.094989702105522156e-01,1.106656994670629501e-02,1.469749361276626587e-01,-4.472183808684349060e-02,-5.154937505722045898e-02,-1.106198355555534363e-01,-1.774985343217849731e-02,4.161974787712097168e-02,8.788172900676727295e-02,1.414201408624649048e-01,3.389519080519676208e-02,-9.729281067848205566e-02,-1.299216896295547485e-01,-7.688462734222412109e-02,-1.125984787940979004e-01,1.654742658138275146e-01,-5.555880069732666016e-02,-5.009157583117485046e-02,-1.752298921346664429e-01,1.325428783893585205e-01,-2.822409570217132568e-02,-4.532694816589355469e-02,-1.964332349598407745e-02,1.539877206087112427e-01,1.113688759505748749e-02,1.192092299461364746e-01,2.987678349018096924e-02,-1.079905852675437927e-01,2.302492037415504456e-02,1.695523262023925781e-01,3.361834585666656494e-02,1.435597389936447144e-01,-5.449605733156204224e-02
-7.833007723093032837e-02,1.325441990047693253e-03,-1.292859464883804321e-01,3.225007280707359314e-02,5.490310117602348328e-02,1.248619705438613892e-02,-1.169652864336967468e-01,5.619684979319572449e-02,8.897629380226135254e-02,6.285240501165390015e-02,-1.362878829240798950e-02,-6.447368860244750977e-02,-4.235673695802688599e-02,1.342814713716506958e-01,6.801300495862960815e-02,3.064252808690071106e-02,4.305618628859519958e-02,3.224454820156097412e-02,-1.025100350379943848e-01,-8.401688188314437866e-02,-5.950605031102895737e-03,-1.008409634232521057e-01,6.648316979408264160e-02,-8.152528852224349976e-02,4.724474158138036728e-03,-4.869819059967994690e-02,5.864514783024787903e-02,8.304806798696517944e-02,-4.378559812903404236e-02,-1.530675310641527176e-02,-6.376077979803085327e-02,-1.275035142898559570e-01,-1.773764938116073608e-02,-1.685832589864730835e-01,1.916047185659408569e-01,-1.109047085046768188e-01,8.064727485179901123e-02,3.722441568970680237e-02,-4.963986575603485107e-02,-1.662405282258987427e-01,-9.432619810104370117e-02,5.142503976821899414e-02,3.973891958594322205e-02,-2.262348541989922523e-03,1.778822205960750580e-02,1.389978677034378052e-01,-1.604329645633697510e-01,6.752207130193710327e-02,7.065226882696151733e-02,-8.540845662355422974e-02,6.052715703845024109e-02,-1.008349210023880005e-01,-1.363106667995452881e-01,4.837425425648689270e-02,1.757263392210006714e-01,-1.103356406092643738e-01,1.521062850952148438e-01,-7.387818396091461182e-02,9.278049110434949398e-04,3.040233068168163300e-02,-7.873535156250000000e-02,-1.516987532377243042e-01,1.024122536182403564e-02,3.143170103430747986e-02,-1.217409502714872360e-02,6.794289499521255493e-02,-4.429259523749351501e-02,-1.696216128766536713e-02,1.300127804279327393e-02,-6.138778477907180786e-02,8.617564290761947632e-02,-2.987314760684967041e-02,1.260474175214767456e-01,6.831631809473037720e-02,5.130044370889663696e-02,4.335020482540130615e-02,1.347684301435947418e-02,-1.536905951797962189e-02,1.344857811927795410e-01,-1.772868186235427856e-01,-4.325584322214126587e-02,9.610649943351745605e-02,5.520323663949966431e-02,5.595717579126358032e-02,-1.721198484301567078e-02,-4.298362508416175842e-02,-2.594955638051033020e-02,-2.752329409122467041e-02,7.396986335515975952e-02,6.332946568727493286e-02,1.559995263814926147e-01,-7.675412297248840332e-02,6.013885140419006348e-02,7.972808182239532471e-02,1.049845144152641296e-01,-3.212761878967285156e-02,5.833640322089195251e-02,2.609861269593238831e-02,-1.242783293128013611e-01,-4.455459862947463989e-02,-6.501845270395278931e-02,-1.798087060451507568e-01,1.774798147380352020e-02,1.344743520021438599e-01,1.771571636199951172e-01,2.148150280117988586e-02,-6.977632641792297363e-03,8.103965222835540771e-02,1.186864003539085388e-01,4.848910868167877197e-02,-5.316188558936119080e-03,1.311118155717849731e-01,1.070057079195976257e-01,1.116866245865821838e-01,-6.459935754537582397e-02,-7.329050451517105103e-02,-5.755698680877685547e-02,-1.168225929141044617e-01,8.744465559720993042e-02,1.061380654573440552e-01,5.937480833381414413e-03,9.333168715238571167e-02,-7.736909389495849609e-02,1.906731049530208111e-03,-4.806236922740936279e-02,3.900259360671043396e-02,-2.846547774970531464e-02,4.624610766768455505e-02
-2.109730988740921021e-02,8.116047829389572144e-02,-1.083279252052307129e-01,-1.703446358442306519e-01,2.523288503289222717e-02,-8.446059376001358032e-02,4.843686893582344055e-02,3.449634090065956116e-02,-3.077262081205844879e-02,4.823281243443489075e-02,1.051554735749959946e-02,-1.079238429665565491e-01,-9.078205563127994537e-03,8.710832148790359497e-02,-5.967476591467857361e-02,-1.201586332172155380e-02,-1.462114602327346802e-01,5.701342225074768066e-02,-1.108325123786926270e-01,-8.944828063249588013e-02,1.188907027244567871e-01,-2.808845415711402893e-02,3.588065132498741150e-02,-4.207780119031667709e-03,-9.311416000127792358e-02,9.028223156929016113e-02,-4.912584647536277771e-02,-7.705560419708490372e-03,-5.989614874124526978e-02,4.679502546787261963e-02,1.898388266563415527e-01,-1.531801074743270874e-01,2.430917695164680481e-02,-1.030818000435829163e-01,1.602001041173934937e-01,1.792171411216259003e-02,-3.505876660346984863e-02,-1.110522300004959106e-01,1.243204399943351746e-01,-7.467690110206604004e-02,3.209244087338447571e-02,-6.439901422709226608e-03,4.910806566476821899e-02,1.068410277366638184e-01,1.565654724836349487e-01,6.774838268756866455e-02,5.451862141489982605e-02,1.066456064581871033e-01,-3.828765079379081726e-02,3.899204358458518982e-02,7.373113930225372314e-02,-1.047976762056350708e-01,1.587279699742794037e-02,-5.036609247326850891e-02,1.972069144248962402e-01,-8.266229182481765747e-02,-2.484825067222118378e-02,3.106463886797428131e-02,1.237440481781959534e-01,8.683457225561141968e-02,-1.149310022592544556e-01,5.060916021466255188e-02,-3.584093973040580750e-02,-6.557572633028030396e-02,-5.339718610048294067e-02,3.762184083461761475e-02,-1.221928745508193970e-01,3.253226354718208313e-02,1.675080694258213043e-02,-6.180206686258316040e-02,-4.999499022960662842e-02,1.979404129087924957e-02,-1.259062346071004868e-02,3.396588563919067383e-02,1.013704314827919006e-01,-3.638128982856869698e-03,-1.837164610624313354e-01,-1.793690174818038940e-01,-9.188871085643768311e-02,8.629457652568817139e-02,-5.415038019418716431e-02,8.063220232725143433e-02,2.129582129418849945e-02,1.288166791200637817e-01,-4.209716245532035828e-02,-6.733117252588272095e-02,-2.177747152745723724e-02,2.250079251825809479e-02,-1.608550548553466797e-02,-1.157463416457176208e-01,-8.090514689683914185e-02,5.534315854310989380e-02,1.206969171762466431e-01,-1.657949239015579224e-01,-2.609690092504024506e-02,-1.298990249633789062e-01,1.790174394845962524e-01,5.864052847027778625e-02,-1.955707222223281860e-01,2.125411480665206909e-02,7.839962095022201538e-02,4.608908295631408691e-02,-6.304275244474411011e-02,-1.154105290770530701e-01,9.123631753027439117e-03,1.324693765491247177e-02,5.556173250079154968e-02,8.466440439224243164e-02,1.843327283859252930e-02,-1.689285486936569214e-01,-1.768085174262523651e-02,-2.347958460450172424e-02,-2.511098049581050873e-02,4.162340238690376282e-02,-1.116422787308692932e-01,1.542473584413528442e-01,-5.578516796231269836e-02,-1.678802520036697388e-01,5.989099293947219849e-02,-2.972384728491306305e-02,9.252668917179107666e-02,-1.205292493104934692e-01,-1.744626611471176147e-01,3.681046143174171448e-02,-5.565883591771125793e-02,-1.295257061719894409e-01,7.292984426021575928e-02,-4.253603890538215637e-02
1.068689748644828796e-01,1.421305388212203979e-01,4.672856628894805908e-02,7.246603071689605713e-02,-2.159795723855495453e-02,-1.312303263694047928e-02,-2.798372320830821991e-02,-4.151666536927223206e-02,2.277363277971744537e-02,-1.713891625404357910e-01,1.877370639704167843e-03,1.192316189408302307e-01,3.004434704780578613e-02,1.454389244318008423e-01,-1.091374978423118591e-01,-3.755913348868489265e-03,4.585905000567436218e-02,1.349235046654939651e-02,7.211393117904663086e-02,1.651352494955062866e-01,4.522529989480972290e-02,1.022119522094726562e-01,-3.823768720030784607e-02,1.385058462619781494e-01,-1.063250703737139702e-03,-2.202777191996574402e-02,-6.168382242321968079e-02,1.049082279205322266e-01,2.168153785169124603e-02,1.262501925230026245e-01,2.849229983985424042e-02,1.402131319046020508e-01,-1.217848211526870728e-01,-3.668385371565818787e-02,-4.525761306285858154e-02,9.107299894094467163e-02,-7.674144208431243896e-02,1.068857591599225998e-02,1.391428858041763306e-01,1.863984041847288609e-03,-1.388484686613082886e-01,3.347851708531379700e-02,-4.839722812175750732e-02,2.018907852470874786e-02,-1.993709057569503784e-02,-1.958985030651092529e-01,-1.471389830112457275e-01,4.380730912089347839e-02,1.738623231649398804e-01,-1.893525570631027222e-02,-3.577979980036616325e-03,4.943621158599853516e-02,-1.092815771698951721e-01,1.629743026569485664e-03,-5.610318854451179504e-02,1.364170922897756100e-03,-3.894520178437232971e-02,3.338717296719551086e-02,-8.100213855504989624e-02,1.526409238576889038e-01,-7.145392149686813354e-02,-3.840568289160728455e-02,-1.281303763389587402e-01,4.884024709463119507e-02,-6.487823277711868286e-02,-2.275217883288860321e-02,1.354426592588424683e-01,-1.645650118589401245e-01,-8.482316881418228149e-02,-1.463140081614255905e-02,4.723415896296501160e-02,-5.748542025685310364e-02,-4.141223151236772537e-03,-4.718522354960441589e-02,1.461711972951889038e-01,-1.382533311843872070e-01,-7.711716741323471069e-02,-4.348260909318923950e-02,-7.108862698078155518e-02,-2.927367389202117920e-02,6.566887348890304565e-02,9.635173529386520386e-02,5.379150062799453735e-02,2.435781620442867279e-02,1.761183724738657475e-03,-6.528444588184356689e-02,-1.658138334751129150e-01,-1.773354224860668182e-02,2.139934897422790527e-02,2.022426761686801910e-02,1.271631121635437012e-01,1.761013865470886230e-01,-4.408920928835868835e-02,1.619583368301391602e-02,4.519161209464073181e-02,-1.007337793707847595e-01,1.527464091777801514e-01,1.183083932846784592e-02,1.807735860347747803e-01,-2.888548374176025391e-02,6.128441914916038513e-02,2.220335975289344788e-02,1.094198152422904968e-01,-2.156463824212551117e-02,1.005062088370323181e-01,-3.822119161486625671e-02,1.407873332500457764e-01,1.031729206442832947e-01,1.730726212263107300e-01,3.559986874461174011e-02,-8.366983383893966675e-02,-8.791918307542800903e-02,-2.369786053895950317e-02,4.558068141341209412e-02,-6.789712607860565186e-02,8.942690491676330566e-02,8.788625709712505341e-03,-5.079440027475357056e-02,-1.118288561701774597e-01,5.641141906380653381e-03,6.111445650458335876e-02,1.475796252489089966e-01,3.080956451594829559e-02,1.292175203561782837e-01,-1.089866906404495239e-01,-2.099598385393619537e-02,-6.898493319749832153e-02,-7.418373227119445801e-02
2.428102307021617889e-02,-4.068120196461677551e-02,1.438479125499725342e-01,3.641218692064285278e-02,8.829604834318161011e-02,8.448772132396697998e-02,1.007208377122879028e-01,-1.133181434124708176e-02,4.754377529025077820e-02,4.325275495648384094e-02,-1.724311523139476776e-02,9.433165192604064941e-02,-4.848050698637962341e-02,8.827691525220870972e-02,-2.844559215009212494e-02,3.543682768940925598e-02,-4.281553253531455994e-02,-1.016685143113136292e-01,-7.697111368179321289e-02,-1.979827694594860077e-02,-5.593087151646614075e-02,-2.282801270484924316e-02,4.907643422484397888e-02,-1.024229899048805237e-01,-5.591553077101707458e-02,1.113983616232872009e-01,-1.280757635831832886e-01,-3.782663866877555847e-02,1.003466248512268066e-01,-6.740906089544296265e-02,-1.493812818080186844e-02,1.538064628839492798e-01,8.452638238668441772e-02,1.327182818204164505e-02,2.843243256211280823e-02,1.661323159933090210e-01,-5.769262835383415222e-02,1.684207171201705933e-01,-1.014597043395042419e-01,3.223690390586853027e-02,4.885918274521827698e-02,-9.174042940139770508e-02,3.194206580519676208e-02,8.985471725463867188e-02,1.534008886665105820e-02,-1.305549126118421555e-02,3.476821258664131165e-02,-4.003198817372322083e-02,1.863743062131106853e-03,-2.947255782783031464e-02,8.936363458633422852e-02,-1.474797576665878296e-01,5.719725042581558228e-02,1.366245653480291367e-02,1.186401471495628357e-01,1.286738961935043335e-01,6.506644934415817261e-02,1.299935430288314819e-01,2.385879866778850555e-02,-2.285866998136043549e-02,-1.642967164516448975e-01,-1.796322502195835114e-02,1.792833022773265839e-02,5.523493513464927673e-02,-1.421862374991178513e-02,-4.935067147016525269e-02,3.953760955482721329e-03,-2.979781292378902435e-02,1.546097733080387115e-02,1.213431730866432190e-01,2.778863720595836639e-02,1.686404794454574585e-01,2.927785925567150116e-02,-7.504150271415710449e-02,5.497936159372329712e-02,-3.345994278788566589e-03,9.940955042839050293e-02,-1.479190494865179062e-02,1.958295404911041260e-01,-6.142750382423400879e-02,-4.345860797911882401e-03,1.182394027709960938e-01,3.352225571870803833e-02,1.212500855326652527e-01,-4.416230320930480957e-02,4.185258597135543823e-02,-9.923357516527175903e-02,5.312202125787734985e-02,5.953998491168022156e-02,6.000892072916030884e-02,1.896858513355255127e-01,4.582577571272850037e-02,-4.938512668013572693e-02,-4.973086342215538025e-02,-1.232939511537551880e-01,-1.138529330492019653e-01,-8.581506460905075073e-02,8.595387637615203857e-02,-1.341068893671035767e-01,1.086643338203430176e-01,-1.635068506002426147e-01,-5.797233060002326965e-02,-1.555819660425186157e-01,-1.128543633967638016e-02,-1.903383582830429077e-01,1.004362478852272034e-01,5.596769973635673523e-02,8.271091617643833160e-03,1.237715501338243484e-02,5.106478556990623474e-02,4.549267143011093140e-02,-2.712987363338470459e-02,3.140540793538093567e-02,-1.632745414972305298e-01,7.880782335996627808e-02,1.217860579490661621e-01,1.622981131076812744e-01,3.277901932597160339e-02,-1.046386733651161194e-01,7.060849666595458984e-02,5.990986153483390808e-02,-1.095977984368801117e-02,1.863851398229598999e-02,-2.141510881483554840e-02,-1.176026067696511745e-03,-2.089476957917213440e-02,-8.142623305320739746e-02,3.333573788404464722e-02
-8.391884714365005493e-02,-6.103585939854383469e-03,1.283657997846603394e-01,-2.663615345954895020e-02,-1.274074167013168335e-01,-4.732368513941764832e-02,-1.304228156805038452e-01,1.364172548055648804e-01,-1.677692234516143799e-01,1.714284121990203857e-01,9.282089024782180786e-02,-7.263197749853134155e-02,1.705339998006820679e-01,1.323691904544830322e-01,7.946159690618515015e-03,5.091101676225662231e-02,-7.570586353540420532e-02,-1.916431784629821777e-01,-1.481016874313354492e-01,-5.979732424020767212e-02,-2.227958291769027710e-02,6.927763670682907104e-02,2.608353272080421448e-02,3.379053249955177307e-02,2.818128839135169983e-02,-9.581985324621200562e-02,-3.138338914141058922e-03,-1.340192705392837524e-01,2.262352500110864639e-03,-9.801134467124938965e-03,2.023563534021377563e-02,-1.362411230802536011e-01,-1.129154711961746216e-01,-3.077730908989906311e-02,8.438789099454879761e-02,-9.409504383802413940e-02,3.316323505714535713e-03,4.891966655850410461e-02,4.657106846570968628e-02,6.006654351949691772e-03,-1.131308302283287048e-01,-2.376135438680648804e-02,7.021977752447128296e-02,-7.317241281270980835e-02,-6.127987429499626160e-02,9.699288010597229004e-02,8.695853501558303833e-02,-2.263232134282588959e-02,-5.554061383008956909e-03,4.989537224173545837e-02,7.055400311946868896e-02,1.140204071998596191e-01,-1.490989476442337036e-01,2.019668929278850555e-02,4.644394665956497192e-02,-9.843217581510543823e-02,-1.500233449041843414e-02,-7.530568540096282959e-02,-5.690434575080871582e-02,2.607484580948948860e-03,6.026731338351964951e-03,-2.218990772962570190e-02,-1.245475411415100098e-01,5.514337494969367981e-02,-4.359777271747589111e-02,-1.718231439590454102e-01,1.499593704938888550e-01,-7.183881103992462158e-02,-4.033915325999259949e-02,3.151492029428482056e-02,5.264774896204471588e-03,2.809879137203097343e-03,4.953473806381225586e-02,6.430916488170623779e-02,6.042307615280151367e-02,-1.662629656493663788e-02,-9.813063591718673706e-02,1.563313975930213928e-02,1.260148733854293823e-01,6.150795891880989075e-02,5.529407411813735962e-02,5.737926438450813293e-02,3.835992142558097839e-02,-7.734501268714666367e-03,-3.184758871793746948e-02,1.041097864508628845e-01,4.945158585906028748e-02,7.365467399358749390e-02,6.528306752443313599e-03,8.583413809537887573e-02,8.578860014677047729e-02,1.204333920031785965e-02,-2.168821357190608978e-02,-1.651136279106140137e-01,1.626436226069927216e-02,-1.261334028095006943e-02,1.010110750794410706e-01,-9.263136237859725952e-02,-4.597516730427742004e-02,6.641307473182678223e-02,-9.918624162673950195e-02,3.741728886961936951e-02,-9.688749909400939941e-03,4.366557672619819641e-02,1.041977629065513611e-01,1.476340647786855698e-02,4.785405844449996948e-02,7.421100139617919922e-02,6.338730454444885254e-04,4.971101880073547363e-02,-1.162296906113624573e-01,3.285054815933108330e-03,2.078466676175594330e-02,1.182895526289939880e-01,-5.801286082714796066e-03,-1.157039925456047058e-01,5.366981029510498047e-02,-5.891702696681022644e-02,-1.292475759983062744e-01,6.350595504045486450e-03,7.373693585395812988e-02,-5.692585185170173645e-02,-1.563551276922225952e-01,2.680966071784496307e-02,-1.216063275933265686e-01,-1.240500062704086304e-02,4.734682291746139526e-02,1.384145617485046387e-01
-3.813171386718750000e-02,-7.147884368896484375e-02,3.274516388773918152e-02,-1.235726028680801392e-01,4.853921756148338318e-02,1.310349106788635254e-01,-4.454771522432565689e-03,-1.000063568353652954e-01,-1.123151928186416626e-01,-2.134678652510046959e-03,-1.575989574193954468e-01,-8.290596306324005127e-02,6.533078104257583618e-02,-7.727306336164474487e-02,5.321764573454856873e-02,-1.012287959456443787e-01,-2.206325344741344452e-02,-6.010922789573669434e-02,-1.637067496776580811e-01,1.451676636934280396e-01,-2.145031467080116272e-02,2.300203591585159302e-02,-9.583582729101181030e-02,-1.022542938590049744e-01,8.134034276008605957e-02,-3.676493465900421143e-02,4.225486144423484802e-02,6.140376254916191101e-02,7.030266523361206055e-02,7.501749694347381592e-02,1.031230296939611435e-02,-6.829742342233657837e-02,-1.147347241640090942e-01,-6.679978966712951660e-02,3.592426702380180359e-02,1.398728489875793457e-01,1.617847830057144165e-01,-1.375757753849029541e-01,2.512665651738643646e-02,-1.200085505843162537e-01,1.212729811668395996e-01,-1.356213074177503586e-02,-1.051755901426076889e-02,3.613634500652551651e-03,4.001886770129203796e-02,-1.204357966780662537e-01,-1.454034149646759033e-01,1.826470158994197845e-02,1.632174663245677948e-02,-3.164112195372581482e-02,5.578303337097167969e-02,7.351496070623397827e-02,-1.035072747617959976e-02,-9.249518066644668579e-02,8.506755344569683075e-03,-1.729846000671386719e-01,9.065398573875427246e-02,1.364669054746627808e-01,8.905562758445739746e-02,1.172346845269203186e-01,-7.012098561972379684e-03,-6.473015248775482178e-02,-1.882739812135696411e-01,-1.667711324989795685e-02,-1.614354699850082397e-01,-4.706250876188278198e-02,7.586098462343215942e-02,8.479981124401092529e-02,1.097164750099182129e-01,-3.897939249873161316e-02,2.169462852180004120e-02,7.499478757381439209e-02,1.131806746125221252e-01,4.157914221286773682e-02,-1.423597484827041626e-01,4.401638731360435486e-02,-2.118482440710067749e-02,-4.021701589226722717e-02,-1.448395252227783203e-01,-4.926019161939620972e-02,-5.525156855583190918e-02,-1.441731899976730347e-01,3.066906891763210297e-02,1.326879113912582397e-01,1.907961070537567139e-02,8.475390821695327759e-02,1.031032204627990723e-01,1.452527791261672974e-01,3.481167182326316833e-02,1.102847862057387829e-03,-1.060482487082481384e-01,8.981712162494659424e-02,-1.351444888859987259e-02,-1.708766259253025055e-02,-5.544013530015945435e-02,7.107820361852645874e-02,9.557134658098220825e-02,1.229527057148516178e-03,2.117474190890789032e-02,8.324429392814636230e-02,5.554927140474319458e-02,-7.293742150068283081e-02,-3.942969441413879395e-02,-5.153781175613403320e-02,-5.064603406935930252e-03,-1.384491026401519775e-01,-9.014849364757537842e-02,1.596498340368270874e-01,-1.618978232145309448e-01,-7.134895771741867065e-02,-1.537418514490127563e-01,-9.232937358319759369e-03,1.422799676656723022e-01,-1.106151342391967773e-01,-5.948133021593093872e-02,-8.309531211853027344e-02,2.366799674928188324e-02,-1.039259210228919983e-01,-2.633073367178440094e-02,4.941258206963539124e-02,6.175891682505607605e-02,-3.586076898500323296e-03,-4.950579628348350525e-02,-9.356156736612319946e-02,-6.108203157782554626e-02,-1.029916293919086456e-02,-8.306928724050521851e-02,4.264375567436218262e-02
-1.384032368659973145e-01,-2.108217179775238037e-01,1.800009906291961670e-01,1.773738861083984375e-02,5.117629840970039368e-02,-4.137336835265159607e-02,-8.032445609569549561e-02,3.429742902517318726e-02,3.264161199331283569e-02,-1.144111994653940201e-02,7.172704488039016724e-02,5.280965194106101990e-02,4.817628115415573120e-02,5.899939686059951782e-02,1.006282195448875427e-01,-1.302566975355148315e-01,-1.933984644711017609e-02,3.895533084869384766e-02,-1.275406628847122192e-01,-2.173049598932266235e-01,2.687113732099533081e-02,-1.735009104013442993e-01,-3.927423432469367981e-02,8.442869037389755249e-02,-1.209697127342224121e-01,1.461555212736129761e-01,1.563683338463306427e-02,-8.901219069957733154e-02,1.055639684200286865e-01,7.861050963401794434e-02,1.757778972387313843e-01,3.089900612831115723e-01,1.637144237756729126e-01,3.935420513153076172e-02,9.750418365001678467e-03,-4.157577455043792725e-02,-9.013405442237854004e-02,1.340660452842712402e-01,-4.450878500938415527e-02,-4.202035814523696899e-02,4.266721382737159729e-02,1.771617978811264038e-01,1.238168030977249146e-01,-2.400950714945793152e-02,2.271148711442947388e-01,2.145433276891708374e-01,1.083502545952796936e-02,7.359702140092849731e-02,7.135190814733505249e-02,-3.685788810253143311e-02,6.410182267427444458e-02,6.094415485858917236e-02,-4.411273077130317688e-02,-6.231273338198661804e-02,4.664697125554084778e-02,4.314243420958518982e-02,1.155166774988174438e-01,5.279064550995826721e-02,-1.253606565296649933e-02,1.373237520456314087e-01,5.982317030429840088e-02,1.265869736671447754e-01,6.972643733024597168e-02,7.824311405420303345e-02,3.454273333773016930e-03,1.670629084110260010e-01,7.268683612346649170e-02,2.458344101905822754e-01,-3.974208980798721313e-02,9.792350977659225464e-02,4.658897221088409424e-02,1.532044708728790283e-01,8.441904932260513306e-02,-9.073775261640548706e-03,1.333810687065124512e-01,4.005470871925354004e-01,5.124031007289886475e-02,3.145395219326019287e-02,1.208584904670715332e-01,3.911604359745979309e-02,1.865208446979522705e-01,2.949841693043708801e-02,6.170411780476570129e-02,2.118068747222423553e-02,4.877883195877075195e-02,1.832375824451446533e-01,6.186740845441818237e-02,1.987589299678802490e-01,1.833770722150802612e-01,6.199174746870994568e-02,-1.864266544580459595e-01,1.448262035846710205e-01,9.130015224218368530e-02,6.460300181061029434e-03,1.096942573785781860e-01,6.223247945308685303e-02,2.049677222967147827e-01,2.384847402572631836e-01,-9.951438009738922119e-02,9.197108447551727295e-02,6.189902499318122864e-02,-1.387847028672695160e-02,-2.037798166275024414e-01,-7.961333543062210083e-02,1.717614233493804932e-01,-4.609083756804466248e-02,-4.330299049615859985e-02,6.516084540635347366e-03,1.262368448078632355e-02,5.652935802936553955e-02,-4.195118322968482971e-02,7.455728948116302490e-03,1.667305529117584229e-01,-8.426378667354583740e-02,8.536296337842941284e-02,-3.332561627030372620e-02,1.708328872919082642e-01,3.383668065071105957e-01,-1.541956216096878052e-01,1.442562043666839600e-02,2.824348211288452148e-02,-8.823140710592269897e-02,4.651640355587005615e-02,2.057948336005210876e-02,2.203905284404754639e-01,5.672084912657737732e-02,2.085420936346054077e-01,1.077712252736091614e-01
3.708981350064277649e-02,7.220407575368881226e-02,-4.365003481507301331e-02,-6.535518169403076172e-02,-8.848741650581359863e-02,8.854496479034423828e-02,-2.972636185586452484e-02,-5.292024090886116028e-02,-1.306662261486053467e-01,-4.651247709989547729e-02,-6.116926670074462891e-02,-1.820725947618484497e-01,-1.586260646581649780e-01,1.331056207418441772e-01,3.856492787599563599e-02,2.891507744789123535e-02,4.888410866260528564e-02,-3.648689389228820801e-02,6.781455129384994507e-02,-6.431805342435836792e-02,1.999905519187450409e-02,9.587820619344711304e-02,-1.188733503222465515e-01,-7.077081594616174698e-03,-1.336458027362823486e-01,1.629797182977199554e-02,-5.550888925790786743e-02,1.765601709485054016e-02,1.008469834923744202e-01,-2.023204602301120758e-02,-5.086134746670722961e-02,3.957919031381607056e-02,-4.279026761651039124e-03,-3.923030104488134384e-03,1.975866034626960754e-02,1.163185015320777893e-01,-1.578685790300369263e-01,-2.661202847957611084e-02,7.389257103204727173e-02,1.911306828260421753e-01,8.566898107528686523e-02,-5.394089967012405396e-02,-4.023173451423645020e-02,-5.084964260458946228e-02,2.639635279774665833e-02,1.701171845197677612e-01,8.937262743711471558e-02,1.320174187421798706e-01,-7.755423430353403091e-03,-7.732938975095748901e-03,8.371936529874801636e-02,1.010498926043510437e-01,-2.001281129196286201e-03,-1.072446703910827637e-01,-3.786602988839149475e-02,7.883559912443161011e-02,1.546602230519056320e-02,1.062731742858886719e-01,-2.244262211024761200e-02,-4.600448906421661377e-02,-9.064610116183757782e-03,1.611280441284179688e-01,-1.520145386457443237e-01,-8.565764292143285275e-04,9.243072569370269775e-02,-9.561648219823837280e-02,-1.035433262586593628e-02,1.100612711161375046e-02,1.082930341362953186e-01,6.223420146852731705e-03,-6.166047602891921997e-02,-7.705926150083541870e-02,-1.145078316330909729e-01,-1.138801723718643188e-01,1.896318234503269196e-02,1.713352799415588379e-01,-1.121788248419761658e-01,-9.312555938959121704e-02,-4.726923257112503052e-02,-1.648903340101242065e-01,-1.138145476579666138e-01,-5.213983356952667236e-03,1.756700128316879272e-01,6.606578244827687740e-04,-1.606682129204273224e-02,1.833459436893463135e-01,-4.534740000963211060e-03,-5.185533687472343445e-02,2.613097243010997772e-02,1.943109557032585144e-02,4.325037822127342224e-02,1.499372571706771851e-01,4.082641378045082092e-02,1.729164123535156250e-01,1.840555481612682343e-02,-8.186155557632446289e-02,-6.620374321937561035e-02,1.414584964513778687e-01,4.544688388705253601e-02,1.252914220094680786e-02,4.703401774168014526e-02,-1.015607044100761414e-01,7.601933926343917847e-02,-4.109718650579452515e-02,3.493377193808555603e-02,1.319840252399444580e-01,-2.222154848277568817e-02,1.336622685194015503e-01,2.039009332656860352e-02,-6.279417872428894043e-02,-7.762382924556732178e-02,1.679987832903862000e-02,3.736395016312599182e-02,1.465159058570861816e-01,-4.178642411716282368e-04,-3.221639618277549744e-02,4.797021672129631042e-02,1.521053612232208252e-01,-7.731253653764724731e-02,1.369744539260864258e-02,-1.632338576018810272e-02,3.768995404243469238e-02,-8.142019808292388916e-02,-1.144726797938346863e-01,-8.045528829097747803e-02,-4.622530564665794373e-02,1.460286136716604233e-02,-4.674307256937026978e-02
-1.792936213314533234e-02,-2.592072449624538422e-02,9.277331084012985229e-02,6.030107662081718445e-02,3.357447683811187744e-02,-4.862315487116575241e-03,-9.085258468985557556e-03,-9.596948325634002686e-02,-2.897526323795318604e-02,-1.243518590927124023e-01,4.443950951099395752e-02,-1.828296482563018799e-01,4.132253676652908325e-02,3.016632795333862305e-02,-1.055581197142601013e-01,1.235871240496635437e-01,-2.489557303488254547e-02,9.524030983448028564e-02,-1.932004243135452271e-01,-1.755483746528625488e-01,-1.975104957818984985e-02,-5.856315419077873230e-02,6.861557811498641968e-02,1.051445771008729935e-02,7.167989015579223633e-02,6.402900069952011108e-02,1.817979365587234497e-01,-6.658187508583068848e-02,-1.180218812078237534e-02,4.720317199826240540e-02,8.231288939714431763e-02,-5.805775150656700134e-02,-2.825657604262232780e-03,1.618224382400512695e-01,-1.348779052495956421e-01,6.416576355695724487e-02,-2.207583375275135040e-02,1.735279522836208344e-02,1.448549237102270126e-02,9.711552411317825317e-02,-1.248115822672843933e-01,1.988050043582916260e-01,1.916468027047812939e-03,4.808674007654190063e-02,2.745785377919673920e-02,6.673630326986312866e-02,-1.405400782823562622e-02,1.223588809370994568e-01,2.513919584453105927e-02,1.905977576971054077e-01,1.091558299958705902e-02,1.076030358672142029e-02,-7.734780758619308472e-02,1.044140458106994629e-01,3.708727657794952393e-03,-1.327659338712692261e-01,-8.952910453081130981e-02,-2.746263518929481506e-02,-8.467298001050949097e-02,8.627187460660934448e-02,-6.143176555633544922e-02,-8.600615896284580231e-03,-8.020105212926864624e-02,-5.660393461585044861e-02,-7.267306745052337646e-02,5.372948199510574341e-02,1.882967539131641388e-02,-3.633393719792366028e-02,5.758240446448326111e-02,-1.460069883614778519e-02,-1.463728100061416626e-01,-1.907325834035873413e-01,-8.320017904043197632e-02,1.436081379652023315e-01,-1.196587458252906799e-01,7.033373415470123291e-02,8.736329525709152222e-02,-9.621948003768920898e-02,1.278752237558364868e-01,9.520817548036575317e-02,-6.579488515853881836e-02,-1.767572462558746338e-01,1.714652962982654572e-02,7.160822302103042603e-02,-5.394030362367630005e-02,-4.142182692885398865e-02,-6.714832037687301636e-02,6.162158772349357605e-02,2.548371255397796631e-02,1.743086497299373150e-03,-5.897411610931158066e-03,-1.730062067508697510e-02,-7.694370299577713013e-02,-2.907369099557399750e-02,3.608925268054008484e-02,1.212098747491836548e-01,-1.231158599257469177e-01,-8.032398670911788940e-02,-2.740352414548397064e-02,-3.343314677476882935e-02,-6.556048244237899780e-02,-1.252106726169586182e-01,-1.060796249657869339e-02,-1.247557029128074646e-01,-1.448336690664291382e-01,-3.934838995337486267e-02,-1.040102243423461914e-01,-7.342239376157522202e-03,2.438352070748806000e-02,-2.289908006787300110e-02,-1.121537294238805771e-02,-6.126828119158744812e-02,1.619793623685836792e-01,-8.280319720506668091e-02,-1.840733736753463745e-02,1.284639388322830200e-01,7.898075133562088013e-02,-2.930270694196224213e-02,-3.130598366260528564e-02,-3.338295221328735352e-02,-1.428975313901901245e-01,-1.427961289882659912e-01,-5.244815256446599960e-03,4.566753655672073364e-02,1.911018230020999908e-02,7.395814359188079834e-02,2.293906733393669128e-02,-1.182801350951194763e-01
-4.972863942384719849e-02,-2.708189748227596283e-02,8.577298372983932495e-02,3.034857101738452911e-03,5.699070170521736145e-02,-5.250404030084609985e-02,-1.377057731151580811e-01,-6.415584683418273926e-02,9.202519804239273071e-02,6.774245947599411011e-02,-8.647528290748596191e-02,1.029447913169860840e-01,4.613759741187095642e-02,-2.366096246987581253e-03,-2.626404166221618652e-02,3.331600129604339600e-02,-8.984935469925403595e-03,-7.426740974187850952e-02,6.670039147138595581e-02,5.643689259886741638e-02,8.922304213047027588e-02,-1.731273829936981201e-01,-3.845673426985740662e-02,-1.105047389864921570e-01,9.949526190757751465e-02,-2.301991358399391174e-02,-1.119393482804298401e-01,-1.243642941117286682e-01,8.071624487638473511e-02,3.669544681906700134e-02,1.320509314537048340e-01,-5.675971042364835739e-03,-7.317976653575897217e-02,-3.861134871840476990e-02,-1.238462328910827637e-01,-1.075516548007726669e-02,7.176341116428375244e-02,9.691096097230911255e-02,-2.841309271752834320e-02,-6.694941967725753784e-02,3.710647299885749817e-02,-1.437066793441772461e-01,-1.802455075085163116e-02,5.810454115271568298e-02,5.476143583655357361e-02,8.286430686712265015e-02,-2.598382346332073212e-02,1.428814083337783813e-01,2.249208465218544006e-02,-1.906520687043666840e-02,1.086695119738578796e-01,-1.280801296234130859e-01,-6.663262844085693359e-02,-8.863337337970733643e-02,-1.424567587673664093e-02,-1.395863890647888184e-01,-1.271037608385086060e-01,-9.978278726339340210e-02,1.133782193064689636e-01,-1.889810338616371155e-02,-1.009506508708000183e-01,-1.660705730319023132e-02,7.474526017904281616e-02,2.401841804385185242e-02,4.461529478430747986e-02,3.983655571937561035e-02,-7.147312164306640625e-02,-5.299877002835273743e-02,-4.953282698988914490e-02,-1.783172041177749634e-01,1.339003890752792358e-01,-4.224977642297744751e-02,-4.752237349748611450e-02,1.098415777087211609e-01,-4.396358504891395569e-02,-2.851549163460731506e-02,-9.784705936908721924e-02,-1.060387417674064636e-01,-1.323196738958358765e-01,9.319689124822616577e-02,5.460404977202415466e-02,1.922007277607917786e-02,-3.980240970849990845e-02,9.592355787754058838e-02,-7.776398211717605591e-02,1.646021381020545959e-02,-7.323568314313888550e-02,-2.225587703287601471e-02,-1.390733569860458374e-01,-1.667988300323486328e-01,-8.056453429162502289e-03,-7.414510101079940796e-02,1.059694960713386536e-02,3.972209617495536804e-02,-2.004610560834407806e-02,1.858044266700744629e-01,-1.182749792933464050e-01,-5.148330330848693848e-02,9.994691610336303711e-02,-2.800880931317806244e-02,-1.506597828119993210e-02,-1.531353127211332321e-02,9.240725077688694000e-03,-7.303613424301147461e-02,-5.575703456997871399e-02,1.418894529342651367e-02,5.084227398037910461e-02,1.129060164093971252e-01,4.556600004434585571e-03,-3.683448582887649536e-02,-1.602260619401931763e-01,4.785718768835067749e-02,-1.189066767692565918e-01,6.324673444032669067e-02,7.496853917837142944e-02,1.354561001062393188e-01,-1.151629313826560974e-01,3.981127962470054626e-02,-1.158053278923034668e-01,3.597047179937362671e-03,9.451405704021453857e-02,4.701299220323562622e-02,7.286682724952697754e-03,-5.748856812715530396e-02,-3.245516913011670113e-03,-1.803273521363735199e-02,-7.568965107202529907e-02,-6.703763455152511597e-02
-9.722303599119186401e-02,9.813873469829559326e-02,-5.058187991380691528e-03,1.338043361902236938e-01,7.614003866910934448e-02,6.441472470760345459e-02,-8.361531794071197510e-02,-4.955046251416206360e-02,6.662680953741073608e-02,4.727120976895093918e-03,7.764554768800735474e-02,1.775781624019145966e-02,2.848811680451035500e-03,-5.783942341804504395e-02,1.024466156959533691e-01,-3.582629188895225525e-02,1.157745532691478729e-02,-4.437591135501861572e-02,4.196424037218093872e-02,1.260103937238454819e-02,5.122680589556694031e-02,7.761921733617782593e-02,-1.040000282227993011e-02,-1.916681602597236633e-02,-1.222187280654907227e-02,-1.633528769016265869e-01,-1.414494663476943970e-01,-2.701068855822086334e-02,-1.131751164793968201e-01,-2.867381647229194641e-02,-9.087063372135162354e-02,1.555275171995162964e-01,-9.262993931770324707e-03,-3.369511663913726807e-02,-1.527966093271970749e-02,-1.253508776426315308e-01,-4.039115831255912781e-02,1.732720732688903809e-01,-4.577751085162162781e-02,-8.608489483594894409e-02,1.494442969560623169e-01,3.438264876604080200e-02,4.972193390130996704e-02,-6.704342365264892578e-02,9.123309701681137085e-02,-3.782353922724723816e-02,5.857836827635765076e-02,6.503924727439880371e-02,-1.696763336658477783e-01,-2.016932889819145203e-02,-8.856248110532760620e-02,1.549590677022933960e-01,-1.570468023419380188e-02,5.117291212081909180e-02,-1.703381091356277466e-01,7.160457223653793335e-02,6.662768125534057617e-02,3.089535981416702271e-03,7.809022814035415649e-02,-1.102228090167045593e-01,-3.353740274906158447e-02,1.772299557924270630e-01,-1.037368178367614746e-01,-1.052219793200492859e-01,-9.685755521059036255e-02,1.349570453166961670e-01,-1.306322067975997925e-01,1.173382177948951721e-01,-1.477957516908645630e-01,1.072704792022705078e-01,6.613974273204803467e-02,3.529181703925132751e-02,-8.820702880620956421e-02,-2.275992929935455322e-02,3.844424709677696228e-02,4.049917683005332947e-02,1.306676119565963745e-01,1.757396268658339977e-03,-1.727743595838546753e-01,6.496244668960571289e-02,-2.077637799084186554e-02,1.834724545478820801e-01,1.045351028442382812e-01,-1.563400477170944214e-01,9.273814409971237183e-02,-6.077299267053604126e-02,7.609476894140243530e-02,1.717375367879867554e-01,-1.868482120335102081e-02,-9.960246086120605469e-02,1.125258132815361023e-01,-2.455130033195018768e-02,3.949424996972084045e-02,4.920874163508415222e-02,-9.157182276248931885e-02,-1.344988197088241577e-01,-3.969622403383255005e-02,-7.992895692586898804e-02,3.965042158961296082e-02,-2.470330148935317993e-02,-9.926141053438186646e-02,-8.587303012609481812e-02,-3.815787285566329956e-02,-1.110316067934036255e-01,-9.231028705835342407e-02,-7.658847607672214508e-03,-2.090613357722759247e-02,-1.309040039777755737e-01,1.120500490069389343e-01,-1.166803166270256042e-01,-2.392465248703956604e-02,-1.576061993837356567e-01,-8.509036153554916382e-02,-1.381559073925018311e-01,-8.190191537141799927e-02,-1.071252450346946716e-01,7.275692373514175415e-02,2.064148522913455963e-02,-1.528355926275253296e-01,1.492795497179031372e-01,8.352198451757431030e-02,-1.658285781741142273e-02,-5.505345296114683151e-03,7.897482067346572876e-02,-1.083772927522659302e-01,-2.377188019454479218e-02,-9.692941606044769287e-02,5.589080974459648132e-02
1.960421651601791382e-01,-1.124276518821716309e-01,1.552135050296783447e-01,-6.464513391256332397e-02,-6.218941137194633484e-02,1.600016206502914429e-01,-2.274337597191333771e-02,-6.201503425836563110e-02,7.971046864986419678e-02,-2.155714668333530426e-02,-5.168918520212173462e-02,-1.579531729221343994e-01,-9.918637573719024658e-02,-4.121851548552513123e-02,2.739399112761020660e-02,-1.825773715972900391e-01,9.521465748548507690e-02,1.504952609539031982e-01,-5.704253911972045898e-02,1.094081178307533264e-01,-1.281556487083435059e-01,-3.312375163659453392e-03,-1.065486595034599304e-01,-3.527906164526939392e-02,-1.415987461805343628e-01,-5.981495603919029236e-02,-1.317138522863388062e-01,4.846781666856259108e-04,-1.506067812442779541e-01,1.171011477708816528e-01,3.422778472304344177e-02,8.709178306162357330e-03,1.433237940073013306e-01,9.199417382478713989e-02,6.920779496431350708e-02,-2.960084192454814911e-02,-3.745241835713386536e-02,1.008789539337158203e-01,1.510107368230819702e-01,5.470296740531921387e-02,-3.624474629759788513e-02,1.602414064109325409e-02,-9.381503798067569733e-03,3.742715716361999512e-02,1.052513495087623596e-01,4.793035611510276794e-02,-8.260642737150192261e-02,1.979906409978866577e-01,7.137533277273178101e-02,-7.958047837018966675e-02,6.513946503400802612e-02,4.558642208576202393e-02,1.448841542005538940e-01,-1.860538274049758911e-01,1.149660572409629822e-01,-1.773038953542709351e-01,8.991874009370803833e-02,8.521272242069244385e-02,2.934074215590953827e-02,9.437583386898040771e-02,-6.357703241519629955e-04,-6.072977092117071152e-03,-5.035449191927909851e-02,6.500937789678573608e-02,5.772885307669639587e-02,-1.178160309791564941e-01,3.616948425769805908e-02,-1.509404927492141724e-01,-4.435316845774650574e-02,-1.214589923620223999e-02,8.643178269267082214e-03,-1.213474851101636887e-02,-1.940769106149673462e-01,-6.131548434495925903e-02,9.987243264913558960e-02,-1.571132093667984009e-01,4.766934737563133240e-02,4.149646684527397156e-02,-1.706950925290584564e-02,-6.584935635328292847e-02,-8.490691892802715302e-03,4.540406912565231323e-02,-3.303753910586237907e-03,1.361524462699890137e-01,-9.468520432710647583e-02,4.531173780560493469e-02,-1.843666881322860718e-01,-8.852733671665191650e-02,9.798219054937362671e-02,1.924581974744796753e-01,1.692597121000289917e-01,-1.965107023715972900e-02,-5.228526145219802856e-02,-5.133141204714775085e-02,1.164758428931236267e-01,1.709184497594833374e-01,-5.706002935767173767e-02,-1.000314876437187195e-01,-7.628381252288818359e-02,-6.659838836640119553e-03,-8.555722236633300781e-02,-8.217753469944000244e-02,-3.427141532301902771e-02,6.240939255803823471e-03,6.285639852285385132e-02,1.328196674585342407e-01,-2.549060061573982239e-02,8.010827749967575073e-02,-5.814799293875694275e-02,-4.526104778051376343e-03,-1.373285502195358276e-01,2.882463112473487854e-02,-2.281697839498519897e-02,-1.478302641771733761e-03,-9.496797621250152588e-02,-6.139754876494407654e-02,-1.285664886236190796e-01,-8.097042888402938843e-02,-7.178603857755661011e-02,1.159412264823913574e-01,-5.207338556647300720e-02,-1.337151974439620972e-01,2.025430463254451752e-02,-2.968415617942810059e-02,3.720520064234733582e-02,-1.124424710869789124e-01,-4.044483974575996399e-02,8.637444674968719482e-02
6.287939380854368210e-03,-3.258382901549339294e-02,3.825611993670463562e-02,-1.047268882393836975e-01,-3.274141997098922729e-02,-1.086130831390619278e-02,-3.760217875242233276e-02,1.086847335100173950e-01,1.038006320595741272e-01,8.865701407194137573e-02,-4.780447855591773987e-02,8.629059046506881714e-02,6.004839669913053513e-03,3.922602534294128418e-02,1.621642112731933594e-01,1.460194438695907593e-01,-8.924172818660736084e-02,6.777558475732803345e-02,1.041395887732505798e-01,-1.397096216678619385e-01,-5.552900955080986023e-02,-9.526702016592025757e-02,-1.027266532182693481e-01,9.135376662015914917e-02,1.793461441993713379e-01,-8.852251619100570679e-02,1.746059954166412354e-01,-1.956538558006286621e-01,4.886133596301078796e-02,-8.132503926753997803e-02,4.303696379065513611e-02,6.125610694289207458e-02,7.662545144557952881e-02,-8.059906214475631714e-02,1.386173367500305176e-01,-2.132751978933811188e-02,1.243238802999258041e-02,-3.271440044045448303e-02,-5.307607725262641907e-02,-8.635815978050231934e-02,1.129715610295534134e-02,1.450995355844497681e-01,-3.824407234787940979e-02,2.299178577959537506e-02,7.567752152681350708e-02,1.138223782181739807e-01,9.769608266651630402e-03,-4.906384274363517761e-02,-7.235100865364074707e-02,-3.957549855113029480e-02,7.306338846683502197e-02,-9.996021538972854614e-02,4.299264773726463318e-02,8.196853846311569214e-02,9.135635942220687866e-02,-2.446901239454746246e-02,5.899364501237869263e-02,1.127760410308837891e-01,-9.569332003593444824e-02,-4.649961367249488831e-02,6.451706867665052414e-03,1.404235959053039551e-01,-3.671080619096755981e-02,1.027597412467002869e-01,-9.084694087505340576e-02,-1.041016206145286560e-01,5.112988501787185669e-02,-7.852109521627426147e-02,9.784404188394546509e-02,-1.237763911485671997e-01,1.720220036804676056e-02,2.563448064029216766e-02,-2.287447638809680939e-02,1.008938178420066833e-01,2.520483545958995819e-02,-8.641612716019153595e-03,9.591322392225265503e-02,7.377728074789047241e-02,-5.383467301726341248e-02,-6.188066676259040833e-02,1.425965279340744019e-01,2.457574941217899323e-02,8.320538327097892761e-03,-1.290517151355743408e-01,-1.100154295563697815e-01,-9.201347082853317261e-02,-7.795269787311553955e-02,1.303993612527847290e-01,-4.796787723898887634e-02,2.710070647299289703e-02,-4.369306564331054688e-02,-1.083492562174797058e-01,-8.252722024917602539e-02,-6.062493473291397095e-02,1.500146090984344482e-01,1.021645218133926392e-01,-6.220224127173423767e-02,1.375248422846198082e-03,7.122346013784408569e-02,1.885566860437393188e-02,3.272207826375961304e-02,-9.239879250526428223e-02,-4.035864491015672684e-03,1.834979164414107800e-03,1.086436063051223755e-01,1.063620373606681824e-01,-2.680945768952369690e-02,-1.276103556156158447e-01,-1.030763387680053711e-01,1.481444388628005981e-02,-1.497375816106796265e-01,-2.847785688936710358e-02,-4.568000882863998413e-02,-9.708035737276077271e-02,-5.309610441327095032e-02,-1.582388430833816528e-01,-1.847707480192184448e-01,-2.921909792348742485e-03,-1.248883605003356934e-01,5.149753019213676453e-02,-1.417730599641799927e-01,6.869064271450042725e-02,1.508589386940002441e-01,4.556409642100334167e-02,5.878170207142829895e-02,-1.555003374814987183e-01,-1.056900247931480408e-01,-1.197850108146667480e-01
4.957690089941024780e-02,-6.776987761259078979e-02,1.780857332050800323e-02,9.560152143239974976e-02,4.857974126935005188e-02,-1.373569108545780182e-02,-4.126308485865592957e-03,-2.808175422251224518e-02,-6.482858210802078247e-02,7.500376086682081223e-04,4.803156480193138123e-04,-1.628784835338592529e-01,8.578616543672978878e-04,1.570862345397472382e-02,8.583099395036697388e-02,-6.589484959840774536e-02,1.114489585161209106e-01,7.918822020292282104e-02,-5.182905006222426891e-04,4.436279833316802979e-02,2.090451680123806000e-02,1.700638979673385620e-01,4.915618523955345154e-02,1.376823484897613525e-01,7.527785841375589371e-03,1.328013390302658081e-01,4.229653999209403992e-02,-1.179914828389883041e-02,-1.152169480919837952e-01,7.718000560998916626e-02,6.915604323148727417e-02,-1.000270843505859375e-01,-5.930918455123901367e-02,-1.366361379623413086e-01,2.452089823782444000e-02,2.076455950736999512e-02,1.258714497089385986e-01,-7.173769176006317139e-02,1.958392374217510223e-02,1.503542345017194748e-02,1.092984899878501892e-01,-2.307092957198619843e-02,4.146424680948257446e-02,7.837693393230438232e-02,1.792145669460296631e-01,2.455068519338965416e-03,-2.810164354741573334e-02,1.808939687907695770e-02,-3.287148103117942810e-02,-6.996920704841613770e-02,5.590046569705009460e-02,-1.169233843684196472e-01,3.807791322469711304e-02,7.329563796520233154e-02,5.957710370421409607e-02,-3.696614503860473633e-02,-3.412787243723869324e-02,8.504613488912582397e-02,-5.810356140136718750e-02,1.138582453131675720e-01,-6.028856709599494934e-02,-4.403520841151475906e-03,1.695400290191173553e-02,8.333331346511840820e-02,-1.851680502295494080e-02,-5.195728689432144165e-02,-3.487782552838325500e-02,-7.745518535375595093e-02,6.496166437864303589e-02,-2.332129515707492828e-02,9.209237061440944672e-03,1.698580980300903320e-01,-1.893474310636520386e-01,3.641397133469581604e-02,1.048933416604995728e-01,-4.326931759715080261e-02,-2.650275826454162598e-02,4.284616932272911072e-02,-5.176734551787376404e-02,6.462933123111724854e-02,-1.192041859030723572e-01,-4.567608609795570374e-02,-8.496508002281188965e-03,9.860593080520629883e-02,1.657408177852630615e-01,-6.463342811912298203e-03,1.164576411247253418e-01,1.730193644762039185e-01,-1.438885182142257690e-01,1.101810336112976074e-01,-5.802317988127470016e-03,1.073606610298156738e-01,-6.177150085568428040e-02,5.198615789413452148e-02,6.957045290619134903e-03,-1.383756250143051147e-01,6.107940804213285446e-03,-2.439783856971189380e-04,-3.017440810799598694e-02,3.635127842426300049e-02,1.233060099184513092e-02,-1.622979491949081421e-01,2.201046561822295189e-03,7.456757873296737671e-02,4.899222985841333866e-04,4.946817457675933838e-02,1.244443282485008240e-01,5.165938287973403931e-02,9.801001101732254028e-02,1.518764626234769821e-02,-6.397358328104019165e-02,1.671342551708221436e-01,-1.420193351805210114e-02,1.406950503587722778e-02,-2.168880589306354523e-02,4.569048807024955750e-02,1.898861080408096313e-01,-2.343522943556308746e-02,-1.180584952235221863e-01,-1.342259198427200317e-01,5.541343614459037781e-02,7.019786536693572998e-02,3.458166122436523438e-02,-1.155884191393852234e-01,-1.333226859569549561e-01,-6.760501116514205933e-02,4.609773680567741394e-02,9.792508184909820557e-02
