-5.101663991808891296e-03,1.630529612302780151e-01,-3.355693444609642029e-02,1.520342230796813965e-01,1.151688955724239349e-02,1.337870955467224121e-01,-1.564838886260986328e-01,4.237071797251701355e-02,-1.328324824571609497e-01,-7.452822476625442505e-02,-9.842981398105621338e-02,1.540199387818574905e-02,1.704179565422236919e-03,-4.547224938869476318e-02,-1.515872925519943237e-01,5.901302024722099304e-02,1.202614083886146545e-01,1.118636652827262878e-01,1.110444404184818268e-02,-3.285945951938629150e-02,-9.939245879650115967e-02,-3.944981843233108521e-02,-1.046586781740188599e-01,8.229418843984603882e-02,-2.968277037143707275e-02,1.476930081844329834e-02,2.449526824057102203e-02,5.508847907185554504e-02,-8.449804969131946564e-03,9.426949545741081238e-03,-1.714942008256912231e-01,-1.243114098906517029e-01,-2.181931398808956146e-02,-6.376864016056060791e-02,1.398785114288330078e-01,1.428781598806381226e-01,2.084825560450553894e-02,5.700637400150299072e-02,-5.760343745350837708e-03,-1.623197644948959351e-02,5.988492164760828018e-03,-5.007038265466690063e-02,5.572373792529106140e-02,1.120456680655479431e-02,4.315673839300870895e-03,8.334898203611373901e-02,-7.569885998964309692e-02,-3.296441957354545593e-02,8.691438287496566772e-02,8.612312376499176025e-02,8.565419912338256836e-02,9.229704737663269043e-02,4.066223278641700745e-02,-6.289369612932205200e-02,-1.144630461931228638e-02,8.132053539156913757e-03,-8.288563787937164307e-02,1.191376335918903351e-02,-1.046541333198547363e-01,-1.543415039777755737e-01,8.787290751934051514e-02,3.747629001736640930e-02,-1.884208470582962036e-01,-3.862526267766952515e-02,6.165815889835357666e-02,4.932490736246109009e-02,-1.774206012487411499e-01,-1.685305535793304443e-01,1.292074322700500488e-01,1.172642596065998077e-02,-5.460793524980545044e-02,1.031306907534599304e-01,-1.627051085233688354e-02,-2.790020406246185303e-02,1.255019903182983398e-01,-1.042716801166534424e-01,-1.279922425746917725e-01,1.977057754993438721e-02,1.381189841777086258e-02,-1.378466784954071045e-01,-8.679473400115966797e-02,-1.324043571949005127e-01,2.802355401217937469e-02,7.550828903913497925e-02,-1.421357691287994385e-01,2.698783203959465027e-02,-1.836595982313156128e-01,5.720506887882947922e-03,5.235380306839942932e-02,1.019445341080427170e-02,1.441173553466796875e-01,5.725233256816864014e-02,-1.170348227024078369e-01,1.331869862042367458e-03,1.831532716751098633e-01,-1.136795990169048309e-02,1.131678447127342224e-01,1.578830033540725708e-01,4.567686934024095535e-03,-1.828787326812744141e-01,3.033920563757419586e-02,-5.979796871542930603e-03,7.770464755594730377e-03,9.755629301071166992e-02,1.742073297500610352e-01,1.100709065794944763e-01,-2.085256576538085938e-02,-2.107160165905952454e-02,-6.447730213403701782e-02,6.122040376067161560e-02,-4.694915562868118286e-02,-1.254971176385879517e-01,1.645574718713760376e-02,4.284083470702171326e-02,-1.100035458803176880e-01,-6.763131916522979736e-02,-4.529328644275665283e-02,-8.629996329545974731e-02,1.392632424831390381e-01,9.667211025953292847e-02,-1.810874417424201965e-02,1.810491532087326050e-01,-9.315803647041320801e-02,-4.822843521833419800e-02,1.779893338680267334e-01,1.866651512682437897e-02,-4.144651070237159729e-02,-1.478994786739349365e-01
-6.428683549165725708e-02,-3.339295461773872375e-02,6.449063122272491455e-02,-1.590322405099868774e-01,-8.492168039083480835e-02,-1.518883462995290756e-02,-1.339273750782012939e-01,-1.118814125657081604e-01,1.153108924627304077e-01,-3.770036622881889343e-02,-5.280259996652603149e-03,4.282536730170249939e-02,2.582271210849285126e-02,8.738945424556732178e-02,6.591511517763137817e-02,7.777051068842411041e-03,9.800451993942260742e-02,-3.295860812067985535e-02,-7.368945330381393433e-02,8.877654373645782471e-02,-8.789062500000000000e-02,2.492067962884902954e-02,1.638788580894470215e-01,-5.300525948405265808e-02,2.811211533844470978e-02,-6.026428565382957458e-02,1.192683205008506775e-01,-5.710100010037422180e-02,-7.274053245782852173e-02,4.218206182122230530e-02,1.401177644729614258e-01,8.491083048284053802e-03,-8.054721355438232422e-02,1.442465782165527344e-01,5.909458547830581665e-02,-5.899262800812721252e-02,-7.849468290805816650e-02,5.038757994771003723e-02,-8.733064681291580200e-02,-2.300259657204151154e-03,7.710228860378265381e-02,-3.747691959142684937e-02,-1.451170723885297775e-02,-1.095447763800621033e-01,-5.898772506043314934e-04,4.106875136494636536e-02,3.329454362392425537e-02,3.395085409283638000e-02,1.483836323022842407e-01,-1.077013611793518066e-01,-9.245794266462326050e-02,8.432651311159133911e-02,7.078164815902709961e-02,7.043085526674985886e-03,1.023513302206993103e-01,1.413327753543853760e-01,4.847518727183341980e-02,3.901679767295718193e-03,1.668437011539936066e-02,1.542487442493438721e-01,1.924401149153709412e-02,6.820408254861831665e-02,1.495858132839202881e-01,-1.644793003797531128e-01,6.123847514390945435e-02,1.365919411182403564e-01,2.729476429522037506e-02,-1.351482868194580078e-01,-7.922742515802383423e-02,-1.829751431941986084e-01,4.691048711538314819e-02,-3.621008619666099548e-02,9.248690307140350342e-02,8.405087143182754517e-02,-5.029108002781867981e-02,-2.701945230364799500e-02,-4.125810787081718445e-02,-9.980496251955628395e-04,1.030482500791549683e-01,-6.451312452554702759e-02,6.014449149370193481e-02,-8.852497674524784088e-03,1.325485645793378353e-03,-2.245036652311682701e-03,-5.156181752681732178e-02,-7.212252169847488403e-02,1.100486740469932556e-01,3.425832465291023254e-02,-1.342387497425079346e-01,8.179203420877456665e-02,1.114356890320777893e-01,-1.240654587745666504e-01,-4.376361519098281860e-02,-1.873773485422134399e-01,6.687942892313003540e-02,7.134959567338228226e-03,-5.054916813969612122e-02,1.026714965701103210e-02,-3.211980313062667847e-02,3.326306864619255066e-02,-1.434082090854644775e-01,6.869294494390487671e-02,4.362320527434349060e-02,1.115063950419425964e-01,2.101479656994342804e-02,-1.524652820080518723e-02,9.021922945976257324e-02,-2.288498729467391968e-02,2.088600024580955505e-02,3.672081604599952698e-02,1.958939284086227417e-01,5.298078805208206177e-02,-1.011613234877586365e-01,-2.878506295382976532e-02,1.346799824386835098e-02,2.774334140121936798e-02,-1.296870708465576172e-01,-3.270297544077038765e-03,6.057954207062721252e-02,1.563379913568496704e-02,9.658382833003997803e-02,7.617581635713577271e-02,-2.356977201998233795e-02,1.491004228591918945e-01,-1.194397732615470886e-01,1.294691264629364014e-01,-1.487461924552917480e-01,4.217062890529632568e-02
1.112522408366203308e-01,-1.165943499654531479e-02,2.939580753445625305e-02,-1.514096707105636597e-01,9.961761534214019775e-02,-8.287551999092102051e-02,5.967853590846061707e-02,-4.868751764297485352e-02,-1.716014593839645386e-01,5.723878368735313416e-02,-8.269921690225601196e-02,5.942305549979209900e-02,5.762974545359611511e-02,8.710305206477642059e-03,-8.311812765896320343e-03,-2.102692425251007080e-02,4.491345211863517761e-02,-2.263776771724224091e-02,9.394762665033340454e-02,-1.054607853293418884e-01,-6.329123675823211670e-02,-5.036890041083097458e-03,-1.205431018024682999e-02,-4.702756926417350769e-02,5.068743601441383362e-02,9.078414738178253174e-02,4.706786014139652252e-03,1.226716637611389160e-01,9.851692616939544678e-02,2.994460612535476685e-02,1.134745851159095764e-01,1.521294657140970230e-02,9.485942125320434570e-02,-5.922460556030273438e-02,-8.717559278011322021e-02,-5.983812361955642700e-02,-4.741597920656204224e-02,1.944592595100402832e-02,1.882076114416122437e-01,8.633393794298171997e-02,1.175840124487876892e-01,1.747496128082275391e-01,-2.487192116677761078e-02,9.937044233083724976e-02,-5.135965347290039062e-02,-1.847540028393268585e-03,3.228513151407241821e-02,-1.582507160492241383e-03,5.485689267516136169e-02,-1.047180667519569397e-01,8.478330075740814209e-02,-1.484857220202684402e-02,-2.891738712787628174e-02,4.496039450168609619e-02,-4.060882329940795898e-02,-1.035561487078666687e-01,2.747325040400028229e-02,1.014027819037437439e-01,-9.250187873840332031e-02,1.369499266147613525e-01,-8.714996278285980225e-02,-1.717594265937805176e-02,-1.654542088508605957e-01,1.887272745370864868e-01,3.524754196405410767e-02,1.832645982503890991e-01,8.115432411432266235e-02,3.595048189163208008e-02,-2.490586042404174805e-02,-1.395939942449331284e-02,1.917363144457340240e-03,1.304523088037967682e-02,1.280186027288436890e-01,2.868794091045856476e-02,1.333860307931900024e-01,-1.583499163389205933e-01,6.070888042449951172e-02,1.879986189305782318e-02,7.038789987564086914e-02,3.967066854238510132e-02,-8.453179895877838135e-02,6.259195506572723389e-02,3.488999605178833008e-02,6.151756271719932556e-02,5.378916487097740173e-02,1.052375584840774536e-01,8.584487251937389374e-03,-1.595536768436431885e-01,-8.038439601659774780e-02,6.378137320280075073e-02,7.580962032079696655e-02,4.524625465273857117e-02,1.941834762692451477e-02,9.723518043756484985e-03,-1.103089824318885803e-01,5.791162699460983276e-02,4.322348907589912415e-02,2.415978536009788513e-02,7.713346928358078003e-02,7.226058840751647949e-02,4.913556948304176331e-02,-5.158184096217155457e-02,1.117659360170364380e-01,3.733087703585624695e-02,-1.819620281457901001e-01,-2.668181620538234711e-02,-5.724711343646049500e-02,-4.159938916563987732e-02,1.409332174807786942e-02,1.002234145998954773e-01,-1.583605855703353882e-01,-3.466404974460601807e-03,-1.116786524653434753e-02,-1.734001189470291138e-01,8.858462423086166382e-02,-3.293834254145622253e-02,-3.201910480856895447e-02,-9.657334536314010620e-03,5.151826888322830200e-02,-3.603639453649520874e-02,3.724918514490127563e-02,8.904317021369934082e-02,2.217651344835758209e-02,-6.553834676742553711e-02,-7.334431260824203491e-02,-3.767466545104980469e-02,-1.134288683533668518e-01,7.072117179632186890e-02
3.267660364508628845e-02,-1.817283779382705688e-01,5.411433801054954529e-02,5.879272148013114929e-02,-4.978224635124206543e-02,-2.108152024447917938e-03,-1.732344627380371094e-01,6.156825460493564606e-03,-3.935804218053817749e-02,1.414262652397155762e-01,-1.633749455213546753e-01,1.587811708450317383e-01,-1.621209233999252319e-01,-1.417123675346374512e-01,-1.258915066719055176e-01,1.972104758024215698e-01,1.568011343479156494e-01,1.535385102033615112e-01,-1.280276924371719360e-01,2.606297470629215240e-02,1.079749614000320435e-01,-2.304363250732421875e-02,-2.706923987716436386e-03,1.915064454078674316e-01,9.146235883235931396e-02,-3.870907425880432129e-02,-4.045262187719345093e-02,-6.179673969745635986e-02,7.763952761888504028e-02,-1.014223024249076843e-01,-1.379020214080810547e-01,-4.321686550974845886e-02,1.713541895151138306e-01,3.166959062218666077e-02,1.226328033953905106e-02,1.541453003883361816e-01,-1.337819248437881470e-01,6.146904081106185913e-03,-6.020271405577659607e-02,-8.278514444828033447e-02,-3.311179205775260925e-02,1.084208935499191284e-01,-4.486190900206565857e-02,6.009837612509727478e-02,-2.468417957425117493e-02,4.616120457649230957e-02,2.243542403448373079e-04,-7.525660097599029541e-03,-7.411640882492065430e-02,3.531891852617263794e-02,7.364449650049209595e-02,-1.871331632137298584e-01,1.277577225118875504e-02,4.600611701607704163e-02,6.133550032973289490e-02,1.562255807220935822e-02,1.540338397026062012e-01,7.308107614517211914e-02,1.410679798573255539e-02,-5.022663995623588562e-02,-9.625456482172012329e-02,-1.129448600113391876e-02,4.813650157302618027e-03,7.244549691677093506e-02,-5.424579605460166931e-02,8.964759297668933868e-03,-9.790768474340438843e-02,1.512755732983350754e-02,-4.403531551361083984e-02,-7.630399893969297409e-03,7.296410202980041504e-02,4.807461425662040710e-02,-9.797609597444534302e-02,7.297386229038238525e-02,3.752884268760681152e-02,-1.524086743593215942e-01,9.578156471252441406e-02,-9.841584414243698120e-02,2.510655857622623444e-02,1.865124702453613281e-01,-1.827550977468490601e-01,6.112856417894363403e-02,-8.118069916963577271e-02,-7.097502797842025757e-02,1.454240977764129639e-01,1.404263228178024292e-01,-1.044998392462730408e-01,5.698030814528465271e-02,2.224945463240146637e-02,1.123773455619812012e-01,-1.042124852538108826e-01,-1.393529027700424194e-02,-1.067555602639913559e-02,1.836297959089279175e-01,-6.423645466566085815e-02,-7.764395326375961304e-02,-4.257629066705703735e-02,5.121321976184844971e-02,1.919620088301599026e-03,-6.329447031021118164e-02,8.664893917739391327e-03,5.600535497069358826e-02,9.671150892972946167e-02,1.085927858948707581e-01,1.225508097559213638e-02,-7.440449297428131104e-02,-1.113225594162940979e-01,-8.687404543161392212e-02,1.751825362443923950e-01,6.702342629432678223e-02,9.959870576858520508e-02,5.758453905582427979e-02,1.588452756404876709e-01,-5.026531405746936798e-03,9.643723070621490479e-02,-8.368464559316635132e-02,-4.620555788278579712e-02,-3.167918324470520020e-02,8.971381932497024536e-03,5.689942464232444763e-02,6.124133244156837463e-02,-1.686228811740875244e-02,-4.652257636189460754e-02,-2.956755086779594421e-02,-2.572371438145637512e-02,-7.879401743412017822e-02,1.982879824936389923e-02,-8.141640573740005493e-02
-1.248801946640014648e-01,-1.171763613820075989e-02,1.665479540824890137e-01,-1.098270416259765625e-01,4.663250222802162170e-02,1.016762256622314453e-01,1.244267225265502930e-01,9.742249734699726105e-03,-1.139435023069381714e-01,-4.007749259471893311e-03,-3.541922196745872498e-02,-3.403198346495628357e-02,8.964280784130096436e-02,7.079146057367324829e-02,7.982460781931877136e-03,1.272168010473251343e-01,3.540233150124549866e-02,-1.128180511295795441e-02,-8.124098926782608032e-02,-6.664256751537322998e-02,-8.239971473813056946e-03,-8.399811387062072754e-02,6.123815104365348816e-02,-1.865209452807903290e-02,1.455757915973663330e-01,-1.925317943096160889e-02,-1.613991707563400269e-02,1.562913656234741211e-01,1.628192514181137085e-02,5.854438524693250656e-03,-1.118107810616493225e-01,-3.287029266357421875e-02,-4.869875684380531311e-02,-3.752669785171747208e-03,-7.143898308277130127e-02,3.904876857995986938e-02,5.906556174159049988e-02,1.119804102927446365e-03,-6.332094967365264893e-02,-1.102999076247215271e-01,-1.037934571504592896e-01,-3.222786262631416321e-02,6.084901094436645508e-02,-1.372479498386383057e-01,-9.248429536819458008e-02,1.080000624060630798e-01,-3.418143605813384056e-03,6.489510834217071533e-02,-1.959764026105403900e-02,-3.569353744387626648e-02,-5.359204486012458801e-02,1.586381047964096069e-01,-5.964265204966068268e-03,2.110193297266960144e-02,5.401308462023735046e-02,2.851819619536399841e-02,3.082604845985770226e-03,-5.351910367608070374e-02,-4.365394357591867447e-03,4.213792458176612854e-02,-4.869502410292625427e-02,-2.968308143317699432e-02,-9.334266930818557739e-02,-7.315720617771148682e-02,-9.939543157815933228e-02,7.775557693094015121e-03,2.108219079673290253e-02,-8.125191926956176758e-02,5.190041661262512207e-02,9.716132283210754395e-02,1.673041284084320068e-02,-1.532727666199207306e-02,9.077766537666320801e-02,1.262467056512832642e-01,-6.807356327772140503e-02,-1.437664479017257690e-01,-1.061552166938781738e-01,-5.276000499725341797e-02,-7.356119155883789062e-02,-8.265617489814758301e-02,6.479828804731369019e-02,4.527777060866355896e-02,1.237170919775962830e-01,6.396058201789855957e-02,-1.689140498638153076e-01,-1.983229629695415497e-02,-1.102837081998586655e-02,-1.815128885209560394e-02,2.790810726583003998e-02,1.522919088602066040e-01,1.885449290275573730e-01,2.812570892274379730e-02,2.746787108480930328e-02,2.438229322433471680e-02,2.101894468069076538e-02,9.646106511354446411e-02,1.429775450378656387e-02,2.301356755197048187e-03,1.127001736313104630e-02,1.770937815308570862e-03,1.077999100089073181e-01,2.590926550328731537e-02,-1.190088503062725067e-02,-1.517412532120943069e-02,-1.975533924996852875e-02,-2.763932198286056519e-02,-8.154896646738052368e-02,6.438358128070831299e-02,3.440409526228904724e-02,-7.039090152829885483e-03,5.705034360289573669e-02,3.622702881693840027e-02,6.473299115896224976e-02,1.242960989475250244e-01,9.892718493938446045e-02,1.060367524623870850e-01,1.285059452056884766e-01,-4.455464333295822144e-02,1.316693127155303955e-01,-3.465731441974639893e-02,1.400722004473209381e-02,-5.961890891194343567e-02,1.730662956833839417e-02,1.389421522617340088e-01,2.669489756226539612e-02,-6.072579696774482727e-02,-1.084867045283317566e-01,3.703967481851577759e-02
-1.751731783151626587e-01,-2.213762700557708740e-01,-1.623068302869796753e-01,-6.947918981313705444e-02,-1.612460017204284668e-01,-2.066913396120071411e-01,-4.780553653836250305e-02,-6.745145074091851711e-04,-2.422569990158081055e-01,-2.418435811996459961e-01,-5.641416460275650024e-02,4.050281643867492676e-01,9.967577457427978516e-02,-2.259223461151123047e-01,-3.016747236251831055e-01,3.183915019035339355e-01,3.916939795017242432e-01,-1.503442227840423584e-01,-1.246029958128929138e-01,1.032277792692184448e-01,-3.985487669706344604e-02,-1.733968257904052734e-01,-1.830923557281494141e-01,8.104609698057174683e-02,-2.100485414266586304e-01,3.645566105842590332e-01,-1.828077137470245361e-01,-3.398246467113494873e-01,-3.391659557819366455e-01,1.053336355835199356e-02,-8.754272758960723877e-02,-1.908992528915405273e-01,-2.646789550781250000e-01,-2.541970834136009216e-02,2.348631471395492554e-01,-2.422120869159698486e-01,-9.497827291488647461e-02,-2.761662304401397705e-01,-3.423628956079483032e-02,4.935503378510475159e-02,-1.972264796495437622e-01,-1.927808821201324463e-01,-1.791295260190963745e-01,9.413033723831176758e-03,4.280481487512588501e-02,-3.301428258419036865e-02,-1.132992282509803772e-01,-1.650301516056060791e-01,1.750798821449279785e-01,3.662399053573608398e-01,-2.523148655891418457e-01,-2.245174497365951538e-01,-2.609617710113525391e-01,2.864585220813751221e-01,-2.908892333507537842e-01,-2.634565234184265137e-01,-4.030213505029678345e-02,-2.839218080043792725e-01,5.443550273776054382e-02,7.314963638782501221e-02,-1.816235184669494629e-01,-1.628690659999847412e-01,-4.823634400963783264e-03,-8.495919406414031982e-02,8.278889581561088562e-03,-1.332675665616989136e-01,-1.175240799784660339e-01,-4.965921491384506226e-02,-1.540579050779342651e-01,-2.136856764554977417e-01,-2.357614040374755859e-02,-9.859359264373779297e-02,-2.605569362640380859e-02,-1.708181798458099365e-01,-1.815488338470458984e-01,-1.931090950965881348e-01,-1.547083109617233276e-01,-9.274695813655853271e-02,-2.306342124938964844e-01,-1.607342958450317383e-01,-4.890742152929306030e-02,-1.668481975793838501e-01,-2.161906361579895020e-01,-2.531900405883789062e-01,-1.536894887685775757e-01,-2.449854612350463867e-01,2.338614612817764282e-01,1.879835873842239380e-01,-5.790866166353225708e-02,3.159669339656829834e-01,-2.157875597476959229e-01,-2.532795667648315430e-01,1.043693795800209045e-01,-3.346169590950012207e-01,-2.422351837158203125e-01,-2.675696611404418945e-01,-1.924949884414672852e-01,-1.926252841949462891e-01,-1.270119249820709229e-01,1.441601961851119995e-01,2.400333285331726074e-01,-1.388478428125381470e-01,6.868184357881546021e-02,-4.889528825879096985e-02,-1.724098622798919678e-01,-3.254592418670654297e-01,1.937455683946609497e-01,-1.318417638540267944e-01,-3.856515511870384216e-02,-1.942675560712814331e-01,-3.765099048614501953e-01,-5.175188556313514709e-02,1.776424199342727661e-01,-8.837030827999114990e-02,-1.722780913114547729e-01,-2.114499807357788086e-01,-1.446222066879272461e-01,-1.678058058023452759e-01,-1.578050702810287476e-01,-2.261312901973724365e-01,-2.023971676826477051e-01,-7.556780427694320679e-02,-1.414180733263492584e-02,2.787919938564300537e-01,3.199289441108703613e-01,7.562623172998428345e-02,-1.084745824337005615e-01,2.302088774740695953e-02
1.770327985286712646e-02,-3.346568264532834291e-04,-9.811105579137802124e-02,6.248228624463081360e-02,-4.836562648415565491e-02,-1.190009936690330505e-01,-5.133736133575439453e-02,1.542204767465591431e-01,-2.980407513678073883e-02,5.470494553446769714e-02,-1.373878717422485352e-01,-1.107634529471397400e-01,-2.039896696805953979e-02,2.206486649811267853e-02,-3.178255632519721985e-02,8.745908853597939014e-04,5.381021648645401001e-02,-9.533037431538105011e-03,2.107711043208837509e-03,4.157952591776847839e-02,1.445919275283813477e-01,2.655891934409737587e-03,1.895894855260848999e-01,7.196920365095138550e-02,-2.512852475047111511e-02,8.856971561908721924e-02,-1.931997835636138916e-01,6.686867773532867432e-02,-6.372438371181488037e-02,-1.098192334175109863e-01,1.497718691825866699e-01,-3.895775228738784790e-02,-4.978244192898273468e-03,9.695497155189514160e-02,-6.334795057773590088e-02,1.396072655916213989e-02,-1.126817762851715088e-01,3.797626122832298279e-02,1.473608911037445068e-01,7.080490142107009888e-02,8.595764636993408203e-02,2.456703595817089081e-02,-1.123622059822082520e-01,-7.334735989570617676e-02,5.790241807699203491e-02,7.655421644449234009e-02,1.380811482667922974e-01,1.873638597317039967e-03,-1.127152666449546814e-01,-1.236199066042900085e-01,2.357229404151439667e-02,1.446766871958971024e-02,-1.428072601556777954e-01,4.833888635039329529e-02,2.827367000281810760e-02,9.143771231174468994e-02,9.392295032739639282e-02,7.436296436935663223e-03,-1.111602131277322769e-02,1.168259531259536743e-01,-7.998890429735183716e-02,-7.703825831413269043e-02,5.240709334611892700e-02,-3.134503588080406189e-02,6.565124541521072388e-02,4.615178704261779785e-02,-7.625040411949157715e-02,-1.233509741723537445e-02,1.455300301313400269e-02,-1.093253046274185181e-01,-9.779372811317443848e-02,1.571052223443984985e-01,1.120746415108442307e-02,1.551246941089630127e-01,1.288581937551498413e-01,2.647018991410732269e-02,-1.180227007716894150e-02,-4.779112339019775391e-02,1.727714203298091888e-02,-1.316767632961273193e-01,3.963233157992362976e-02,-1.468542069196701050e-01,7.647083699703216553e-02,-9.661222249269485474e-02,-8.673361688852310181e-02,-1.085470840334892273e-01,7.618971168994903564e-02,-6.456742994487285614e-04,-7.559717446565628052e-02,3.812118666246533394e-03,-1.473877578973770142e-02,2.716347388923168182e-02,-1.266705393791198730e-01,6.017693877220153809e-02,-7.791142910718917847e-02,-1.623512059450149536e-01,6.455413252115249634e-02,3.319844976067543030e-02,1.738053113222122192e-01,1.630351692438125610e-01,8.921732753515243530e-02,-8.731628954410552979e-02,-7.126913871616125107e-03,1.134728416800498962e-01,-1.066016554832458496e-01,-1.652615144848823547e-02,-3.592500090599060059e-02,1.268621236085891724e-01,-1.189581304788589478e-01,1.475751101970672607e-01,-1.805554479360580444e-01,-8.232390135526657104e-02,3.534473851323127747e-02,-1.215644064359366894e-03,8.052960038185119629e-02,-1.898301690816879272e-01,-7.400364428758621216e-02,-1.195550188422203064e-01,-5.696334689855575562e-02,-5.308911949396133423e-02,6.383445113897323608e-02,1.036766171455383301e-01,-5.279856920242309570e-02,-4.445865005254745483e-02,-2.895463444292545319e-02,1.517870090901851654e-02,-4.102577269077301025e-02,-1.166137456893920898e-01
-1.501659303903579712e-01,4.509408771991729736e-02,-1.031415686011314392e-01,-7.546553015708923340e-02,-2.516145072877407074e-02,-1.153699774295091629e-02,2.388157881796360016e-02,-7.515400648117065430e-02,-1.080270782113075256e-01,-5.903090164065361023e-02,1.207482442259788513e-01,-2.716599218547344208e-02,-1.038123518228530884e-01,-9.153903275728225708e-02,1.179696470499038696e-01,5.628161597996950150e-03,-1.357019413262605667e-02,-5.690362676978111267e-02,1.177753955125808716e-01,-1.370538920164108276e-01,-3.073257580399513245e-02,-8.504802733659744263e-02,-1.947901397943496704e-02,5.933880805969238281e-02,-4.765960946679115295e-02,9.822035580873489380e-02,-6.841343641281127930e-02,5.358187854290008545e-02,8.817403018474578857e-02,-1.346012204885482788e-01,-4.590524360537528992e-02,2.881203964352607727e-02,6.003075279295444489e-03,6.822092086076736450e-02,5.329203326255083084e-03,-1.390378177165985107e-01,5.212680250406265259e-02,-1.391223967075347900e-01,-9.173017740249633789e-02,-2.174507826566696167e-02,-4.226102959364652634e-03,-2.266455255448818207e-02,1.075632199645042419e-01,1.538521051406860352e-01,5.832167342305183411e-02,-6.494100391864776611e-02,-9.391259402036666870e-02,-1.162807792425155640e-01,-1.220656260848045349e-01,-5.086026713252067566e-02,-8.483798801898956299e-02,2.341670729219913483e-02,-7.581378519535064697e-02,-1.435743719339370728e-01,-4.698783904314041138e-02,-6.807017326354980469e-02,1.340059041976928711e-01,8.428574353456497192e-02,1.024699117988348007e-02,-6.581190973520278931e-02,1.170942932367324829e-01,5.074313282966613770e-02,-5.034734681248664856e-02,1.464904993772506714e-01,-1.117931120097637177e-02,6.145798787474632263e-02,-3.620373085141181946e-02,-8.774109184741973877e-02,1.198214590549468994e-01,4.510334134101867676e-02,-8.536422625184059143e-03,-2.077077329158782959e-02,-2.145880833268165588e-02,4.225535318255424500e-02,1.057875435799360275e-02,1.701628118753433228e-01,-8.693338185548782349e-02,-1.902231872081756592e-01,-4.015740379691123962e-02,9.018175303936004639e-02,7.963153719902038574e-02,-1.018394622951745987e-02,-5.517536308616399765e-03,1.085734069347381592e-01,-1.877281814813613892e-01,-4.898210614919662476e-02,-6.384495645761489868e-02,1.484296768903732300e-01,8.040288463234901428e-03,3.513555601239204407e-02,-1.825796440243721008e-02,-1.352232843637466431e-01,-7.820338755846023560e-02,4.469151422381401062e-02,1.405168622732162476e-01,-4.805886372923851013e-02,4.337570443749427795e-02,-3.304541856050491333e-02,-1.229729386977851391e-03,5.601615458726882935e-02,-1.324924547225236893e-02,6.408157944679260254e-02,6.891077756881713867e-02,7.915938645601272583e-02,3.021984174847602844e-02,-1.762189567089080811e-01,-1.708867214620113373e-02,-1.151083409786224365e-02,-6.079870089888572693e-02,4.569940641522407532e-02,-3.543540090322494507e-02,8.312506228685379028e-02,1.278204917907714844e-01,2.731672115623950958e-02,-9.111104905605316162e-02,-1.331826895475387573e-01,-7.335280627012252808e-02,1.758416369557380676e-02,9.384668618440628052e-02,-4.551336541771888733e-02,1.395447254180908203e-01,-1.298443526029586792e-01,-2.523829974234104156e-02,4.185380414128303528e-02,6.374056637287139893e-02,-1.014643087983131409e-01,1.553632766008377075e-01,6.064106523990631104e-02
-9.966768324375152588e-02,-4.777861014008522034e-02,-2.769150584936141968e-02,-7.731080055236816406e-02,8.230408281087875366e-02,-6.155759841203689575e-02,-7.126612216234207153e-02,5.144803225994110107e-02,-1.647392520681023598e-03,-2.944272570312023163e-02,1.310592144727706909e-01,2.238075621426105499e-02,-4.051928594708442688e-02,1.140807121992111206e-01,1.347535550594329834e-01,1.257926970720291138e-01,7.792303711175918579e-02,-5.231391638517379761e-03,-1.223191171884536743e-01,1.135594248771667480e-01,1.076519861817359924e-01,8.688954403623938560e-04,-6.139743328094482422e-02,4.502658545970916748e-02,-1.778492033481597900e-01,1.696885079145431519e-01,-2.307719551026821136e-04,-2.253715693950653076e-01,4.467350244522094727e-02,-4.458693414926528931e-02,-9.248006343841552734e-02,6.912354379892349243e-02,5.877987481653690338e-03,8.808930963277816772e-02,-1.273912787437438965e-01,9.029871784150600433e-03,3.395060077309608459e-02,-1.029107868671417236e-01,1.175478249788284302e-01,-7.673808187246322632e-02,-7.507117092609405518e-02,1.120700016617774963e-01,-6.764464825391769409e-02,-2.537889033555984497e-02,2.560151815414428711e-01,1.456279400736093521e-02,-2.102494984865188599e-01,-2.058849930763244629e-01,1.057769581675529480e-01,-5.956305935978889465e-02,-1.385751068592071533e-01,3.418188914656639099e-02,-1.013926118612289429e-01,1.350885480642318726e-01,-2.856780588626861572e-02,-1.138107106089591980e-01,-7.724704593420028687e-02,-1.131443977355957031e-01,1.060449928045272827e-01,2.007018076255917549e-03,6.260328227654099464e-04,6.629119813442230225e-02,-1.387391239404678345e-01,4.815236851572990417e-02,-1.134556066244840622e-02,9.130156040191650391e-02,2.617542073130607605e-02,-6.163811311125755310e-02,-4.159897193312644958e-02,-3.793961927294731140e-02,-4.638736695051193237e-02,-1.880024187266826630e-02,9.351995587348937988e-02,9.273394942283630371e-02,-6.711380928754806519e-02,-1.530837863683700562e-01,-6.187878549098968506e-03,7.266227155923843384e-02,-6.565517187118530273e-02,-2.247594445943832397e-01,-1.974317803978919983e-02,7.439672201871871948e-02,-8.841481059789657593e-03,-3.479748964309692383e-02,-3.482502698898315430e-02,-1.519909361377358437e-03,3.623745962977409363e-02,5.821103695780038834e-03,-2.685257978737354279e-02,4.811277985572814941e-02,1.184446853585541248e-03,-1.005141809582710266e-01,8.145072311162948608e-02,-6.580571830272674561e-02,-7.136661559343338013e-02,-1.433171927928924561e-01,-2.033921889960765839e-03,4.030087962746620178e-02,4.586451128125190735e-02,-7.745696604251861572e-02,6.751051545143127441e-02,-1.255862861871719360e-01,1.699702888727188110e-01,1.075118780136108398e-01,-1.679015606641769409e-01,9.821254014968872070e-02,4.668508470058441162e-02,-1.851372718811035156e-01,1.473961472511291504e-01,-1.202733516693115234e-01,-8.033245801925659180e-02,2.899504601955413818e-01,-1.154348105192184448e-01,-1.051962077617645264e-01,4.390572011470794678e-02,-1.205356344580650330e-01,-1.155900284647941589e-01,1.716318912804126740e-02,-5.350205674767494202e-02,4.816928133368492126e-02,8.736550062894821167e-02,-9.715830534696578979e-02,-6.772791594266891479e-02,2.737241983413696289e-01,-3.150935098528862000e-02,6.608241703361272812e-03,-5.274059250950813293e-02,1.514438986778259277e-01
3.574447333812713623e-02,3.760625049471855164e-02,-4.329534620046615601e-02,-1.499266028404235840e-01,1.217621266841888428e-01,1.216751486063003540e-01,-1.145175099372863770e-01,1.707384437322616577e-01,1.778987497091293335e-01,1.881301552057266235e-01,8.707337081432342529e-02,-4.115907102823257446e-02,3.153275698423385620e-02,6.274805217981338501e-02,9.095163084566593170e-03,-3.699280321598052979e-02,-1.429226100444793701e-01,-2.927352674305438995e-02,-3.192235156893730164e-02,1.181206852197647095e-01,7.577201724052429199e-02,-1.640376448631286621e-01,-1.203474253416061401e-01,-8.676466345787048340e-02,-5.671555176377296448e-02,-8.893211185932159424e-02,-1.180552393198013306e-01,8.359153568744659424e-02,-4.198290780186653137e-02,-4.672672227025032043e-02,-1.653668843209743500e-02,-5.562355741858482361e-02,6.086771935224533081e-02,1.265621185302734375e-01,-8.668451011180877686e-02,-1.349691301584243774e-01,1.754177920520305634e-02,-3.410561010241508484e-02,-7.795392721891403198e-02,1.106378287076950073e-01,1.141843125224113464e-01,-2.037669718265533447e-02,1.025616899132728577e-01,5.904355645179748535e-02,5.931350588798522949e-02,1.620713993906974792e-02,-5.604515597224235535e-02,-6.583603471517562866e-02,-4.695976153016090393e-02,1.690740585327148438e-01,-7.829781621694564819e-02,-5.168170109391212463e-02,3.819671273231506348e-02,1.850144006311893463e-02,-2.278159372508525848e-02,-4.404442757368087769e-02,-5.375152453780174255e-02,-2.428711950778961182e-02,-1.559677273035049438e-01,9.738873690366744995e-03,1.102107986807823181e-01,-3.000631928443908691e-02,1.879941672086715698e-01,-1.983887404203414917e-01,-2.236841432750225067e-02,-2.996908873319625854e-02,-1.229277625679969788e-02,4.677999392151832581e-02,-8.996198326349258423e-02,4.181289300322532654e-02,4.257649928331375122e-02,-2.708076126873493195e-02,-1.890860870480537415e-02,-2.917849458754062653e-02,7.972676306962966919e-02,1.702647656202316284e-03,1.343796551227569580e-01,1.664862632751464844e-01,-1.565213650465011597e-01,3.890816867351531982e-02,8.902559988200664520e-03,1.662977188825607300e-01,-2.686638943850994110e-02,-8.383221924304962158e-03,-6.355957686901092529e-02,-7.361640036106109619e-02,1.730463467538356781e-02,1.335323303937911987e-01,-1.799077987670898438e-01,-3.059236332774162292e-02,8.639347553253173828e-02,-1.780425757169723511e-01,-1.934511363506317139e-01,-3.576150909066200256e-02,-2.575748786330223083e-02,-5.055838823318481445e-02,8.237130939960479736e-03,3.147974610328674316e-02,1.438248455524444580e-01,-3.814279660582542419e-02,-9.205333888530731201e-02,9.379941970109939575e-03,-7.393454760313034058e-02,-9.793866425752639771e-02,-2.033745124936103821e-02,7.185648381710052490e-02,6.229096278548240662e-02,1.215825453400611877e-01,-5.492854863405227661e-02,9.079798310995101929e-02,-6.978987157344818115e-02,-5.929092690348625183e-02,9.918246418237686157e-02,5.957343801856040955e-02,-1.301433518528938293e-02,-2.925734408199787140e-02,-9.473709017038345337e-02,9.665795415639877319e-02,-1.845497637987136841e-01,-1.358994394540786743e-01,9.034111350774765015e-02,1.693509891629219055e-02,8.255650848150253296e-02,-8.735425770282745361e-03,1.935842074453830719e-02,2.898742444813251495e-02,-2.744843624532222748e-02,-1.363746076822280884e-01
3.879246860742568970e-02,7.211861014366149902e-02,-1.259559392929077148e-02,1.371615231037139893e-01,-6.995248049497604370e-02,5.672077089548110962e-02,-8.075781911611557007e-02,-1.702177077531814575e-01,4.471660777926445007e-02,4.368549585342407227e-02,-1.286022248677909374e-03,6.044299528002738953e-02,5.772229656577110291e-02,-4.757706075906753540e-02,1.889763623476028442e-01,-1.575026065111160278e-01,1.270267814397811890e-01,6.714066863059997559e-02,4.520856216549873352e-02,-3.025867044925689697e-02,-1.044302955269813538e-01,-1.285198479890823364e-01,-3.405731171369552612e-02,-1.666646450757980347e-01,9.454304724931716919e-02,-1.163597330451011658e-01,-1.542997509241104126e-01,-5.543664842844009399e-02,4.596939682960510254e-02,-8.499293774366378784e-02,1.143214330077171326e-01,1.961813569068908691e-01,-2.424070425331592560e-02,7.636620849370956421e-02,-5.583630129694938660e-02,-1.675949804484844208e-02,-2.051439136266708374e-02,4.101493209600448608e-02,1.839787326753139496e-02,-7.284991443157196045e-03,-2.250309288501739502e-02,-4.478616639971733093e-02,-1.110517010092735291e-01,-1.284463610500097275e-02,1.191716417670249939e-01,-9.824372828006744385e-02,4.753207415342330933e-02,2.478893473744392395e-02,6.792113184928894043e-02,-2.150035835802555084e-02,5.064811091870069504e-03,1.521936655044555664e-01,-4.415274038910865784e-02,-6.297552585601806641e-02,-1.997863203287124634e-01,-2.211430668830871582e-02,-1.900480240583419800e-01,-1.004332453012466431e-01,-4.425518214702606201e-02,-1.569337211549282074e-02,-1.028468310832977295e-01,-3.285922110080718994e-02,-1.318492293357849121e-01,2.382019534707069397e-02,3.201986849308013916e-02,8.117454499006271362e-02,-2.193170227110385895e-02,-3.361979499459266663e-02,6.741876900196075439e-02,-1.847356557846069336e-02,6.392852216958999634e-02,-1.313034594058990479e-01,-5.146473273634910583e-02,8.670455217361450195e-02,5.730197951197624207e-02,-1.104934960603713989e-01,1.104102954268455505e-01,-9.293612837791442871e-02,1.124222800135612488e-01,6.284899264574050903e-02,-2.842291723936796188e-03,-1.331105083227157593e-01,7.415411621332168579e-02,1.321448292583227158e-02,7.475099712610244751e-02,-1.149802953004837036e-01,-1.254734694957733154e-01,-1.094141528010368347e-01,-8.674500882625579834e-02,1.542636472731828690e-02,-1.372641623020172119e-01,-2.429842762649059296e-02,-4.782536253333091736e-02,1.218366026878356934e-01,1.640494726598262787e-02,5.733644589781761169e-02,-7.124136388301849365e-02,5.836734920740127563e-02,-9.499686211347579956e-02,-3.232458233833312988e-02,-1.487042405642569065e-03,1.302181482315063477e-01,1.712334342300891876e-03,9.928459674119949341e-02,5.661343410611152649e-02,-2.648587524890899658e-02,-5.707724764943122864e-02,8.816856890916824341e-02,6.196350976824760437e-02,-3.856304660439491272e-02,-8.133341372013092041e-02,-5.804110318422317505e-02,-5.220963433384895325e-02,-4.089974611997604370e-02,-1.928842999041080475e-02,-1.681684516370296478e-02,-3.198269754648208618e-02,-4.825023934245109558e-02,-8.004924654960632324e-02,8.192066848278045654e-02,-7.982214540243148804e-02,-3.487905487418174744e-02,-6.094773486256599426e-02,-1.156206354498863220e-01,-7.488095015287399292e-02,-2.747490815818309784e-02,-2.221593447029590607e-02,1.247330009937286377e-01
3.736780723556876183e-03,1.190374717116355896e-01,7.231730036437511444e-03,1.188139542937278748e-01,1.139138862490653992e-01,-4.318659752607345581e-02,1.288783401250839233e-01,8.524043112993240356e-02,-4.893066361546516418e-03,-8.488697931170463562e-03,-7.697616517543792725e-02,1.358760297298431396e-01,-9.486798942089080811e-02,-6.341052055358886719e-02,-7.943391799926757812e-02,9.792251884937286377e-02,-9.965746104717254639e-02,9.072632342576980591e-02,3.961462900042533875e-02,2.413376420736312866e-02,-1.373995542526245117e-01,-1.572645455598831177e-01,7.450197637081146240e-02,1.431556977331638336e-02,-3.680594265460968018e-02,1.734327822923660278e-01,1.104116812348365784e-01,9.862765669822692871e-02,-3.646537661552429199e-02,-6.196131929755210876e-02,-1.392495930194854736e-01,9.157092124223709106e-02,-9.779220819473266602e-02,-3.855786100029945374e-02,-9.492335468530654907e-02,-1.779497265815734863e-01,-2.944736368954181671e-02,-1.270020455121994019e-01,4.897204786539077759e-02,-1.084150224924087524e-01,4.628572613000869751e-02,-3.774005686864256859e-03,-3.712521493434906006e-02,3.044460155069828033e-02,-1.015202403068542480e-01,6.450431793928146362e-02,-2.008848637342453003e-02,-3.039559908211231232e-02,-5.938778072595596313e-02,-3.325360640883445740e-02,9.648346155881881714e-02,8.891554549336433411e-03,1.665401309728622437e-01,6.148468237370252609e-03,1.494098454713821411e-02,1.876962482929229736e-01,-1.132673174142837524e-01,4.792095348238945007e-02,3.815678507089614868e-02,-2.074638940393924713e-02,4.117874428629875183e-02,-9.788391739130020142e-02,3.317962214350700378e-02,-4.701156541705131531e-02,8.140794932842254639e-02,-3.646644949913024902e-02,4.635138437151908875e-02,-9.711912274360656738e-02,-5.597281455993652344e-02,8.320121467113494873e-02,1.884082704782485962e-02,1.243558805435895920e-02,-8.072534203529357910e-02,5.756147205829620361e-02,-1.246969029307365417e-01,-5.101400613784790039e-02,-1.507743149995803833e-01,9.501623362302780151e-02,2.655636146664619446e-02,-5.272195488214492798e-02,2.682253252714872360e-03,1.545672416687011719e-01,-4.304663464426994324e-02,2.428148873150348663e-03,-1.748227030038833618e-01,8.908221870660781860e-02,-1.697087287902832031e-02,7.359530031681060791e-02,-4.653498157858848572e-02,-3.289435803890228271e-02,-4.574685916304588318e-02,-1.101473160088062286e-02,-7.781524956226348877e-02,1.443889588117599487e-01,-1.335761398077011108e-01,-1.676326990127563477e-01,4.131676629185676575e-02,-1.781794130802154541e-01,1.407614946365356445e-01,3.346086293458938599e-02,1.603412181138992310e-01,-1.210324317216873169e-01,4.426539316773414612e-02,-4.273559153079986572e-02,-1.139721572399139404e-01,4.901883751153945923e-02,2.912827208638191223e-02,8.952420204877853394e-03,2.247827500104904175e-02,-1.445531696081161499e-01,1.463263779878616333e-01,-5.472160503268241882e-02,-8.636012673377990723e-03,4.168704897165298462e-02,4.211112856864929199e-02,2.362257242202758789e-02,-1.712629199028015137e-02,1.549717783927917480e-01,-1.293577104806900024e-01,4.047845676541328430e-02,2.532552555203437805e-02,-6.377306580543518066e-02,-8.358011394739151001e-02,-6.194535642862319946e-02,-2.317881211638450623e-02,7.801748812198638916e-02,-1.109214723110198975e-01,6.723717600107192993e-02
-1.021718606352806091e-01,1.715850457549095154e-02,1.717603881843388081e-03,4.572692140936851501e-02,2.681204490363597870e-02,-8.546547964215278625e-03,1.096272766590118408e-01,-4.885558038949966431e-03,-1.051580184139311314e-03,1.215287595987319946e-01,6.817120127379894257e-03,2.875050157308578491e-02,-5.841283127665519714e-02,1.017967984080314636e-01,9.572173655033111572e-02,-2.136231027543544769e-02,-9.317899495363235474e-02,-1.084231287240982056e-01,2.843784913420677185e-02,-7.863198965787887573e-02,-1.132105104625225067e-02,2.059632353484630585e-02,-1.225467994809150696e-01,3.271966939792037010e-03,3.131634090095758438e-03,6.962841749191284180e-02,3.528205677866935730e-02,9.932347387075424194e-02,8.741105347871780396e-02,-6.964791566133499146e-02,-3.195563703775405884e-02,4.218552634119987488e-02,-6.686766445636749268e-02,-2.344941906630992889e-02,6.451416760683059692e-02,5.845350027084350586e-02,-2.383445680607110262e-04,-9.093440324068069458e-02,1.082381978631019592e-01,2.495639212429523468e-02,-6.450189650058746338e-02,6.732305139303207397e-02,-7.699757814407348633e-02,6.562298536300659180e-02,1.499503403902053833e-01,-6.675519049167633057e-02,9.724596887826919556e-02,7.845076918601989746e-02,-4.377879947423934937e-02,9.522429853677749634e-02,4.205942526459693909e-02,-6.076486897654831409e-04,-1.352614313364028931e-01,1.876526176929473877e-01,-4.708455502986907959e-02,2.525972668081521988e-04,-3.508250415325164795e-02,1.004300173372030258e-02,-1.025469377636909485e-01,-1.380116306245326996e-02,-1.655925624072551727e-02,1.802755296230316162e-01,1.270409673452377319e-01,4.078659415245056152e-02,4.132577404379844666e-02,-4.882659763097763062e-02,8.773043006658554077e-02,5.527732148766517639e-02,1.768351718783378601e-02,1.083752736449241638e-01,-1.506512314081192017e-01,2.080949023365974426e-02,-7.841530442237854004e-02,4.220954142510890961e-03,-1.469410117715597153e-02,-7.701846212148666382e-02,-4.213035479187965393e-02,-4.643357545137405396e-02,1.529305148869752884e-02,-1.061057299375534058e-02,-1.002787426114082336e-01,-1.339133642613887787e-02,-1.648704148828983307e-02,1.592973470687866211e-01,-1.219628006219863892e-01,-1.118027791380882263e-01,2.578402683138847351e-02,-3.695097565650939941e-02,-7.480958104133605957e-02,-3.654195368289947510e-02,-1.251609995961189270e-02,3.159835189580917358e-02,9.790093451738357544e-02,8.027238398790359497e-02,3.856068477034568787e-02,-9.820397943258285522e-02,3.218257427215576172e-02,-1.747393757104873657e-01,-7.262048777192831039e-03,7.998446375131607056e-02,-8.830692619085311890e-02,2.035380899906158447e-02,8.397983759641647339e-02,1.301671261899173260e-03,1.369091421365737915e-01,1.914438232779502869e-02,2.553455717861652374e-02,1.423037052154541016e-01,-5.181767046451568604e-03,1.208441928029060364e-01,6.319301575422286987e-02,7.096876949071884155e-02,7.093814015388488770e-02,1.378355547785758972e-02,1.195396110415458679e-01,1.285663396120071411e-01,1.031168699264526367e-01,3.352073952555656433e-02,1.888356059789657593e-01,6.533197313547134399e-02,-1.713046282529830933e-01,-4.701078683137893677e-02,3.951352089643478394e-02,1.084644198417663574e-01,-5.269760638475418091e-02,-2.653057128190994263e-02,-5.526882596313953400e-03,-3.579137474298477173e-02
-1.811087429523468018e-01,-3.609967231750488281e-02,1.084645092487335205e-01,1.033938005566596985e-01,-1.539136003702878952e-02,-6.727680563926696777e-02,9.320852905511856079e-02,1.632057130336761475e-02,-6.833066791296005249e-02,1.511021405458450317e-01,-9.875565022230148315e-02,5.649894475936889648e-02,-1.683757603168487549e-01,-1.711791157722473145e-01,-3.471475327387452126e-03,4.471951164305210114e-03,4.546359181404113770e-02,1.424739062786102295e-01,-6.440555304288864136e-02,2.933743223547935486e-02,5.342877283692359924e-02,8.914540708065032959e-02,7.414313405752182007e-02,-6.419334560632705688e-02,-1.677707396447658539e-02,4.453946277499198914e-02,-1.753556579351425171e-01,2.690852060914039612e-02,9.553832933306694031e-03,-4.763279482722282410e-02,7.043089717626571655e-02,9.889507293701171875e-02,-1.071360632777214050e-01,1.106078103184700012e-01,-3.739559650421142578e-02,1.684869639575481415e-02,1.715062409639358521e-01,-8.914843946695327759e-02,6.655853241682052612e-02,-2.953338995575904846e-02,5.968817323446273804e-02,2.922557480633258820e-02,-1.092844307422637939e-01,1.342984288930892944e-01,-6.342650949954986572e-02,8.668956905603408813e-02,-1.103487536311149597e-01,5.976962670683860779e-02,-1.670164316892623901e-01,-9.203239530324935913e-02,-6.096845958381891251e-03,-7.401156425476074219e-02,-4.178155586123466492e-02,-1.230666041374206543e-01,8.482211083173751831e-02,1.809674873948097229e-02,-3.644714504480361938e-02,8.306566625833511353e-02,-9.702436625957489014e-02,-1.964375004172325134e-02,8.792895823717117310e-02,5.307951942086219788e-02,7.870468311011791229e-03,1.663480401039123535e-01,4.362047836184501648e-02,-6.111776828765869141e-02,-6.071659922599792480e-02,-2.531740628182888031e-02,7.795116305351257324e-02,-4.618993401527404785e-02,5.320359021425247192e-02,-1.247486378997564316e-02,4.274330288171768188e-02,-4.296700283885002136e-02,2.166736871004104614e-02,5.793862417340278625e-02,9.543917328119277954e-02,-4.877768829464912415e-02,2.479371987283229828e-02,1.362252831459045410e-01,-1.062330510467290878e-02,-5.801662057638168335e-02,1.708788275718688965e-01,1.621054671704769135e-02,-5.031574517488479614e-02,-1.383237913250923157e-02,-5.068399757146835327e-02,7.913251221179962158e-02,-6.937736179679632187e-03,-1.025513634085655212e-01,4.544013366103172302e-02,7.734972238540649414e-02,-2.258019754663109779e-03,1.420118510723114014e-01,1.725478470325469971e-01,-2.538533881306648254e-02,3.921412304043769836e-02,7.208234816789627075e-02,8.146997541189193726e-02,2.975797094404697418e-02,4.561956599354743958e-02,-1.418455038219690323e-02,1.874786242842674255e-02,1.505318582057952881e-01,-3.656464070081710815e-02,-1.819832026958465576e-01,5.173261091113090515e-02,3.667531535029411316e-02,-4.646077007055282593e-02,-9.801622480154037476e-02,-6.947498768568038940e-02,8.366260677576065063e-02,-1.467858701944351196e-01,1.327706873416900635e-01,-1.118518263101577759e-01,-5.100848153233528137e-02,1.644273288547992706e-02,7.844927161931991577e-02,1.546929031610488892e-01,6.455684453248977661e-02,2.948418818414211273e-02,4.614827409386634827e-02,-1.949392259120941162e-02,-2.875830233097076416e-02,6.913369894027709961e-02,-1.956747472286224365e-02,-1.693549752235412598e-01,-5.505067482590675354e-02
1.404055655002593994e-01,8.963601663708686829e-03,9.953262656927108765e-02,1.460637897253036499e-01,5.843867734074592590e-02,-6.368666887283325195e-03,-1.467483304440975189e-02,-4.072126373648643494e-02,9.173391759395599365e-02,2.443422749638557434e-02,2.377305738627910614e-02,-6.130329798907041550e-03,2.502316795289516449e-02,-1.374067515134811401e-01,-5.970867350697517395e-02,-1.049488559365272522e-01,-9.811639785766601562e-02,-7.094129920005798340e-02,1.893837600946426392e-01,1.060158908367156982e-01,-1.891515552997589111e-01,-1.996787637472152710e-02,1.854962483048439026e-02,5.527274310588836670e-02,4.969420656561851501e-02,1.144101768732070923e-01,3.188303438946604729e-03,-3.172586858272552490e-02,-2.721119299530982971e-02,-9.239763766527175903e-02,-1.292219758033752441e-01,-8.081001788377761841e-02,-1.252330988645553589e-01,9.511597454547882080e-02,-8.001296967267990112e-02,-1.605441272258758545e-01,-9.371260553598403931e-02,1.947351992130279541e-01,-5.645872280001640320e-02,-9.939238429069519043e-02,1.409717947244644165e-01,2.323175035417079926e-02,-6.126442179083824158e-02,-5.673758313059806824e-02,5.773558095097541809e-02,1.027733460068702698e-01,-9.608910977840423584e-02,1.063412800431251526e-01,1.374654471874237061e-01,8.883096277713775635e-02,-6.135178357362747192e-02,-5.587136838585138321e-03,-5.994328483939170837e-02,9.678889811038970947e-02,-1.499825567007064819e-01,5.689641833305358887e-02,-4.817929118871688843e-02,-1.416423916816711426e-01,-1.153444498777389526e-01,6.134006660431623459e-03,-6.845501065254211426e-02,4.210766404867172241e-02,1.301324367523193359e-01,-1.007652282714843750e-02,5.716317892074584961e-02,2.250081673264503479e-02,1.234976574778556824e-02,5.537631735205650330e-02,4.624459892511367798e-02,6.249191239476203918e-02,1.085880957543849945e-02,-1.183380037546157837e-01,-9.002826362848281860e-02,1.765530258417129517e-01,-5.001777037978172302e-02,-7.750341203063726425e-03,1.761598512530326843e-02,1.282021403312683105e-01,-5.390748381614685059e-02,-1.167285349220037460e-02,-8.189507573843002319e-02,7.235027104616165161e-02,-3.323047235608100891e-02,-2.311350405216217041e-02,5.827072635293006897e-02,-1.092071086168289185e-01,2.337836287915706635e-02,1.465295068919658661e-02,2.357770316302776337e-02,8.365329355001449585e-02,4.195275530219078064e-02,-5.588444694876670837e-02,8.773225545883178711e-02,-6.178953871130943298e-02,1.525900699198246002e-02,1.029458120465278625e-01,1.357499510049819946e-01,4.319209232926368713e-02,-1.360863596200942993e-01,4.064698703587055206e-03,1.191555261611938477e-01,-1.147158145904541016e-01,2.945672255009412766e-03,7.619149982929229736e-02,4.551235958933830261e-02,-8.807685226202011108e-02,3.386213257908821106e-02,1.316751241683959961e-01,5.989462882280349731e-02,-7.058588415384292603e-02,1.615223884582519531e-01,5.158172175288200378e-02,-5.853471159934997559e-02,1.308060139417648315e-01,9.092685580253601074e-02,-2.559959515929222107e-02,-1.655106097459793091e-01,-1.940197683870792389e-02,7.118756184354424477e-04,-1.695619523525238037e-02,5.446779355406761169e-02,4.085747897624969482e-02,1.684613376855850220e-01,-1.355450600385665894e-02,8.290728181600570679e-02,-1.908508390188217163e-01,-1.342875137925148010e-02,7.533784210681915283e-02
-2.295999601483345032e-02,1.782944947481155396e-01,-5.405970290303230286e-02,4.100228473544120789e-02,1.064762920141220093e-01,1.466910243034362793e-01,-1.934615522623062134e-01,-2.100772038102149963e-02,-8.024424314498901367e-02,-2.769563905894756317e-02,-1.805720850825309753e-02,-2.793373540043830872e-02,-2.260468341410160065e-02,-1.286409199237823486e-01,1.618141541257500648e-03,4.059806093573570251e-02,6.246070191264152527e-02,6.030986830592155457e-02,-6.859400123357772827e-02,-5.330032482743263245e-02,-1.769034117460250854e-01,9.406810626387596130e-03,5.110603757202625275e-03,2.972480654716491699e-02,2.863304875791072845e-02,1.732030659914016724e-01,-1.435795873403549194e-01,-8.030625432729721069e-02,-2.994575351476669312e-02,1.599145829677581787e-01,-2.461509592831134796e-02,1.182748675346374512e-01,7.068274170160293579e-02,-1.173113808035850525e-01,6.281156092882156372e-02,9.213605523109436035e-02,5.226086080074310303e-02,-5.365336779505014420e-03,-3.222569450736045837e-02,1.774368248879909515e-02,4.567335173487663269e-02,1.068788617849349976e-01,7.926792651414871216e-02,2.660103887319564819e-02,-6.727132946252822876e-02,1.449896693229675293e-01,7.231198996305465698e-02,-1.281657069921493530e-01,-1.090122163295745850e-01,3.124666400253772736e-02,9.238734096288681030e-02,1.407150179147720337e-02,1.166926100850105286e-01,4.982865601778030396e-02,6.404169648885726929e-02,7.915934920310974121e-02,1.716994680464267731e-02,1.614338010549545288e-01,7.103615999221801758e-02,7.245984673500061035e-02,7.953558117151260376e-02,-1.991556584835052490e-01,-7.938914746046066284e-02,5.857789888978004456e-03,-1.355397421866655350e-02,1.693194955587387085e-01,7.220386713743209839e-02,-4.587514698505401611e-02,-9.560953080654144287e-02,-2.130450308322906494e-02,-1.437395066022872925e-02,2.060951665043830872e-02,-1.606819778680801392e-01,1.134307030588388443e-02,5.954457819461822510e-02,-1.494816690683364868e-01,9.459583461284637451e-02,-1.462963782250881195e-02,-1.496222987771034241e-02,1.845526136457920074e-02,-5.375184491276741028e-02,-4.277645051479339600e-02,9.890850633382797241e-02,3.776276856660842896e-02,-4.457408189773559570e-02,2.097892761230468750e-02,-5.199657380580902100e-02,1.400744616985321045e-01,1.587539464235305786e-01,-3.546674549579620361e-02,9.808431565761566162e-02,1.907025650143623352e-02,1.458955556154251099e-01,5.416135862469673157e-02,-3.844968229532241821e-02,4.899409040808677673e-02,7.006872445344924927e-02,-6.013025715947151184e-02,-1.598998606204986572e-01,1.309569627046585083e-01,-1.037257462739944458e-01,8.539813011884689331e-02,-6.443887203931808472e-02,5.555410683155059814e-02,-1.321265697479248047e-01,5.716037377715110779e-02,-7.664142549037933350e-02,1.114119067788124084e-01,1.187576353549957275e-01,-3.114266693592071533e-02,7.364304270595312119e-03,-4.755096975713968277e-03,-7.682889699935913086e-02,1.606060750782489777e-02,1.637533456087112427e-01,-1.014270186424255371e-01,-5.128715187311172485e-02,-8.907214738428592682e-03,-6.934360414743423462e-02,3.138403221964836121e-02,1.034738793969154358e-01,-5.811752006411552429e-02,-3.579548001289367676e-02,-1.108260303735733032e-01,-5.900213122367858887e-02,-7.768254727125167847e-02,1.513151358813047409e-02,3.403288871049880981e-02
9.027414768934249878e-02,-1.920186914503574371e-02,3.123797848820686340e-02,-1.083865575492382050e-02,3.607152029871940613e-02,1.067864671349525452e-01,8.577482402324676514e-02,-1.030062213540077209e-01,-2.514080516993999481e-02,-1.138014644384384155e-01,-3.372669965028762817e-02,-3.747117891907691956e-02,7.509737461805343628e-02,-2.422780729830265045e-02,5.015296489000320435e-02,-1.663774624466896057e-02,-6.811209768056869507e-02,-7.626215927302837372e-03,-4.857405647635459900e-02,3.788733109831809998e-02,1.996282301843166351e-02,1.178242936730384827e-01,-1.384388804435729980e-01,7.579228281974792480e-02,8.908490650355815887e-03,-1.913390457630157471e-01,1.080387011170387268e-01,-7.079395651817321777e-02,-4.793607443571090698e-02,8.447430282831192017e-02,-2.550969831645488739e-02,-6.032168492674827576e-02,7.033726572990417480e-02,3.668570891022682190e-02,1.369058787822723389e-01,4.583213105797767639e-02,-1.135820895433425903e-01,5.993015319108963013e-02,-8.969428949058055878e-03,1.684526056051254272e-01,-3.484046086668968201e-02,-8.923042565584182739e-02,8.984563872218132019e-03,9.052834659814834595e-02,5.091266334056854248e-02,1.528609264642000198e-02,7.629093527793884277e-02,-1.003103926777839661e-01,8.826473355293273926e-02,9.247391670942306519e-02,-1.858198493719100952e-01,-2.861518971621990204e-02,6.268342584371566772e-02,1.354186385869979858e-01,3.801902383565902710e-02,-8.669839054346084595e-02,-6.524864584207534790e-02,1.627395153045654297e-01,-1.336059123277664185e-01,8.853916078805923462e-02,1.162060350179672241e-01,-4.264472424983978271e-02,-1.323548704385757446e-01,-1.071128323674201965e-01,5.382096767425537109e-02,2.410654537379741669e-02,4.028280824422836304e-02,4.603210836648941040e-02,3.049969300627708435e-02,1.321317851543426514e-01,3.677706932649016380e-03,4.940605908632278442e-02,-6.574765592813491821e-02,-9.269115328788757324e-02,-1.106430441141128540e-01,-5.210541561245918274e-02,-1.472081523388624191e-02,-8.019541949033737183e-02,2.565519511699676514e-02,5.658977665007114410e-03,-1.003454104065895081e-01,6.791976094245910645e-02,-4.578931257128715515e-02,-9.309680014848709106e-02,1.032916158437728882e-01,1.469843387603759766e-01,-8.939444273710250854e-02,-1.215261127799749374e-02,1.325874328613281250e-01,-7.907123118638992310e-02,-5.408167373389005661e-03,1.947873644530773163e-02,1.491210013628005981e-01,6.558637600392103195e-03,2.185416780412197113e-02,-1.907457709312438965e-01,-1.387860774993896484e-01,-1.091366335749626160e-01,-4.942303989082574844e-03,5.076779425144195557e-02,-2.409960888326168060e-02,4.537414759397506714e-02,9.809378534555435181e-02,-5.583098158240318298e-02,-2.894059754908084869e-02,-8.242850750684738159e-02,-7.812780886888504028e-02,6.662356853485107422e-02,-1.473163813352584839e-02,1.769968122243881226e-02,-6.211684085428714752e-03,-1.558917202055454254e-02,-1.088259592652320862e-01,-1.268750522285699844e-02,1.969839930534362793e-01,-1.011483594775199890e-01,1.356973499059677124e-01,1.631867140531539917e-01,-9.249277412891387939e-02,-8.993250876665115356e-02,1.695447973906993866e-02,1.475623995065689087e-01,-6.735596805810928345e-02,5.908622220158576965e-02,9.972161054611206055e-02,2.120956778526306152e-02,9.553364664316177368e-02,-6.235371256479993463e-05
-1.014856994152069092e-01,-2.115740673616528511e-03,7.850060611963272095e-02,2.833071537315845490e-02,1.781106889247894287e-01,3.097639046609401703e-02,2.572367340326309204e-02,8.677309006452560425e-02,7.575807720422744751e-02,-1.518276780843734741e-01,1.018881201744079590e-01,3.330716490745544434e-02,2.731360308825969696e-02,5.093982815742492676e-02,4.973562061786651611e-02,1.027109548449516296e-01,2.030368708074092865e-02,-1.461927965283393860e-02,8.872362971305847168e-02,-3.601441904902458191e-02,1.277664899826049805e-01,-3.312736004590988159e-02,7.659432291984558105e-02,1.031186953186988831e-01,9.948699176311492920e-02,6.895266938954591751e-03,7.150699943304061890e-02,8.813138265395537019e-05,1.909157335758209229e-01,1.900310218334197998e-01,9.253530949354171753e-02,5.893693864345550537e-02,-2.292042039334774017e-02,1.606781929731369019e-01,2.063318854197859764e-03,-2.440294716507196426e-03,-4.510975256562232971e-02,6.805492192506790161e-02,1.578560173511505127e-01,-2.515437267720699310e-02,-9.445103257894515991e-02,1.056260615587234497e-01,1.158272475004196167e-01,-6.855902075767517090e-02,7.939755171537399292e-02,7.228509336709976196e-02,3.736114501953125000e-02,-6.497027724981307983e-02,-1.024167835712432861e-01,-7.290346175432205200e-02,1.621097326278686523e-01,7.970987260341644287e-02,4.422848299145698547e-02,2.414924278855323792e-02,1.541608273983001709e-01,-5.339365079998970032e-02,1.047049313783645630e-01,-3.498416766524314880e-02,8.390419185161590576e-02,7.154109328985214233e-02,1.563955545425415039e-01,-6.118099763989448547e-02,6.711148470640182495e-02,1.162157282233238220e-01,8.316795527935028076e-02,3.146308287978172302e-02,5.274346470832824707e-02,8.294294774532318115e-02,-4.497578367590904236e-02,1.221120059490203857e-01,1.111749038100242615e-01,-2.844922803342342377e-02,-1.780463308095932007e-01,8.264078944921493530e-02,1.574862934648990631e-02,-5.288063548505306244e-03,1.162758842110633850e-02,1.262297332286834717e-01,6.745580583810806274e-02,4.772153869271278381e-02,1.128572598099708557e-01,-1.236193180084228516e-01,-4.397348314523696899e-02,1.140638738870620728e-01,-5.634065717458724976e-02,1.954080909490585327e-02,6.883489340543746948e-02,1.054551452398300171e-01,-8.247327804565429688e-02,-1.433091312646865845e-01,-7.979167252779006958e-02,5.810792092233896255e-03,-1.375637110322713852e-02,-8.001523092389106750e-03,-9.940763562917709351e-02,-1.372696459293365479e-01,-1.270853728055953979e-01,-1.460745036602020264e-01,-1.769853010773658752e-02,1.900481581687927246e-01,-1.909785717725753784e-01,2.593445777893066406e-02,-1.027826666831970215e-01,1.485740542411804199e-01,-1.120192483067512512e-01,-3.639633953571319580e-02,2.755764126777648926e-02,-7.539816945791244507e-02,1.222872808575630188e-01,2.324932254850864410e-02,1.667753048241138458e-02,3.667792305350303650e-02,-2.966375276446342468e-02,9.496548213064670563e-03,9.613592177629470825e-02,-8.975987136363983154e-02,-1.459407061338424683e-01,-1.485444754362106323e-01,-5.052467435598373413e-02,5.505251139402389526e-02,9.385189414024353027e-02,3.800470009446144104e-02,1.127741113305091858e-01,-1.767379939556121826e-01,9.648790583014488220e-03,-7.803470641374588013e-02,5.323563888669013977e-02,3.396382555365562439e-02
1.656088829040527344e-01,-1.038722321391105652e-01,-2.851907350122928619e-02,3.292004391551017761e-02,9.071408957242965698e-02,9.608869999647140503e-02,-7.034627348184585571e-02,5.544764176011085510e-02,-7.207338511943817139e-02,9.628690034151077271e-02,2.394758164882659912e-02,1.436049025505781174e-02,-6.980736553668975830e-02,-3.620966151356697083e-02,-6.420090049505233765e-02,1.368909180164337158e-01,1.087231040000915527e-01,1.077818870544433594e-01,1.399035304784774780e-01,-1.086287852376699448e-02,3.592244535684585571e-02,-5.731027945876121521e-02,1.615175455808639526e-01,-1.886055022478103638e-01,-3.665652498602867126e-02,4.568305239081382751e-02,6.092992611229419708e-03,-4.501448199152946472e-02,-2.962738042697310448e-03,1.184213012456893921e-01,-1.758373975753784180e-01,-2.596286684274673462e-02,1.039112210273742676e-01,-5.029714107513427734e-02,-1.680813878774642944e-01,-1.629206985235214233e-01,-9.651385992765426636e-02,-1.380609907209873199e-02,4.597611725330352783e-02,1.094650030136108398e-01,-9.013669937849044800e-02,1.358696818351745605e-02,7.899580895900726318e-02,-4.212286695837974548e-02,1.650720834732055664e-01,2.337607927620410919e-02,1.115173920989036560e-01,-1.080218330025672913e-02,-3.160891309380531311e-02,5.944068357348442078e-02,1.139568164944648743e-01,-4.704629827756434679e-04,-5.093876644968986511e-02,-8.104771375656127930e-02,1.638040877878665924e-02,-1.779177226126194000e-02,3.576380014419555664e-02,-3.213680908083915710e-02,1.055375263094902039e-01,3.794083744287490845e-02,-4.521357826888561249e-03,5.515773966908454895e-02,1.611850112676620483e-01,4.865522310137748718e-02,-4.644202813506126404e-02,4.453883972018957138e-03,-3.750241920351982117e-02,8.073014020919799805e-02,-3.539050742983818054e-02,-5.545470491051673889e-02,-8.135253936052322388e-02,4.882659297436475754e-03,-1.158057078719139099e-01,1.012633666396141052e-01,-2.758710458874702454e-02,-1.422520279884338379e-01,1.550448238849639893e-01,-1.220828443765640259e-01,1.202403828501701355e-01,9.966795891523361206e-02,-5.660820286720991135e-03,-3.855895251035690308e-02,3.636690601706504822e-02,-1.602304279804229736e-01,4.272864013910293579e-02,3.678085654973983765e-02,1.815560907125473022e-01,7.079266011714935303e-02,-4.021904990077018738e-02,1.248982697725296021e-01,6.775770336389541626e-02,-1.746799200773239136e-01,1.060915961861610413e-01,1.764365434646606445e-01,-7.213331758975982666e-02,-3.467964008450508118e-02,1.239891424775123596e-01,-5.062605440616607666e-02,-2.207283489406108856e-02,1.437322199344635010e-01,-8.090950548648834229e-02,-9.660338610410690308e-02,9.366092085838317871e-02,-1.065462827682495117e-01,-2.600747719407081604e-02,-2.042222581803798676e-02,-1.429944634437561035e-01,-3.880959376692771912e-02,-1.225758939981460571e-01,-9.410624951124191284e-02,8.912129700183868408e-02,1.604589074850082397e-02,-8.241818845272064209e-02,-7.182282954454421997e-02,-4.319422692060470581e-02,6.030379235744476318e-02,-2.264051698148250580e-03,-1.482374072074890137e-01,1.545579452067613602e-02,-9.793023765087127686e-02,-5.665674433112144470e-02,-1.009249687194824219e-01,4.207159858196973801e-03,1.190891787409782410e-01,-1.758397072553634644e-01,1.721596568822860718e-01,-1.229071151465177536e-02,-1.627026051282882690e-01
1.668102853000164032e-02,1.061916276812553406e-01,-1.207674145698547363e-01,1.688958406448364258e-01,2.813526429235935211e-02,8.229881525039672852e-02,-3.679951885715126991e-03,3.924531862139701843e-02,4.082531109452247620e-02,-2.776785939931869507e-02,1.386586725711822510e-01,1.705900952219963074e-02,8.676878362894058228e-02,-1.799505352973937988e-01,4.770227521657943726e-02,-5.814235284924507141e-02,-6.666208151727914810e-03,3.504818677902221680e-02,2.990442514419555664e-02,-6.786271929740905762e-02,-3.408012539148330688e-02,6.506100296974182129e-02,-8.685470372438430786e-02,-4.315830767154693604e-02,5.106444284319877625e-02,3.862916305661201477e-02,1.154691427946090698e-01,-9.615340828895568848e-02,-7.091753929853439331e-02,5.285448580980300903e-02,-6.227919459342956543e-02,3.468492999672889709e-02,1.421642955392599106e-02,-8.497971110045909882e-03,7.265792042016983032e-02,6.941563636064529419e-02,-9.095159359276294708e-03,-5.429336056113243103e-02,-7.284902781248092651e-02,2.611263655126094818e-02,-2.008779533207416534e-02,8.496699482202529907e-02,1.064092013984918594e-02,-9.427447617053985596e-02,-5.174307152628898621e-02,-5.677390471100807190e-02,-7.901124656200408936e-02,-2.115573175251483917e-02,4.967587813735008240e-02,-1.965791881084442139e-01,7.466874271631240845e-02,-1.212420538067817688e-01,-8.782692253589630127e-02,-4.588195309042930603e-02,9.218560159206390381e-02,1.125877276062965393e-01,7.936616428196430206e-03,-1.202020701020956039e-02,-2.116644755005836487e-02,-7.109490782022476196e-02,7.544684410095214844e-02,-3.675174713134765625e-02,-1.667706370353698730e-01,2.014293149113655090e-02,-6.183021236211061478e-03,-1.168505102396011353e-01,4.071343690156936646e-02,-3.715016692876815796e-02,9.810986369848251343e-02,1.618625372648239136e-01,4.778649657964706421e-03,-5.537151824682950974e-03,-8.220344781875610352e-02,1.464942991733551025e-01,7.463949918746948242e-02,3.808858618140220642e-02,-2.473552897572517395e-02,-7.930747419595718384e-02,1.963338442146778107e-02,4.185266420245170593e-02,4.954990372061729431e-02,6.765675544738769531e-02,5.081008747220039368e-02,3.136697411537170410e-02,-5.167988687753677368e-02,-1.082714721560478210e-01,1.402676403522491455e-01,1.515255868434906006e-02,1.098519284278154373e-02,-4.348760470747947693e-02,5.822972580790519714e-02,-3.422392532229423523e-02,5.570491403341293335e-02,-1.689795255661010742e-01,-1.320637762546539307e-01,-7.135803997516632080e-02,7.748866826295852661e-02,-7.717274874448776245e-02,-3.291850909590721130e-02,3.564176335930824280e-02,1.017050147056579590e-01,-8.239544183015823364e-02,-1.336657106876373291e-01,8.986810594797134399e-02,4.357388988137245178e-02,3.405735641717910767e-02,2.621030143927782774e-04,1.922891736030578613e-01,-5.100111942738294601e-03,-3.544493392109870911e-02,3.542470932006835938e-02,9.103814512491226196e-02,-1.107995659112930298e-01,7.584138214588165283e-02,1.604061387479305267e-02,1.515268236398696899e-01,6.012175232172012329e-03,-7.409042119979858398e-02,-1.099609397351741791e-02,-1.869918406009674072e-02,2.529160119593143463e-02,-2.331933565437793732e-02,-1.612865552306175232e-02,-1.294611860066652298e-02,-1.971952617168426514e-01,-3.920575976371765137e-02,-5.288053676486015320e-02,4.823240265250205994e-02
-1.563460975885391235e-01,-1.622889563441276550e-02,5.577747896313667297e-02,9.795684367418289185e-02,9.337940812110900879e-02,-1.536736451089382172e-02,-4.548421874642372131e-02,-1.066977083683013916e-01,9.283202141523361206e-02,-3.828774392604827881e-02,3.876623883843421936e-02,-1.854741871356964111e-01,-1.417950093746185303e-01,6.582414265722036362e-03,-1.653791591525077820e-02,-1.306668370962142944e-01,-1.352989226579666138e-01,1.703466475009918213e-01,-1.014918759465217590e-01,6.892111897468566895e-02,7.856855168938636780e-03,3.533911705017089844e-02,-6.469944119453430176e-02,8.598636835813522339e-02,5.024617537856101990e-02,-1.502869278192520142e-01,7.690566033124923706e-02,4.828198626637458801e-02,-1.952706575393676758e-01,-8.187142014503479004e-02,-2.350713498890399933e-02,5.763419717550277710e-02,8.478511124849319458e-02,-1.840106844902038574e-01,-9.504692256450653076e-02,-1.175648123025894165e-01,2.239424549043178558e-02,-8.200521767139434814e-02,-5.653051659464836121e-02,-6.585539877414703369e-02,-1.425684690475463867e-01,7.165705412626266479e-02,1.185903921723365784e-01,-1.607404947280883789e-01,1.336587220430374146e-01,-8.896371349692344666e-03,3.179534897208213806e-02,-1.788121312856674194e-01,1.311399191617965698e-01,8.355221897363662720e-02,1.427281796932220459e-01,-4.540917649865150452e-02,1.512761563062667847e-01,1.076907590031623840e-01,9.865553677082061768e-02,-2.683273330330848694e-02,2.031818218529224396e-02,-5.598103627562522888e-02,7.524678856134414673e-02,-4.251217842102050781e-02,-5.372271314263343811e-02,-1.311123818159103394e-01,-9.764716029167175293e-03,-1.864280998706817627e-01,-1.083815544843673706e-01,-6.334543973207473755e-02,5.521526932716369629e-02,1.373160257935523987e-02,-3.728958964347839355e-02,3.007048927247524261e-02,1.163063850253820419e-02,4.895793274044990540e-02,-9.507618844509124756e-02,-1.667764782905578613e-01,-7.378143817186355591e-02,-3.295083343982696533e-02,4.384165629744529724e-02,-6.147123500704765320e-02,-7.126046717166900635e-02,-5.346874147653579712e-02,-7.477576285600662231e-02,2.436529286205768585e-02,-2.381001599133014679e-02,1.219131574034690857e-01,-8.249388635158538818e-02,-4.841478168964385986e-02,-1.007634028792381287e-01,-9.207706898450851440e-02,1.708281785249710083e-01,-5.566586181521415710e-02,1.772977784276008606e-02,6.978444755077362061e-02,4.413967579603195190e-02,4.475541785359382629e-02,5.160249397158622742e-02,-5.647053197026252747e-02,2.293555811047554016e-02,-3.037747181951999664e-02,7.419484853744506836e-02,1.303167492151260376e-01,1.705212704837322235e-02,3.489965945482254028e-02,5.722618848085403442e-02,-9.052741527557373047e-02,9.347254037857055664e-02,5.176926776766777039e-02,2.772709354758262634e-02,5.226629972457885742e-02,-3.044780157506465912e-02,1.160803958773612976e-01,7.253262214362621307e-03,-3.271627053618431091e-02,6.464293599128723145e-02,1.024585366249084473e-01,-2.535325475037097931e-02,-1.061791777610778809e-01,4.472571611404418945e-02,9.930103085935115814e-03,5.009989067912101746e-02,-9.456933476030826569e-03,2.119845338165760040e-02,-1.134572625160217285e-01,9.416731446981430054e-02,1.268190611153841019e-02,1.679088324308395386e-01,5.417154356837272644e-02,5.274107214063405991e-03,-1.109831854701042175e-01
9.706848859786987305e-02,4.366268217563629150e-02,1.014472395181655884e-01,9.753842651844024658e-02,-8.014880120754241943e-02,3.773685917258262634e-02,5.935600958764553070e-03,-1.184665486216545105e-01,6.133469566702842712e-02,1.507818698883056641e-01,6.386198848485946655e-02,-1.666624993085861206e-01,-1.133253574371337891e-01,-1.469447761774063110e-01,1.886472254991531372e-01,-5.609767511487007141e-03,5.801792070269584656e-02,-7.768568396568298340e-02,1.516086459159851074e-01,-1.428407877683639526e-01,-3.663629293441772461e-02,3.727372363209724426e-02,-1.956248432397842407e-01,-2.238130196928977966e-02,-3.232999145984649658e-02,2.689669840037822723e-02,2.452744916081428528e-02,1.692861318588256836e-01,-2.655235119163990021e-02,-1.343511641025543213e-01,1.514615565538406372e-01,1.140497252345085144e-01,-1.610066294670104980e-01,-1.135848388075828552e-01,1.020520031452178955e-01,6.327179819345474243e-02,1.315511912107467651e-01,-1.881690323352813721e-02,-5.953576043248176575e-02,7.225604262202978134e-03,-4.973225668072700500e-02,2.140422351658344269e-02,-5.220904015004634857e-03,1.718403212726116180e-02,4.456521570682525635e-02,-8.286232501268386841e-02,-1.391171943396329880e-02,-1.272664219141006470e-01,-5.031868815422058105e-03,-7.099966704845428467e-02,-7.821735739707946777e-02,-1.500293463468551636e-01,-1.030052639544010162e-02,-7.925247400999069214e-02,7.793315500020980835e-02,9.129163622856140137e-02,-3.893627226352691650e-02,-1.127122715115547180e-02,-9.273200482130050659e-02,-2.553608454763889313e-02,1.346615105867385864e-01,-1.228458881378173828e-01,-1.170617863535881042e-01,-1.309284865856170654e-01,9.644481539726257324e-02,-4.839788656681776047e-03,-6.215460132807493210e-03,1.081430702470242977e-03,-5.087316036224365234e-02,-5.998084321618080139e-02,-5.597141012549400330e-02,9.107700735330581665e-02,-8.737882017157971859e-04,4.928834736347198486e-02,-1.498764157295227051e-01,2.628003060817718506e-02,5.379824712872505188e-02,9.100897610187530518e-02,-1.998375169932842255e-02,-8.665218017995357513e-03,-9.546732529997825623e-03,-2.803598903119564056e-02,4.059751983731985092e-03,4.032130166888237000e-02,-5.577589198946952820e-02,1.429475694894790649e-01,-1.369190663099288940e-01,-8.765415102243423462e-02,-1.467524319887161255e-01,1.009847223758697510e-01,-9.982988238334655762e-02,5.723599344491958618e-02,-2.486879192292690277e-02,1.863073185086250305e-02,-4.952981695532798767e-02,-1.168627515435218811e-01,-5.035381391644477844e-02,5.652708932757377625e-02,6.004887446761131287e-02,-8.622250705957412720e-02,-4.536243528127670288e-02,7.420195639133453369e-02,5.484697967767715454e-02,-1.152875274419784546e-01,-2.446432411670684814e-02,9.269402921199798584e-02,-5.233481526374816895e-02,-1.024443656206130981e-02,5.013668537139892578e-02,-5.142316967248916626e-02,-8.705072849988937378e-02,-2.945469878613948822e-02,7.337047904729843140e-02,-8.640141040086746216e-02,1.199494823813438416e-01,-8.153834193944931030e-02,4.221687465906143188e-02,3.675502538681030273e-02,-5.651541426777839661e-02,8.374825119972229004e-02,1.628804951906204224e-02,1.480818390846252441e-01,-1.150524616241455078e-01,5.240816995501518250e-02,7.258904725313186646e-02,-1.411682665348052979e-01,4.022812098264694214e-02,8.552617579698562622e-02
-4.747390374541282654e-02,-3.267653584480285645e-01,3.625070154666900635e-01,-3.185929656028747559e-01,-7.332816720008850098e-02,-2.340279221534729004e-01,-1.777855008840560913e-01,-1.010648012161254883e-01,-1.436803489923477173e-01,-3.686608970165252686e-01,1.191083863377571106e-01,-3.587807714939117432e-01,5.877410769462585449e-01,7.301423698663711548e-02,-2.099584192037582397e-01,-1.631487458944320679e-01,-5.126353502273559570e-01,2.546604275703430176e-01,3.723752126097679138e-02,-4.115902483463287354e-01,2.469263076782226562e-01,2.123441398143768311e-01,-6.679876893758773804e-02,2.658524177968502045e-02,3.366550505161285400e-01,-1.360885351896286011e-01,-2.263465523719787598e-01,2.647944986820220947e-01,-3.818662092089653015e-02,-1.393356323242187500e-01,-2.622965164482593536e-02,2.462416328489780426e-02,-2.872159183025360107e-01,-1.378879398107528687e-01,-1.125761568546295166e-01,-1.221596300601959229e-01,1.912776380777359009e-01,2.358385175466537476e-02,-2.815622389316558838e-01,2.237437665462493896e-02,-5.246950313448905945e-02,-1.200457662343978882e-01,-1.348613649606704712e-01,4.673078656196594238e-01,-1.858398169279098511e-01,2.956279180943965912e-02,-1.761218309402465820e-01,3.408085107803344727e-01,2.377899289131164551e-01,7.331539690494537354e-02,-1.238799393177032471e-01,1.428213864564895630e-01,2.923992872238159180e-01,2.709683775901794434e-01,-2.512646317481994629e-01,6.694067269563674927e-02,1.162489950656890869e-01,2.290634065866470337e-02,-3.655551373958587646e-02,-1.814254224300384521e-01,-1.638999730348587036e-01,-3.374279141426086426e-01,-1.970350146293640137e-01,1.575454771518707275e-01,-1.984024792909622192e-01,-9.325049817562103271e-02,-1.600565165281295776e-01,4.485386908054351807e-01,-2.929791212081909180e-01,1.292504966259002686e-01,-2.336326092481613159e-01,-1.882402151823043823e-01,-1.478257682174444199e-02,3.095477819442749023e-01,-2.024334222078323364e-01,-3.508237004280090332e-02,-2.866156995296478271e-01,6.671284437179565430e-01,-6.301908940076828003e-02,9.311389923095703125e-02,4.930397272109985352e-01,-1.209958493709564209e-01,-2.861583232879638672e-01,-1.635410934686660767e-01,-2.514248192310333252e-01,-2.012698650360107422e-01,2.010095864534378052e-01,-2.976555228233337402e-01,-4.658230021595954895e-02,-6.881529837846755981e-02,-5.849821120500564575e-02,-1.865585148334503174e-01,4.731693491339683533e-02,2.353030294179916382e-01,3.603935986757278442e-02,1.676386892795562744e-01,-2.352041155099868774e-01,-2.140964269638061523e-01,3.267852216958999634e-02,-2.274242043495178223e-01,-3.154196441173553467e-01,1.889708787202835083e-01,-3.305107951164245605e-01,2.329859584569931030e-01,-2.044497281312942505e-01,9.861421585083007812e-02,-2.206103503704071045e-01,-1.509314682334661484e-02,-8.846278488636016846e-02,-1.203125417232513428e-01,1.596426218748092651e-01,1.189101338386535645e-01,-3.733377158641815186e-01,1.136507689952850342e-01,3.466103374958038330e-01,-8.807941526174545288e-02,5.695384368300437927e-02,-2.374495565891265869e-01,-1.343862861394882202e-01,-3.846144676208496094e-01,9.120269119739532471e-02,-2.253632992506027222e-01,8.473157882690429688e-02,-1.697263121604919434e-01,-3.013339340686798096e-01,3.863253891468048096e-01,-9.647171199321746826e-02,-1.987445503473281860e-01
1.192676201462745667e-01,3.273896127939224243e-02,2.780277468264102936e-02,-1.397250890731811523e-01,3.806094825267791748e-02,-9.617342799901962280e-02,1.071538105607032776e-01,7.011163979768753052e-02,1.234428957104682922e-01,2.421194687485694885e-03,7.041329145431518555e-02,1.128342598676681519e-01,-2.737889811396598816e-02,3.186626732349395752e-02,-5.093789100646972656e-02,8.492973446846008301e-02,-1.989286625757813454e-03,-1.245657056570053101e-01,3.000192344188690186e-02,-1.242925077676773071e-01,-5.418851599097251892e-02,7.437004242092370987e-03,-5.928446771577000618e-04,-1.525277271866798401e-02,-6.682416796684265137e-02,3.235363587737083435e-02,-1.748752444982528687e-01,5.913149565458297729e-02,1.762253344058990479e-01,-6.930961459875106812e-02,9.954715520143508911e-02,8.001963607966899872e-03,6.394269317388534546e-02,1.340638548135757446e-01,4.359605908393859863e-02,3.123591654002666473e-02,-2.499153371900320053e-03,-1.813078112900257111e-02,-1.258310079574584961e-01,1.682306677103042603e-01,-6.990093737840652466e-02,-1.363266408443450928e-01,1.057345345616340637e-01,7.760337740182876587e-02,4.944059625267982483e-02,-6.025940924882888794e-02,6.228399649262428284e-02,-5.883030220866203308e-02,-1.601305603981018066e-01,-1.894297264516353607e-02,1.805961830541491508e-03,4.131829366087913513e-02,7.311629503965377808e-02,-9.641691297292709351e-02,4.737691581249237061e-02,-1.458374410867691040e-02,3.672673925757408142e-02,-7.979008555412292480e-02,-1.577056199312210083e-01,1.749477908015251160e-02,5.066211149096488953e-02,4.052771255373954773e-02,-1.460024267435073853e-01,1.164885889738798141e-02,6.549937278032302856e-02,2.838097512722015381e-02,1.782852970063686371e-02,-4.966732487082481384e-02,-5.376862734556198120e-02,-4.435108974575996399e-02,-9.440573304891586304e-02,8.822706528007984161e-03,-7.511469721794128418e-02,-1.597234159708023071e-01,-1.537957340478897095e-01,-3.779592365026473999e-02,4.858465865254402161e-02,1.671938598155975342e-01,-9.616904705762863159e-02,-5.484988540410995483e-02,9.577761590480804443e-02,-1.214177906513214111e-01,5.701497569680213928e-02,-2.180601150030270219e-04,6.499268859624862671e-02,-1.287100911140441895e-01,1.826883666217327118e-02,1.289675477892160416e-02,4.206119850277900696e-02,-1.184943392872810364e-01,1.525163650512695312e-02,-7.682621479034423828e-02,1.573814153671264648e-01,-1.371783912181854248e-01,-3.630924969911575317e-02,9.248584508895874023e-02,2.781487442553043365e-02,-1.767019480466842651e-01,1.867130249738693237e-01,2.319747768342494965e-02,8.150465041399002075e-02,-9.340281039476394653e-02,8.513501845300197601e-03,7.832858711481094360e-02,-9.710847586393356323e-02,-4.942811280488967896e-02,1.181625500321388245e-01,1.732978969812393188e-01,2.253825031220912933e-02,-1.007577702403068542e-01,-1.659879088401794434e-01,-3.005908057093620300e-02,9.717488288879394531e-02,-4.386495426297187805e-02,-1.752304844558238983e-02,-2.304300107061862946e-02,3.234275430440902710e-02,-4.054410010576248169e-02,1.634653955698013306e-01,3.410760313272476196e-03,-1.054319813847541809e-01,-2.385136671364307404e-02,-5.844956263899803162e-02,-1.626142263412475586e-01,6.085254997014999390e-02,5.117261037230491638e-02,1.206155717372894287e-01,-7.863885723054409027e-03
6.388117372989654541e-02,-6.645768880844116211e-02,-1.091530472040176392e-01,-1.722289323806762695e-01,-1.223875302821397781e-02,5.323009938001632690e-02,7.362925261259078979e-02,-6.142583861947059631e-02,-8.661074563860893250e-03,8.257703483104705811e-02,5.984446778893470764e-02,1.970545202493667603e-01,-8.187935687601566315e-03,5.532629787921905518e-02,1.758994162082672119e-01,-5.509352311491966248e-02,7.978133857250213623e-02,-1.971024870872497559e-01,1.336847841739654541e-01,-7.548417896032333374e-02,-3.316813334822654724e-02,-1.415424495935440063e-01,3.298174589872360229e-02,-1.904218941926956177e-01,5.755180492997169495e-02,6.665088003501296043e-04,8.981243520975112915e-02,-6.475113332271575928e-02,7.842843979597091675e-02,-1.724373996257781982e-01,2.157218754291534424e-02,-3.670002147555351257e-02,4.864958673715591431e-02,-1.162297278642654419e-01,6.354704964905977249e-03,6.512194126844406128e-02,1.513927280902862549e-01,1.363932061940431595e-02,-1.293795704841613770e-01,6.844975054264068604e-02,-5.915785208344459534e-02,1.881003677845001221e-01,-1.351587176322937012e-01,-3.735820949077606201e-02,2.524192258715629578e-02,9.614101797342300415e-02,5.138825252652168274e-02,4.072754085063934326e-02,5.074616894125938416e-02,-3.535791486501693726e-02,-8.916658163070678711e-02,1.197406649589538574e-02,-1.401151865720748901e-01,-1.298673599958419800e-01,6.748326122760772705e-02,-4.243308305740356445e-02,3.734382614493370056e-02,-5.814002081751823425e-02,1.922453790903091431e-01,-9.253410249948501587e-02,-6.663011014461517334e-02,-6.293814629316329956e-02,-1.164326146245002747e-01,1.464958041906356812e-01,-4.769691079854965210e-02,-2.636309899389743805e-02,1.876709908246994019e-01,-3.182674199342727661e-02,-8.641374111175537109e-02,1.129438052885234356e-03,-9.795777499675750732e-02,-9.948370605707168579e-02,9.657669812440872192e-03,-1.106760650873184204e-01,-6.947122514247894287e-02,-1.497868448495864868e-01,-3.914172202348709106e-02,-3.197335451841354370e-02,8.747714012861251831e-02,3.561083227396011353e-02,-9.437343687750399113e-04,1.005353331565856934e-01,1.806275397539138794e-01,-2.960763499140739441e-02,1.423469092696905136e-02,5.499800667166709900e-02,2.324720658361911774e-02,-1.247725859284400940e-01,-5.413880944252014160e-02,5.373671278357505798e-02,-1.595774292945861816e-01,-1.458163708448410034e-01,3.205607458949089050e-02,-1.174920275807380676e-01,1.366877108812332153e-01,-5.038048699498176575e-02,-2.615049248561263084e-03,1.172445435076951981e-02,-1.705893129110336304e-01,1.332222372293472290e-01,2.149325050413608551e-02,-2.849349565804004669e-02,6.865666806697845459e-02,-1.108914334326982498e-02,1.337080150842666626e-01,4.048916324973106384e-02,1.027357801795005798e-01,-9.972837567329406738e-02,1.843895018100738525e-01,7.757887244224548340e-02,2.373962663114070892e-02,-1.498822867870330811e-01,8.755245804786682129e-02,-5.065202340483665466e-02,1.724611222743988037e-01,-4.450992122292518616e-02,-1.900478154420852661e-01,1.625203937292098999e-01,1.748842746019363403e-01,-7.775038015097379684e-03,9.981813281774520874e-02,-3.677263110876083374e-02,-6.799036264419555664e-02,1.418449282646179199e-01,-1.557154208421707153e-01,1.863661035895347595e-02,-1.427758634090423584e-01,1.801250688731670380e-02
1.799552589654922485e-01,7.343500107526779175e-02,-6.104882434010505676e-02,-9.358322620391845703e-02,-1.981279850006103516e-01,-6.430523097515106201e-02,6.705258786678314209e-02,1.105877384543418884e-02,-8.447448909282684326e-02,6.564023345708847046e-02,-5.029312800616025925e-03,-1.277826130390167236e-01,-2.321608923375606537e-02,3.231258317828178406e-02,-6.305616348981857300e-02,-4.709956049919128418e-02,4.178227484226226807e-02,-1.983401626348495483e-01,1.059870272874832153e-01,-3.666575253009796143e-02,-1.001776233315467834e-01,-6.637395173311233521e-02,1.929375343024730682e-02,-4.394641891121864319e-02,-1.368904560804367065e-01,-1.295131910592317581e-02,-9.584292769432067871e-02,1.836016215384006500e-02,-4.581316933035850525e-02,-3.967744484543800354e-02,-1.059560179710388184e-01,-7.428068201988935471e-03,7.074321061372756958e-02,1.018381342291831970e-01,8.306621015071868896e-02,9.411818534135818481e-02,-2.038468141108751297e-03,9.502099454402923584e-02,9.039456956088542938e-03,-2.835139445960521698e-02,-1.198459640145301819e-01,-1.048648357391357422e-02,-6.119112670421600342e-02,1.188626140356063843e-02,2.250576578080654144e-02,1.147954687476158142e-01,1.884822696447372437e-01,3.217519447207450867e-02,6.279159337282180786e-02,-1.435773372650146484e-01,-8.116802573204040527e-02,1.485670916736125946e-02,1.557802408933639526e-01,6.648460030555725098e-02,1.508530080318450928e-01,-9.708704799413681030e-02,1.867669448256492615e-02,1.971700228750705719e-02,8.917130529880523682e-02,-1.518230326473712921e-02,-3.018986992537975311e-02,5.346405506134033203e-02,4.820447065867483616e-04,9.289668500423431396e-02,-6.471928209066390991e-02,-7.444412261247634888e-02,-1.225600764155387878e-02,8.922574110329151154e-03,-1.069810986518859863e-01,-6.000815331935882568e-02,-8.089074492454528809e-02,-6.397952139377593994e-02,-1.752005666494369507e-01,2.909290418028831482e-02,-1.428483724594116211e-01,-2.839891053736209869e-02,-1.141722593456506729e-02,1.007793545722961426e-01,-1.723750382661819458e-01,3.303736820816993713e-02,-4.259616881608963013e-02,-1.417008489370346069e-01,5.568477511405944824e-02,7.845248095691204071e-03,-1.408221274614334106e-01,1.609072647988796234e-02,-1.851221546530723572e-02,9.716154891066253185e-04,-6.995490193367004395e-02,-3.674251213669776917e-02,-6.069086864590644836e-02,-1.003182679414749146e-01,-4.657107591629028320e-02,-8.962681889533996582e-02,-1.783143281936645508e-01,1.184095069766044617e-01,7.221850007772445679e-02,-7.008497416973114014e-02,1.040074881166219711e-02,5.217411741614341736e-02,-5.938325822353363037e-02,3.219897300004959106e-02,1.300083100795745850e-01,-4.552425816655158997e-02,4.035013541579246521e-02,3.996540233492851257e-02,-4.849367961287498474e-02,-2.168623171746730804e-02,3.663181886076927185e-02,4.142349585890769958e-02,-9.935439378023147583e-02,6.001406535506248474e-02,2.289698086678981781e-02,-9.441727399826049805e-02,7.501578330993652344e-02,-3.235018998384475708e-02,3.842641785740852356e-02,1.138423532247543335e-01,8.240412920713424683e-03,-3.215667977929115295e-02,-1.480288207530975342e-01,3.867084160447120667e-02,-9.479225426912307739e-02,-4.398329183459281921e-02,-2.620246075093746185e-02,-2.804095484316349030e-02,-2.146452292799949646e-02,9.851510077714920044e-02
-7.502897828817367554e-02,1.251038908958435059e-01,2.721920609474182129e-02,6.249633431434631348e-02,-4.943094030022621155e-02,-7.820912450551986694e-02,-6.181072443723678589e-02,-2.501756185665726662e-03,-1.378670334815979004e-02,-5.841796100139617920e-02,-5.441653355956077576e-02,-5.791215598583221436e-02,-1.147625893354415894e-01,-4.755717888474464417e-02,-1.630256474018096924e-01,8.936233818531036377e-02,-6.010214239358901978e-02,-6.093969941139221191e-02,3.933792188763618469e-02,2.674256637692451477e-02,2.720182389020919800e-02,1.001577153801918030e-01,1.389181613922119141e-01,1.149230152368545532e-01,-7.807623594999313354e-02,2.978851273655891418e-02,5.949879996478557587e-03,-2.387350238859653473e-02,1.268958300352096558e-01,-8.106990903615951538e-02,4.272892698645591736e-02,-5.863671004772186279e-02,4.447620734572410583e-02,-9.670154540799558163e-04,1.445713639259338379e-01,8.256748318672180176e-02,-1.054007411003112793e-01,-1.653025113046169281e-02,3.616510331630706787e-02,1.308016479015350342e-01,-5.347271636128425598e-02,3.633770346641540527e-02,-9.454809874296188354e-02,-6.223637238144874573e-02,8.776297420263290405e-02,-7.078918814659118652e-02,-1.540011614561080933e-01,-1.297580450773239136e-01,-1.951442332938313484e-03,-6.686382740736007690e-02,-1.743975654244422913e-02,-5.073111876845359802e-02,-2.633273787796497345e-02,-1.377626061439514160e-01,1.120196357369422913e-01,1.003244444727897644e-01,-1.330429017543792725e-01,-3.142381832003593445e-02,8.774800598621368408e-02,1.653374433517456055e-01,1.675466746091842651e-01,-1.042701303958892822e-01,2.255039289593696594e-02,-4.092351719737052917e-02,-8.700498193502426147e-02,8.824332058429718018e-02,1.488922685384750366e-01,-1.265092380344867706e-02,1.656870990991592407e-01,3.102780319750308990e-02,-5.570853874087333679e-02,1.433371156454086304e-01,4.672744870185852051e-02,5.179293826222419739e-02,5.837888270616531372e-02,-1.897465437650680542e-02,-2.707025036215782166e-02,2.171539142727851868e-02,7.756762951612472534e-02,-8.937612175941467285e-03,-8.805304765701293945e-03,-1.003913395106792450e-02,-1.840176433324813843e-01,-1.741680502891540527e-01,-1.201199367642402649e-01,-1.480300631374120712e-02,1.011473163962364197e-01,5.658083409070968628e-02,1.080207973718643188e-01,6.052590161561965942e-02,-1.179773807525634766e-01,-6.522540003061294556e-03,1.246506255120038986e-02,1.097912713885307312e-01,1.982026547193527222e-01,1.008414849638938904e-01,-3.532324731349945068e-02,-1.052582915872335434e-02,-9.881637245416641235e-02,-3.568302467465400696e-02,-8.229376375675201416e-02,1.048640906810760498e-01,-6.270765513181686401e-02,1.321277916431427002e-01,3.225537016987800598e-02,-9.007655084133148193e-03,7.400804013013839722e-02,-3.071581199765205383e-02,-1.113403365015983582e-01,-1.225701160728931427e-02,-6.595902610570192337e-03,4.378702491521835327e-03,3.007377125322818756e-02,-6.297579407691955566e-02,-6.847457587718963623e-02,1.141677573323249817e-01,-3.647926077246665955e-02,4.487786814570426941e-02,-1.304085403680801392e-01,9.688036516308784485e-03,-1.040242426097393036e-02,6.148904561996459961e-02,1.812303811311721802e-01,-4.249706119298934937e-02,1.675855070352554321e-01,8.181682974100112915e-02,-7.560529559850692749e-02,1.151948869228363037e-01
-8.748352527618408203e-02,1.694049090147018433e-01,6.021583080291748047e-02,-1.548196971416473389e-01,-7.795692980289459229e-02,1.399732474237680435e-02,-6.496607512235641479e-02,-5.854499712586402893e-02,3.110070899128913879e-02,-1.252838522195816040e-01,-3.505833819508552551e-02,5.784769356250762939e-02,-1.503638327121734619e-01,7.754495739936828613e-02,-9.119389951229095459e-02,5.566516146063804626e-02,-4.588996618986129761e-02,-4.194737225770950317e-02,-1.021272093057632446e-01,5.879825912415981293e-03,-1.431545317173004150e-01,4.226019978523254395e-02,-3.080326877534389496e-02,1.067853793501853943e-01,1.410424858331680298e-01,-4.357357509434223175e-03,-1.161700673401355743e-02,-8.704727143049240112e-02,-1.488681416958570480e-02,1.185741126537322998e-01,1.165359616279602051e-01,7.456713914871215820e-02,2.285169810056686401e-02,-2.982440777122974396e-02,1.440234016627073288e-02,1.606493070721626282e-02,-1.261641364544630051e-02,-4.095675889402627945e-03,-5.258118361234664917e-02,1.301173269748687744e-01,-8.294270932674407959e-02,-2.152716927230358124e-02,-8.071344345808029175e-02,2.762230299413204193e-02,-1.055072434246540070e-02,1.558760367333889008e-02,4.892231151461601257e-02,-1.561760008335113525e-01,2.679848298430442810e-02,5.008890852332115173e-02,-2.029155939817428589e-02,8.865936659276485443e-03,8.040111511945724487e-02,-8.501780778169631958e-02,-3.727753087878227234e-02,-6.468548625707626343e-02,9.109691530466079712e-02,7.231397088617086411e-03,1.512388885021209717e-01,-8.210068196058273315e-02,-2.953259460628032684e-02,-1.711052656173706055e-02,5.072691664099693298e-02,2.336333971470594406e-03,-5.224492028355598450e-02,-7.552839815616607666e-02,-3.423410654067993164e-02,6.312984228134155273e-02,5.468656122684478760e-02,4.810003563761711121e-02,7.637451589107513428e-02,-2.644503675401210785e-02,3.119904734194278717e-02,-3.093949891626834869e-02,7.132064551115036011e-02,1.081206649541854858e-01,7.167194038629531860e-02,-7.897099852561950684e-02,1.329086814075708389e-02,-3.702500090003013611e-02,-1.575040370225906372e-01,7.237029075622558594e-02,-9.604880213737487793e-02,-1.348213255405426025e-01,6.342016905546188354e-02,-6.020505726337432861e-02,-2.928898669779300690e-02,-4.418559744954109192e-02,-5.696424841880798340e-02,8.730445057153701782e-02,4.130173102021217346e-02,1.020523626357316971e-02,1.913116546347737312e-03,-8.190897107124328613e-02,3.376337140798568726e-02,1.187294349074363708e-02,-4.912365972995758057e-02,-1.158335804939270020e-02,5.929552391171455383e-02,-2.250755392014980316e-02,2.579208277165889740e-02,5.156592000275850296e-03,-1.348380297422409058e-01,9.439042955636978149e-02,-4.647114314138889313e-03,-6.182282045483589172e-02,-2.301793918013572693e-02,1.854244060814380646e-02,1.696853041648864746e-01,1.171247661113739014e-01,-1.273102015256881714e-01,1.618249900639057159e-02,-1.340863406658172607e-01,1.034965831786394119e-02,-7.441908866167068481e-02,6.377242505550384521e-02,2.071738839149475098e-01,-2.545211277902126312e-02,4.189101979136466980e-02,-4.635209590196609497e-02,3.000685386359691620e-02,1.122920140624046326e-01,8.875790983438491821e-02,-1.497449539601802826e-02,-1.034059450030326843e-01,-3.636623546481132507e-02,-8.738392591476440430e-02,-1.547434031963348389e-01
1.963862404227256775e-02,1.895679682493209839e-01,-9.844706952571868896e-02,-8.812443166971206665e-02,-1.519594807177782059e-02,-5.017279833555221558e-02,-1.293772608041763306e-01,-1.352987438440322876e-01,1.708202362060546875e-01,-1.476118564605712891e-01,3.651163727045059204e-02,-2.876633778214454651e-03,-1.758037507534027100e-01,1.237164437770843506e-01,3.101054020226001740e-02,2.056996151804924011e-02,1.084216609597206116e-01,6.042432039976119995e-02,-8.949092589318752289e-03,1.403614729642868042e-01,-6.463449448347091675e-02,1.291979104280471802e-03,-1.719531044363975525e-02,-9.136236459016799927e-02,1.681699045002460480e-02,3.145274892449378967e-02,9.795617312192916870e-02,1.004485320299863815e-02,1.571546867489814758e-02,-7.833485305309295654e-02,6.338876485824584961e-02,9.614341706037521362e-02,-1.145822927355766296e-01,9.146060794591903687e-02,-2.155594527721405029e-02,1.894810050725936890e-01,1.776119470596313477e-01,-8.010029047727584839e-02,-5.922912433743476868e-02,1.866555772721767426e-03,2.756602130830287933e-02,1.815508902072906494e-01,-1.299847513437271118e-01,1.179510578513145447e-01,-6.252683699131011963e-02,5.790294334292411804e-02,-1.123312190175056458e-01,-9.627816826105117798e-02,-2.732238732278347015e-03,-6.118576973676681519e-02,-8.224143832921981812e-02,3.436695039272308350e-02,-8.794105798006057739e-02,-2.458738163113594055e-02,1.096087396144866943e-01,-5.352332442998886108e-02,-3.273879364132881165e-02,-9.647751599550247192e-02,-9.781587868928909302e-02,-1.112403124570846558e-01,1.787948305718600750e-03,-9.872967004776000977e-02,-1.419534068554639816e-02,9.001077711582183838e-02,-1.434997469186782837e-01,1.192798614501953125e-01,7.785210758447647095e-02,-7.395531237125396729e-02,4.555413126945495605e-02,-1.871001869440078735e-01,-2.136514708399772644e-02,-4.548323899507522583e-02,1.004198044538497925e-01,-1.167576909065246582e-01,-7.212101668119430542e-02,7.264575362205505371e-02,-6.200655177235603333e-02,5.763460695743560791e-02,1.245137751102447510e-01,7.617326825857162476e-02,-3.293835371732711792e-02,-1.540711224079132080e-01,6.149871274828910828e-03,-1.608686596155166626e-01,-1.064571365714073181e-01,-6.543181836605072021e-02,-6.853644549846649170e-02,1.394365355372428894e-02,-1.094769313931465149e-01,-5.822191014885902405e-02,-6.303346715867519379e-03,-3.782217204570770264e-02,-1.054660696536302567e-02,4.159498587250709534e-02,3.751915693283081055e-02,7.367288321256637573e-02,4.827179759740829468e-02,-1.777591258287429810e-01,7.986371964216232300e-02,-2.196432091295719147e-02,3.258050605654716492e-02,1.550334971398115158e-03,1.659732311964035034e-01,2.096308022737503052e-02,9.374124556779861450e-02,1.321216672658920288e-01,-1.693782396614551544e-02,3.686604276299476624e-02,5.183050408959388733e-02,2.070020511746406555e-02,-1.542748510837554932e-01,-1.827972084283828735e-01,7.421375811100006104e-02,-6.116523966193199158e-02,2.034666202962398529e-02,-6.722934544086456299e-02,-8.546669036149978638e-02,-3.984939306974411011e-02,2.401099912822246552e-02,1.098490804433822632e-01,1.766884177923202515e-01,-2.443059533834457397e-02,5.891846865415573120e-02,8.694758266210556030e-02,1.879786252975463867e-01,-1.449426561594009399e-01,-6.910256296396255493e-02,1.482725888490676880e-01
-5.505790561437606812e-02,-8.649172261357307434e-03,1.736948490142822266e-01,1.280837804079055786e-01,1.755764707922935486e-02,-3.459207713603973389e-02,1.130511611700057983e-01,1.103191375732421875e-01,6.154554337263107300e-02,-5.549518764019012451e-02,1.663072593510150909e-02,-3.949140310287475586e-01,7.605904247611761093e-03,-5.074146017432212830e-02,-9.155277162790298462e-02,5.761630833148956299e-02,2.576825208961963654e-02,-1.155386795289814472e-03,-1.487555950880050659e-01,1.182362623512744904e-02,-1.025734469294548035e-01,2.398258075118064880e-02,4.412670060992240906e-02,-8.400575071573257446e-02,-1.413414776325225830e-01,6.457922607660293579e-02,1.774871200323104858e-01,8.984164148569107056e-02,2.648061886429786682e-02,6.359528284519910812e-03,6.143375113606452942e-02,2.812081202864646912e-02,-1.330184340476989746e-01,8.616536855697631836e-02,1.276986896991729736e-01,-2.797949612140655518e-01,-1.227698661386966705e-02,-2.031273841857910156e-01,-1.478183735162019730e-02,-5.674060434103012085e-02,7.887665182352066040e-02,-1.683970727026462555e-02,4.113625362515449524e-02,3.857288509607315063e-02,2.765949629247188568e-02,-8.942801505327224731e-02,7.146352529525756836e-02,-2.204173803329467773e-01,2.026954432949423790e-03,1.203202083706855774e-01,6.053820252418518066e-02,-8.199895732104778290e-03,1.671488434076309204e-01,2.595182359218597412e-01,1.688446663320064545e-02,4.841406270861625671e-02,3.979214280843734741e-02,1.182658970355987549e-01,1.438236087560653687e-01,1.244271546602249146e-01,7.784198224544525146e-02,-1.211857348680496216e-01,4.119214788079261780e-02,-1.390090584754943848e-01,-8.212211728096008301e-02,-1.715812534093856812e-01,-1.405152678489685059e-01,-4.503612220287322998e-02,-1.745105981826782227e-01,-3.769205510616302490e-02,9.161666966974735260e-03,6.341241300106048584e-02,-1.569441109895706177e-01,-9.999243170022964478e-02,-1.432888358831405640e-01,1.338866651058197021e-01,5.680323019623756409e-02,-1.113023422658443451e-02,-1.727414727210998535e-01,-1.460363063961267471e-02,-1.919352859258651733e-01,6.402185559272766113e-02,8.622551709413528442e-02,3.418399021029472351e-02,-1.791905313730239868e-01,-1.275801509618759155e-01,-5.216225609183311462e-02,2.820827066898345947e-01,-1.534441858530044556e-01,1.306093931198120117e-01,-7.624822854995727539e-02,1.684883832931518555e-01,-1.426763366907835007e-03,-6.118372455239295959e-02,1.920058131217956543e-01,1.244127936661243439e-02,9.995882213115692139e-02,9.878123179078102112e-03,4.269245080649852753e-03,1.737826317548751831e-01,8.166523277759552002e-02,7.550140377134084702e-03,-6.983681023120880127e-02,-2.909173490479588509e-03,-5.295705050230026245e-02,-8.772411383688449860e-03,1.193322390317916870e-01,-1.109620258212089539e-01,1.752498000860214233e-01,-1.181019768118858337e-01,1.198296993970870972e-01,5.502165295183658600e-03,1.018669530749320984e-01,-6.625209748744964600e-02,-6.555098295211791992e-02,-8.903567492961883545e-02,-3.563880175352096558e-02,4.864775761961936951e-02,2.453970909118652344e-02,3.307725489139556885e-02,7.451277226209640503e-02,-3.401325270533561707e-02,3.141057491302490234e-02,5.029537715017795563e-03,2.199261076748371124e-02,9.675887972116470337e-02,-4.765434935688972473e-02,1.005682498216629028e-01
